digraph Tree {
node [shape=box, style="filled, rounded", color="black", fontname=helvetica] ;
edge [fontname=helvetica] ;
0 [label="Modelo <= 0.38\ngini = 0.16\nsamples = 44227\nvalue = [6216, 63803]\nclass = Torque_max", fillcolor="#4ca7e8"] ;
1 [label="Modelo <= 0.1\ngini = 0.13\nsamples = 35920\nvalue = [3881, 52926]\nclass = Torque_max", fillcolor="#48a4e7"] ;
0 -> 1 [labeldistance=2.5, labelangle=45, headlabel="True"] ;
2 [label="Pset_name_cat <= 0.61\ngini = 0.26\nsamples = 6659\nvalue = [1616, 8832]\nclass = Torque_max", fillcolor="#5dafea"] ;
1 -> 2 ;
3 [label="Torque_max <= 0.69\ngini = 0.4\nsamples = 3023\nvalue = [1295, 3420]\nclass = Torque_max", fillcolor="#84c2ef"] ;
2 -> 3 ;
4 [label="Pset_name_cat <= 0.09\ngini = 0.34\nsamples = 2236\nvalue = [759, 2751]\nclass = Torque_max", fillcolor="#70b8ec"] ;
3 -> 4 ;
5 [label="Torque_max <= 0.27\ngini = 0.44\nsamples = 881\nvalue = [445, 943]\nclass = Torque_max", fillcolor="#96cbf1"] ;
4 -> 5 ;
6 [label="Angle_min <= 0.0\ngini = 0.34\nsamples = 384\nvalue = [134, 473]\nclass = Torque_max", fillcolor="#71b9ec"] ;
5 -> 6 ;
7 [label="Modelo <= 0.03\ngini = 0.29\nsamples = 230\nvalue = [66, 305]\nclass = Torque_max", fillcolor="#64b2eb"] ;
6 -> 7 ;
8 [label="gini = 0.48\nsamples = 11\nvalue = [7, 11]\nclass = Torque_max", fillcolor="#b7dbf6"] ;
7 -> 8 ;
9 [label="Modelo <= 0.05\ngini = 0.28\nsamples = 219\nvalue = [59, 294]\nclass = Torque_max", fillcolor="#61b1ea"] ;
7 -> 9 ;
10 [label="gini = 0.32\nsamples = 54\nvalue = [17, 67]\nclass = Torque_max", fillcolor="#6bb6ec"] ;
9 -> 10 ;
11 [label="Modelo <= 0.07\ngini = 0.26\nsamples = 165\nvalue = [42, 227]\nclass = Torque_max", fillcolor="#5eafea"] ;
9 -> 11 ;
12 [label="gini = 0.1\nsamples = 11\nvalue = [1, 18]\nclass = Torque_max", fillcolor="#44a2e6"] ;
11 -> 12 ;
13 [label="Modelo <= 0.08\ngini = 0.27\nsamples = 154\nvalue = [41, 209]\nclass = Torque_max", fillcolor="#60b0ea"] ;
11 -> 13 ;
14 [label="Modelo <= 0.07\ngini = 0.3\nsamples = 93\nvalue = [27, 122]\nclass = Torque_max", fillcolor="#65b3eb"] ;
13 -> 14 ;
15 [label="gini = 0.31\nsamples = 29\nvalue = [9, 37]\nclass = Torque_max", fillcolor="#69b5eb"] ;
14 -> 15 ;
16 [label="Modelo <= 0.08\ngini = 0.29\nsamples = 64\nvalue = [18, 85]\nclass = Torque_max", fillcolor="#63b2eb"] ;
14 -> 16 ;
17 [label="gini = 0.0\nsamples = 1\nvalue = [0, 2]\nclass = Torque_max", fillcolor="#399de5"] ;
16 -> 17 ;
18 [label="gini = 0.29\nsamples = 63\nvalue = [18, 83]\nclass = Torque_max", fillcolor="#64b2eb"] ;
16 -> 18 ;
19 [label="gini = 0.24\nsamples = 61\nvalue = [14, 87]\nclass = Torque_max", fillcolor="#59ade9"] ;
13 -> 19 ;
20 [label="Trabajador <= 0.84\ngini = 0.41\nsamples = 154\nvalue = [68, 168]\nclass = Torque_max", fillcolor="#89c5f0"] ;
6 -> 20 ;
21 [label="Modelo <= 0.08\ngini = 0.41\nsamples = 111\nvalue = [49, 122]\nclass = Torque_max", fillcolor="#89c4ef"] ;
20 -> 21 ;
22 [label="Modelo <= 0.07\ngini = 0.34\nsamples = 42\nvalue = [15, 55]\nclass = Torque_max", fillcolor="#6fb8ec"] ;
21 -> 22 ;
23 [label="Modelo <= 0.05\ngini = 0.39\nsamples = 35\nvalue = [15, 41]\nclass = Torque_max", fillcolor="#81c1ef"] ;
22 -> 23 ;
24 [label="Modelo <= 0.03\ngini = 0.27\nsamples = 18\nvalue = [4, 21]\nclass = Torque_max", fillcolor="#5fb0ea"] ;
23 -> 24 ;
25 [label="gini = 0.3\nsamples = 12\nvalue = [3, 13]\nclass = Torque_max", fillcolor="#67b4eb"] ;
24 -> 25 ;
26 [label="gini = 0.2\nsamples = 6\nvalue = [1, 8]\nclass = Torque_max", fillcolor="#52a9e8"] ;
24 -> 26 ;
27 [label="gini = 0.46\nsamples = 17\nvalue = [11, 20]\nclass = Torque_max", fillcolor="#a6d3f3"] ;
23 -> 27 ;
28 [label="gini = 0.0\nsamples = 7\nvalue = [0, 14]\nclass = Torque_max", fillcolor="#399de5"] ;
22 -> 28 ;
29 [label="gini = 0.45\nsamples = 69\nvalue = [34, 67]\nclass = Torque_max", fillcolor="#9dcff2"] ;
21 -> 29 ;
30 [label="gini = 0.41\nsamples = 43\nvalue = [19, 46]\nclass = Torque_max", fillcolor="#8bc5f0"] ;
20 -> 30 ;
31 [label="Torque_max <= 0.59\ngini = 0.48\nsamples = 497\nvalue = [311, 470]\nclass = Torque_max", fillcolor="#bcdef6"] ;
5 -> 31 ;
32 [label="Trabajador <= 0.46\ngini = 0.48\nsamples = 493\nvalue = [311, 463]\nclass = Torque_max", fillcolor="#bedff6"] ;
31 -> 32 ;
33 [label="Pset_name_cat <= 0.07\ngini = 0.5\nsamples = 164\nvalue = [125, 127]\nclass = Torque_max", fillcolor="#fcfdff"] ;
32 -> 33 ;
34 [label="gini = 0.0\nsamples = 1\nvalue = [1, 0]\nclass = Torque_min", fillcolor="#e58139"] ;
33 -> 34 ;
35 [label="Trabajador <= 0.31\ngini = 0.5\nsamples = 163\nvalue = [124, 127]\nclass = Torque_max", fillcolor="#fafdfe"] ;
33 -> 35 ;
36 [label="Modelo <= 0.03\ngini = 0.47\nsamples = 27\nvalue = [17, 28]\nclass = Torque_max", fillcolor="#b1d8f5"] ;
35 -> 36 ;
37 [label="gini = 0.5\nsamples = 7\nvalue = [5, 6]\nclass = Torque_max", fillcolor="#deeffb"] ;
36 -> 37 ;
38 [label="Modelo <= 0.04\ngini = 0.46\nsamples = 20\nvalue = [12, 22]\nclass = Torque_max", fillcolor="#a5d2f3"] ;
36 -> 38 ;
39 [label="gini = 0.0\nsamples = 2\nvalue = [0, 4]\nclass = Torque_max", fillcolor="#399de5"] ;
38 -> 39 ;
40 [label="Modelo <= 0.06\ngini = 0.48\nsamples = 18\nvalue = [12, 18]\nclass = Torque_max", fillcolor="#bddef6"] ;
38 -> 40 ;
41 [label="gini = 0.5\nsamples = 11\nvalue = [9, 11]\nclass = Torque_max", fillcolor="#dbedfa"] ;
40 -> 41 ;
42 [label="gini = 0.42\nsamples = 7\nvalue = [3, 7]\nclass = Torque_max", fillcolor="#8ec7f0"] ;
40 -> 42 ;
43 [label="Trabajador <= 0.38\ngini = 0.5\nsamples = 136\nvalue = [107, 99]\nclass = Torque_min", fillcolor="#fdf6f0"] ;
35 -> 43 ;
44 [label="Modelo <= 0.09\ngini = 0.5\nsamples = 23\nvalue = [19, 20]\nclass = Torque_max", fillcolor="#f5fafe"] ;
43 -> 44 ;
45 [label="gini = 0.5\nsamples = 21\nvalue = [19, 17]\nclass = Torque_min", fillcolor="#fcf2ea"] ;
44 -> 45 ;
46 [label="gini = 0.0\nsamples = 2\nvalue = [0, 3]\nclass = Torque_max", fillcolor="#399de5"] ;
44 -> 46 ;
47 [label="Modelo <= 0.01\ngini = 0.5\nsamples = 113\nvalue = [88, 79]\nclass = Torque_min", fillcolor="#fcf2eb"] ;
43 -> 47 ;
48 [label="gini = 0.13\nsamples = 11\nvalue = [1, 13]\nclass = Torque_max", fillcolor="#48a5e7"] ;
47 -> 48 ;
49 [label="Modelo <= 0.05\ngini = 0.49\nsamples = 102\nvalue = [87, 66]\nclass = Torque_min", fillcolor="#f9e1cf"] ;
47 -> 49 ;
50 [label="Modelo <= 0.03\ngini = 0.45\nsamples = 48\nvalue = [49, 26]\nclass = Torque_min", fillcolor="#f3c4a2"] ;
49 -> 50 ;
51 [label="Modelo <= 0.03\ngini = 0.48\nsamples = 31\nvalue = [27, 19]\nclass = Torque_min", fillcolor="#f7dac4"] ;
50 -> 51 ;
52 [label="gini = 0.0\nsamples = 3\nvalue = [4, 0]\nclass = Torque_min", fillcolor="#e58139"] ;
51 -> 52 ;
53 [label="gini = 0.5\nsamples = 28\nvalue = [23, 19]\nclass = Torque_min", fillcolor="#fae9dd"] ;
51 -> 53 ;
54 [label="Modelo <= 0.04\ngini = 0.37\nsamples = 17\nvalue = [22, 7]\nclass = Torque_min", fillcolor="#eda978"] ;
50 -> 54 ;
55 [label="gini = 0.38\nsamples = 12\nvalue = [15, 5]\nclass = Torque_min", fillcolor="#eeab7b"] ;
54 -> 55 ;
56 [label="gini = 0.35\nsamples = 5\nvalue = [7, 2]\nclass = Torque_min", fillcolor="#eca572"] ;
54 -> 56 ;
57 [label="Modelo <= 0.05\ngini = 0.5\nsamples = 54\nvalue = [38, 40]\nclass = Torque_max", fillcolor="#f5fafe"] ;
49 -> 57 ;
58 [label="gini = 0.49\nsamples = 19\nvalue = [16, 13]\nclass = Torque_min", fillcolor="#fae7da"] ;
57 -> 58 ;
59 [label="Modelo <= 0.09\ngini = 0.49\nsamples = 35\nvalue = [22, 27]\nclass = Torque_max", fillcolor="#daedfa"] ;
57 -> 59 ;
60 [label="Modelo <= 0.09\ngini = 0.49\nsamples = 27\nvalue = [15, 21]\nclass = Torque_max", fillcolor="#c6e3f8"] ;
59 -> 60 ;
61 [label="Modelo <= 0.07\ngini = 0.5\nsamples = 24\nvalue = [15, 18]\nclass = Torque_max", fillcolor="#deeffb"] ;
60 -> 61 ;
62 [label="gini = 0.5\nsamples = 10\nvalue = [6, 7]\nclass = Torque_max", fillcolor="#e3f1fb"] ;
61 -> 62 ;
63 [label="Modelo <= 0.08\ngini = 0.5\nsamples = 14\nvalue = [9, 11]\nclass = Torque_max", fillcolor="#dbedfa"] ;
61 -> 63 ;
64 [label="gini = 0.49\nsamples = 4\nvalue = [3, 4]\nclass = Torque_max", fillcolor="#cee6f8"] ;
63 -> 64 ;
65 [label="gini = 0.5\nsamples = 10\nvalue = [6, 7]\nclass = Torque_max", fillcolor="#e3f1fb"] ;
63 -> 65 ;
66 [label="gini = 0.0\nsamples = 3\nvalue = [0, 3]\nclass = Torque_max", fillcolor="#399de5"] ;
60 -> 66 ;
67 [label="gini = 0.5\nsamples = 8\nvalue = [7, 6]\nclass = Torque_min", fillcolor="#fbede3"] ;
59 -> 67 ;
68 [label="Trabajador <= 0.53\ngini = 0.46\nsamples = 329\nvalue = [186, 336]\nclass = Torque_max", fillcolor="#a7d3f3"] ;
32 -> 68 ;
69 [label="Modelo <= 0.05\ngini = 0.45\nsamples = 250\nvalue = [138, 263]\nclass = Torque_max", fillcolor="#a1d0f3"] ;
68 -> 69 ;
70 [label="Modelo <= 0.01\ngini = 0.48\nsamples = 127\nvalue = [79, 119]\nclass = Torque_max", fillcolor="#bcdef6"] ;
69 -> 70 ;
71 [label="gini = 0.17\nsamples = 6\nvalue = [1, 10]\nclass = Torque_max", fillcolor="#4da7e8"] ;
70 -> 71 ;
72 [label="Modelo <= 0.05\ngini = 0.49\nsamples = 121\nvalue = [78, 109]\nclass = Torque_max", fillcolor="#c7e3f8"] ;
70 -> 72 ;
73 [label="Modelo <= 0.03\ngini = 0.48\nsamples = 118\nvalue = [74, 108]\nclass = Torque_max", fillcolor="#c1e0f7"] ;
72 -> 73 ;
74 [label="Modelo <= 0.03\ngini = 0.47\nsamples = 54\nvalue = [32, 53]\nclass = Torque_max", fillcolor="#b1d8f5"] ;
73 -> 74 ;
75 [label="Modelo <= 0.01\ngini = 0.48\nsamples = 41\nvalue = [26, 40]\nclass = Torque_max", fillcolor="#baddf6"] ;
74 -> 75 ;
76 [label="gini = 0.44\nsamples = 12\nvalue = [6, 12]\nclass = Torque_max", fillcolor="#9ccef2"] ;
75 -> 76 ;
77 [label="Modelo <= 0.02\ngini = 0.49\nsamples = 29\nvalue = [20, 28]\nclass = Torque_max", fillcolor="#c6e3f8"] ;
75 -> 77 ;
78 [label="gini = 0.5\nsamples = 9\nvalue = [8, 9]\nclass = Torque_max", fillcolor="#e9f4fc"] ;
77 -> 78 ;
79 [label="Modelo <= 0.02\ngini = 0.47\nsamples = 20\nvalue = [12, 19]\nclass = Torque_max", fillcolor="#b6dbf5"] ;
77 -> 79 ;
80 [label="gini = 0.48\nsamples = 9\nvalue = [6, 9]\nclass = Torque_max", fillcolor="#bddef6"] ;
79 -> 80 ;
81 [label="gini = 0.47\nsamples = 11\nvalue = [6, 10]\nclass = Torque_max", fillcolor="#b0d8f5"] ;
79 -> 81 ;
82 [label="gini = 0.43\nsamples = 13\nvalue = [6, 13]\nclass = Torque_max", fillcolor="#94caf1"] ;
74 -> 82 ;
83 [label="Modelo <= 0.04\ngini = 0.49\nsamples = 64\nvalue = [42, 55]\nclass = Torque_max", fillcolor="#d0e8f9"] ;
73 -> 83 ;
84 [label="gini = 0.49\nsamples = 52\nvalue = [36, 46]\nclass = Torque_max", fillcolor="#d4eaf9"] ;
83 -> 84 ;
85 [label="gini = 0.48\nsamples = 12\nvalue = [6, 9]\nclass = Torque_max", fillcolor="#bddef6"] ;
83 -> 85 ;
86 [label="gini = 0.32\nsamples = 3\nvalue = [4, 1]\nclass = Torque_min", fillcolor="#eca06a"] ;
72 -> 86 ;
87 [label="Modelo <= 0.07\ngini = 0.41\nsamples = 123\nvalue = [59, 144]\nclass = Torque_max", fillcolor="#8ac5f0"] ;
69 -> 87 ;
88 [label="Modelo <= 0.06\ngini = 0.21\nsamples = 33\nvalue = [6, 45]\nclass = Torque_max", fillcolor="#53aae8"] ;
87 -> 88 ;
89 [label="gini = 0.44\nsamples = 4\nvalue = [3, 6]\nclass = Torque_max", fillcolor="#9ccef2"] ;
88 -> 89 ;
90 [label="Trabajador <= 0.51\ngini = 0.13\nsamples = 29\nvalue = [3, 39]\nclass = Torque_max", fillcolor="#48a5e7"] ;
88 -> 90 ;
91 [label="gini = 0.0\nsamples = 1\nvalue = [0, 1]\nclass = Torque_max", fillcolor="#399de5"] ;
90 -> 91 ;
92 [label="Modelo <= 0.07\ngini = 0.14\nsamples = 28\nvalue = [3, 38]\nclass = Torque_max", fillcolor="#49a5e7"] ;
90 -> 92 ;
93 [label="gini = 0.0\nsamples = 11\nvalue = [0, 18]\nclass = Torque_max", fillcolor="#399de5"] ;
92 -> 93 ;
94 [label="gini = 0.23\nsamples = 17\nvalue = [3, 20]\nclass = Torque_max", fillcolor="#57ace9"] ;
92 -> 94 ;
95 [label="Trabajador <= 0.51\ngini = 0.45\nsamples = 90\nvalue = [53, 99]\nclass = Torque_max", fillcolor="#a3d1f3"] ;
87 -> 95 ;
96 [label="Modelo <= 0.08\ngini = 0.44\nsamples = 8\nvalue = [5, 10]\nclass = Torque_max", fillcolor="#9ccef2"] ;
95 -> 96 ;
97 [label="gini = 0.38\nsamples = 4\nvalue = [2, 6]\nclass = Torque_max", fillcolor="#7bbeee"] ;
96 -> 97 ;
98 [label="gini = 0.49\nsamples = 4\nvalue = [3, 4]\nclass = Torque_max", fillcolor="#cee6f8"] ;
96 -> 98 ;
99 [label="Modelo <= 0.09\ngini = 0.46\nsamples = 82\nvalue = [48, 89]\nclass = Torque_max", fillcolor="#a4d2f3"] ;
95 -> 99 ;
100 [label="Modelo <= 0.08\ngini = 0.48\nsamples = 55\nvalue = [34, 50]\nclass = Torque_max", fillcolor="#c0e0f7"] ;
99 -> 100 ;
101 [label="gini = 0.4\nsamples = 15\nvalue = [6, 16]\nclass = Torque_max", fillcolor="#83c2ef"] ;
100 -> 101 ;
102 [label="Modelo <= 0.09\ngini = 0.5\nsamples = 40\nvalue = [28, 34]\nclass = Torque_max", fillcolor="#dceefa"] ;
100 -> 102 ;
103 [label="gini = 0.49\nsamples = 35\nvalue = [25, 32]\nclass = Torque_max", fillcolor="#d4eaf9"] ;
102 -> 103 ;
104 [label="gini = 0.48\nsamples = 5\nvalue = [3, 2]\nclass = Torque_min", fillcolor="#f6d5bd"] ;
102 -> 104 ;
105 [label="Modelo <= 0.1\ngini = 0.39\nsamples = 27\nvalue = [14, 39]\nclass = Torque_max", fillcolor="#80c0ee"] ;
99 -> 105 ;
106 [label="gini = 0.0\nsamples = 7\nvalue = [0, 16]\nclass = Torque_max", fillcolor="#399de5"] ;
105 -> 106 ;
107 [label="gini = 0.47\nsamples = 20\nvalue = [14, 23]\nclass = Torque_max", fillcolor="#b2d9f5"] ;
105 -> 107 ;
108 [label="Modelo <= 0.01\ngini = 0.48\nsamples = 79\nvalue = [48, 73]\nclass = Torque_max", fillcolor="#bbddf6"] ;
68 -> 108 ;
109 [label="gini = 0.0\nsamples = 7\nvalue = [0, 13]\nclass = Torque_max", fillcolor="#399de5"] ;
108 -> 109 ;
110 [label="Trabajador <= 0.64\ngini = 0.49\nsamples = 72\nvalue = [48, 60]\nclass = Torque_max", fillcolor="#d7ebfa"] ;
108 -> 110 ;
111 [label="Modelo <= 0.05\ngini = 0.48\nsamples = 43\nvalue = [27, 40]\nclass = Torque_max", fillcolor="#bfdff7"] ;
110 -> 111 ;
112 [label="Trabajador <= 0.57\ngini = 0.5\nsamples = 27\nvalue = [19, 22]\nclass = Torque_max", fillcolor="#e4f2fb"] ;
111 -> 112 ;
113 [label="Modelo <= 0.03\ngini = 0.49\nsamples = 16\nvalue = [13, 10]\nclass = Torque_min", fillcolor="#f9e2d1"] ;
112 -> 113 ;
114 [label="Modelo <= 0.01\ngini = 0.5\nsamples = 11\nvalue = [9, 9]\nclass = Torque_min", fillcolor="#ffffff"] ;
113 -> 114 ;
115 [label="gini = 0.42\nsamples = 7\nvalue = [7, 3]\nclass = Torque_min", fillcolor="#f0b78e"] ;
114 -> 115 ;
116 [label="gini = 0.38\nsamples = 4\nvalue = [2, 6]\nclass = Torque_max", fillcolor="#7bbeee"] ;
114 -> 116 ;
117 [label="gini = 0.32\nsamples = 5\nvalue = [4, 1]\nclass = Torque_min", fillcolor="#eca06a"] ;
113 -> 117 ;
118 [label="Modelo <= 0.03\ngini = 0.44\nsamples = 11\nvalue = [6, 12]\nclass = Torque_max", fillcolor="#9ccef2"] ;
112 -> 118 ;
119 [label="gini = 0.41\nsamples = 4\nvalue = [2, 5]\nclass = Torque_max", fillcolor="#88c4ef"] ;
118 -> 119 ;
120 [label="gini = 0.46\nsamples = 7\nvalue = [4, 7]\nclass = Torque_max", fillcolor="#aad5f4"] ;
118 -> 120 ;
121 [label="Trabajador <= 0.57\ngini = 0.43\nsamples = 16\nvalue = [8, 18]\nclass = Torque_max", fillcolor="#91c9f1"] ;
111 -> 121 ;
122 [label="gini = 0.0\nsamples = 1\nvalue = [0, 2]\nclass = Torque_max", fillcolor="#399de5"] ;
121 -> 122 ;
123 [label="Modelo <= 0.09\ngini = 0.44\nsamples = 15\nvalue = [8, 16]\nclass = Torque_max", fillcolor="#9ccef2"] ;
121 -> 123 ;
124 [label="gini = 0.0\nsamples = 2\nvalue = [0, 4]\nclass = Torque_max", fillcolor="#399de5"] ;
123 -> 124 ;
125 [label="gini = 0.48\nsamples = 13\nvalue = [8, 12]\nclass = Torque_max", fillcolor="#bddef6"] ;
123 -> 125 ;
126 [label="Modelo <= 0.02\ngini = 0.5\nsamples = 29\nvalue = [21, 20]\nclass = Torque_min", fillcolor="#fef9f6"] ;
110 -> 126 ;
127 [label="Modelo <= 0.01\ngini = 0.42\nsamples = 14\nvalue = [14, 6]\nclass = Torque_min", fillcolor="#f0b78e"] ;
126 -> 127 ;
128 [label="Trabajador <= 0.81\ngini = 0.42\nsamples = 6\nvalue = [7, 3]\nclass = Torque_min", fillcolor="#f0b78e"] ;
127 -> 128 ;
129 [label="gini = 0.41\nsamples = 4\nvalue = [5, 2]\nclass = Torque_min", fillcolor="#efb388"] ;
128 -> 129 ;
130 [label="gini = 0.44\nsamples = 2\nvalue = [2, 1]\nclass = Torque_min", fillcolor="#f2c09c"] ;
128 -> 130 ;
131 [label="gini = 0.42\nsamples = 8\nvalue = [7, 3]\nclass = Torque_min", fillcolor="#f0b78e"] ;
127 -> 131 ;
132 [label="Modelo <= 0.07\ngini = 0.44\nsamples = 15\nvalue = [7, 14]\nclass = Torque_max", fillcolor="#9ccef2"] ;
126 -> 132 ;
133 [label="Trabajador <= 0.81\ngini = 0.39\nsamples = 14\nvalue = [5, 14]\nclass = Torque_max", fillcolor="#80c0ee"] ;
132 -> 133 ;
134 [label="gini = 0.24\nsamples = 6\nvalue = [1, 6]\nclass = Torque_max", fillcolor="#5aade9"] ;
133 -> 134 ;
135 [label="gini = 0.44\nsamples = 8\nvalue = [4, 8]\nclass = Torque_max", fillcolor="#9ccef2"] ;
133 -> 135 ;
136 [label="gini = 0.0\nsamples = 1\nvalue = [2, 0]\nclass = Torque_min", fillcolor="#e58139"] ;
132 -> 136 ;
137 [label="gini = 0.0\nsamples = 4\nvalue = [0, 7]\nclass = Torque_max", fillcolor="#399de5"] ;
31 -> 137 ;
138 [label="Pset_name_cat <= 0.43\ngini = 0.25\nsamples = 1355\nvalue = [314, 1808]\nclass = Torque_max", fillcolor="#5baeea"] ;
4 -> 138 ;
139 [label="Torque_min <= 0.47\ngini = 0.16\nsamples = 809\nvalue = [109, 1167]\nclass = Torque_max", fillcolor="#4ba6e7"] ;
138 -> 139 ;
140 [label="Torque_max <= 0.34\ngini = 0.19\nsamples = 426\nvalue = [69, 588]\nclass = Torque_max", fillcolor="#50a8e8"] ;
139 -> 140 ;
141 [label="Torque_min <= 0.25\ngini = 0.17\nsamples = 384\nvalue = [55, 544]\nclass = Torque_max", fillcolor="#4da7e8"] ;
140 -> 141 ;
142 [label="gini = 0.0\nsamples = 2\nvalue = [0, 3]\nclass = Torque_max", fillcolor="#399de5"] ;
141 -> 142 ;
143 [label="Modelo <= 0.05\ngini = 0.17\nsamples = 382\nvalue = [55, 541]\nclass = Torque_max", fillcolor="#4da7e8"] ;
141 -> 143 ;
144 [label="Trabajador <= 0.46\ngini = 0.21\nsamples = 232\nvalue = [43, 308]\nclass = Torque_max", fillcolor="#55abe9"] ;
143 -> 144 ;
145 [label="Modelo <= 0.04\ngini = 0.14\nsamples = 47\nvalue = [5, 60]\nclass = Torque_max", fillcolor="#49a5e7"] ;
144 -> 145 ;
146 [label="Trabajador <= 0.35\ngini = 0.07\nsamples = 39\nvalue = [2, 53]\nclass = Torque_max", fillcolor="#40a1e6"] ;
145 -> 146 ;
147 [label="Modelo <= 0.03\ngini = 0.24\nsamples = 13\nvalue = [2, 12]\nclass = Torque_max", fillcolor="#5aade9"] ;
146 -> 147 ;
148 [label="gini = 0.24\nsamples = 6\nvalue = [1, 6]\nclass = Torque_max", fillcolor="#5aade9"] ;
147 -> 148 ;
149 [label="gini = 0.24\nsamples = 7\nvalue = [1, 6]\nclass = Torque_max", fillcolor="#5aade9"] ;
147 -> 149 ;
150 [label="gini = 0.0\nsamples = 26\nvalue = [0, 41]\nclass = Torque_max", fillcolor="#399de5"] ;
146 -> 150 ;
151 [label="gini = 0.42\nsamples = 8\nvalue = [3, 7]\nclass = Torque_max", fillcolor="#8ec7f0"] ;
145 -> 151 ;
152 [label="Trabajador <= 0.53\ngini = 0.23\nsamples = 185\nvalue = [38, 248]\nclass = Torque_max", fillcolor="#57ace9"] ;
144 -> 152 ;
153 [label="Modelo <= 0.04\ngini = 0.25\nsamples = 145\nvalue = [33, 189]\nclass = Torque_max", fillcolor="#5caeea"] ;
152 -> 153 ;
154 [label="Modelo <= 0.03\ngini = 0.18\nsamples = 118\nvalue = [18, 159]\nclass = Torque_max", fillcolor="#4fa8e8"] ;
153 -> 154 ;
155 [label="Modelo <= 0.02\ngini = 0.16\nsamples = 57\nvalue = [7, 75]\nclass = Torque_max", fillcolor="#4ba6e7"] ;
154 -> 155 ;
156 [label="Modelo <= 0.01\ngini = 0.22\nsamples = 23\nvalue = [4, 28]\nclass = Torque_max", fillcolor="#55abe9"] ;
155 -> 156 ;
157 [label="gini = 0.12\nsamples = 10\nvalue = [1, 14]\nclass = Torque_max", fillcolor="#47a4e7"] ;
156 -> 157 ;
158 [label="gini = 0.29\nsamples = 13\nvalue = [3, 14]\nclass = Torque_max", fillcolor="#63b2eb"] ;
156 -> 158 ;
159 [label="Modelo <= 0.02\ngini = 0.11\nsamples = 34\nvalue = [3, 47]\nclass = Torque_max", fillcolor="#46a3e7"] ;
155 -> 159 ;
160 [label="gini = 0.0\nsamples = 10\nvalue = [0, 18]\nclass = Torque_max", fillcolor="#399de5"] ;
159 -> 160 ;
161 [label="Modelo <= 0.03\ngini = 0.17\nsamples = 24\nvalue = [3, 29]\nclass = Torque_max", fillcolor="#4da7e8"] ;
159 -> 161 ;
162 [label="gini = 0.22\nsamples = 10\nvalue = [2, 14]\nclass = Torque_max", fillcolor="#55abe9"] ;
161 -> 162 ;
163 [label="gini = 0.12\nsamples = 14\nvalue = [1, 15]\nclass = Torque_max", fillcolor="#46a4e7"] ;
161 -> 163 ;
164 [label="gini = 0.2\nsamples = 61\nvalue = [11, 84]\nclass = Torque_max", fillcolor="#53aae8"] ;
154 -> 164 ;
165 [label="gini = 0.44\nsamples = 27\nvalue = [15, 30]\nclass = Torque_max", fillcolor="#9ccef2"] ;
153 -> 165 ;
166 [label="Modelo <= 0.02\ngini = 0.14\nsamples = 40\nvalue = [5, 59]\nclass = Torque_max", fillcolor="#4aa5e7"] ;
152 -> 166 ;
167 [label="Trabajador <= 0.81\ngini = 0.04\nsamples = 29\nvalue = [1, 45]\nclass = Torque_max", fillcolor="#3d9fe6"] ;
166 -> 167 ;
168 [label="gini = 0.0\nsamples = 19\nvalue = [0, 30]\nclass = Torque_max", fillcolor="#399de5"] ;
167 -> 168 ;
169 [label="Modelo <= 0.01\ngini = 0.12\nsamples = 10\nvalue = [1, 15]\nclass = Torque_max", fillcolor="#46a4e7"] ;
167 -> 169 ;
170 [label="gini = 0.0\nsamples = 1\nvalue = [1, 0]\nclass = Torque_min", fillcolor="#e58139"] ;
169 -> 170 ;
171 [label="gini = 0.0\nsamples = 9\nvalue = [0, 15]\nclass = Torque_max", fillcolor="#399de5"] ;
169 -> 171 ;
172 [label="Trabajador <= 0.78\ngini = 0.35\nsamples = 11\nvalue = [4, 14]\nclass = Torque_max", fillcolor="#72b9ec"] ;
166 -> 172 ;
173 [label="gini = 0.32\nsamples = 5\nvalue = [2, 8]\nclass = Torque_max", fillcolor="#6ab6ec"] ;
172 -> 173 ;
174 [label="gini = 0.38\nsamples = 6\nvalue = [2, 6]\nclass = Torque_max", fillcolor="#7bbeee"] ;
172 -> 174 ;
175 [label="Modelo <= 0.07\ngini = 0.09\nsamples = 150\nvalue = [12, 233]\nclass = Torque_max", fillcolor="#43a2e6"] ;
143 -> 175 ;
176 [label="gini = 0.0\nsamples = 31\nvalue = [0, 43]\nclass = Torque_max", fillcolor="#399de5"] ;
175 -> 176 ;
177 [label="Trabajador <= 0.51\ngini = 0.11\nsamples = 119\nvalue = [12, 190]\nclass = Torque_max", fillcolor="#46a3e7"] ;
175 -> 177 ;
178 [label="Trabajador <= 0.38\ngini = 0.03\nsamples = 46\nvalue = [1, 69]\nclass = Torque_max", fillcolor="#3c9ee5"] ;
177 -> 178 ;
179 [label="gini = 0.05\nsamples = 23\nvalue = [1, 36]\nclass = Torque_max", fillcolor="#3ea0e6"] ;
178 -> 179 ;
180 [label="gini = 0.0\nsamples = 23\nvalue = [0, 33]\nclass = Torque_max", fillcolor="#399de5"] ;
178 -> 180 ;
181 [label="Trabajador <= 0.59\ngini = 0.15\nsamples = 73\nvalue = [11, 121]\nclass = Torque_max", fillcolor="#4ba6e7"] ;
177 -> 181 ;
182 [label="Modelo <= 0.08\ngini = 0.16\nsamples = 71\nvalue = [11, 118]\nclass = Torque_max", fillcolor="#4ba6e7"] ;
181 -> 182 ;
183 [label="gini = 0.18\nsamples = 26\nvalue = [5, 45]\nclass = Torque_max", fillcolor="#4fa8e8"] ;
182 -> 183 ;
184 [label="gini = 0.14\nsamples = 45\nvalue = [6, 73]\nclass = Torque_max", fillcolor="#49a5e7"] ;
182 -> 184 ;
185 [label="gini = 0.0\nsamples = 2\nvalue = [0, 3]\nclass = Torque_max", fillcolor="#399de5"] ;
181 -> 185 ;
186 [label="Torque_max <= 0.39\ngini = 0.37\nsamples = 42\nvalue = [14, 44]\nclass = Torque_max", fillcolor="#78bced"] ;
140 -> 186 ;
187 [label="Trabajador <= 0.29\ngini = 0.44\nsamples = 26\nvalue = [10, 21]\nclass = Torque_max", fillcolor="#97ccf1"] ;
186 -> 187 ;
188 [label="gini = 0.0\nsamples = 1\nvalue = [0, 2]\nclass = Torque_max", fillcolor="#399de5"] ;
187 -> 188 ;
189 [label="Trabajador <= 0.32\ngini = 0.45\nsamples = 25\nvalue = [10, 19]\nclass = Torque_max", fillcolor="#a1d1f3"] ;
187 -> 189 ;
190 [label="gini = 0.47\nsamples = 23\nvalue = [10, 17]\nclass = Torque_max", fillcolor="#add7f4"] ;
189 -> 190 ;
191 [label="gini = 0.0\nsamples = 2\nvalue = [0, 2]\nclass = Torque_max", fillcolor="#399de5"] ;
189 -> 191 ;
192 [label="Trabajador <= 0.81\ngini = 0.25\nsamples = 16\nvalue = [4, 23]\nclass = Torque_max", fillcolor="#5baeea"] ;
186 -> 192 ;
193 [label="gini = 0.0\nsamples = 8\nvalue = [0, 11]\nclass = Torque_max", fillcolor="#399de5"] ;
192 -> 193 ;
194 [label="gini = 0.38\nsamples = 8\nvalue = [4, 12]\nclass = Torque_max", fillcolor="#7bbeee"] ;
192 -> 194 ;
195 [label="Angle_max <= 0.2\ngini = 0.12\nsamples = 383\nvalue = [40, 579]\nclass = Torque_max", fillcolor="#47a4e7"] ;
139 -> 195 ;
196 [label="Modelo <= 0.01\ngini = 0.11\nsamples = 353\nvalue = [32, 542]\nclass = Torque_max", fillcolor="#45a3e7"] ;
195 -> 196 ;
197 [label="Trabajador <= 0.58\ngini = 0.17\nsamples = 110\nvalue = [18, 169]\nclass = Torque_max", fillcolor="#4ea7e8"] ;
196 -> 197 ;
198 [label="Pset_name_cat <= 0.22\ngini = 0.08\nsamples = 72\nvalue = [5, 118]\nclass = Torque_max", fillcolor="#41a1e6"] ;
197 -> 198 ;
199 [label="gini = 0.0\nsamples = 8\nvalue = [0, 16]\nclass = Torque_max", fillcolor="#399de5"] ;
198 -> 199 ;
200 [label="Trabajador <= 0.47\ngini = 0.09\nsamples = 64\nvalue = [5, 102]\nclass = Torque_max", fillcolor="#43a2e6"] ;
198 -> 200 ;
201 [label="gini = 0.26\nsamples = 22\nvalue = [5, 28]\nclass = Torque_max", fillcolor="#5caeea"] ;
200 -> 201 ;
202 [label="gini = 0.0\nsamples = 42\nvalue = [0, 74]\nclass = Torque_max", fillcolor="#399de5"] ;
200 -> 202 ;
203 [label="Trabajador <= 0.64\ngini = 0.32\nsamples = 38\nvalue = [13, 51]\nclass = Torque_max", fillcolor="#6bb6ec"] ;
197 -> 203 ;
204 [label="gini = 0.44\nsamples = 16\nvalue = [10, 21]\nclass = Torque_max", fillcolor="#97ccf1"] ;
203 -> 204 ;
205 [label="Trabajador <= 0.81\ngini = 0.17\nsamples = 22\nvalue = [3, 30]\nclass = Torque_max", fillcolor="#4da7e8"] ;
203 -> 205 ;
206 [label="gini = 0.0\nsamples = 6\nvalue = [0, 9]\nclass = Torque_max", fillcolor="#399de5"] ;
205 -> 206 ;
207 [label="gini = 0.22\nsamples = 16\nvalue = [3, 21]\nclass = Torque_max", fillcolor="#55abe9"] ;
205 -> 207 ;
208 [label="Modelo <= 0.09\ngini = 0.07\nsamples = 243\nvalue = [14, 373]\nclass = Torque_max", fillcolor="#40a1e6"] ;
196 -> 208 ;
209 [label="Angle_max <= 0.15\ngini = 0.06\nsamples = 230\nvalue = [11, 355]\nclass = Torque_max", fillcolor="#3fa0e6"] ;
208 -> 209 ;
210 [label="Trabajador <= 0.53\ngini = 0.06\nsamples = 219\nvalue = [11, 338]\nclass = Torque_max", fillcolor="#3fa0e6"] ;
209 -> 210 ;
211 [label="Modelo <= 0.04\ngini = 0.21\nsamples = 23\nvalue = [4, 30]\nclass = Torque_max", fillcolor="#53aae8"] ;
210 -> 211 ;
212 [label="Trabajador <= 0.46\ngini = 0.26\nsamples = 16\nvalue = [3, 17]\nclass = Torque_max", fillcolor="#5caeea"] ;
211 -> 212 ;
213 [label="gini = 0.13\nsamples = 10\nvalue = [1, 13]\nclass = Torque_max", fillcolor="#48a5e7"] ;
212 -> 213 ;
214 [label="gini = 0.44\nsamples = 6\nvalue = [2, 4]\nclass = Torque_max", fillcolor="#9ccef2"] ;
212 -> 214 ;
215 [label="gini = 0.13\nsamples = 7\nvalue = [1, 13]\nclass = Torque_max", fillcolor="#48a5e7"] ;
211 -> 215 ;
216 [label="Trabajador <= 0.81\ngini = 0.04\nsamples = 196\nvalue = [7, 308]\nclass = Torque_max", fillcolor="#3d9fe6"] ;
210 -> 216 ;
217 [label="Trabajador <= 0.57\ngini = 0.02\nsamples = 167\nvalue = [3, 266]\nclass = Torque_max", fillcolor="#3b9ee5"] ;
216 -> 217 ;
218 [label="Modelo <= 0.02\ngini = 0.03\nsamples = 139\nvalue = [3, 226]\nclass = Torque_max", fillcolor="#3c9ee5"] ;
217 -> 218 ;
219 [label="gini = 0.0\nsamples = 43\nvalue = [0, 69]\nclass = Torque_max", fillcolor="#399de5"] ;
218 -> 219 ;
220 [label="Modelo <= 0.02\ngini = 0.04\nsamples = 96\nvalue = [3, 157]\nclass = Torque_max", fillcolor="#3d9fe5"] ;
218 -> 220 ;
221 [label="gini = 0.08\nsamples = 30\nvalue = [2, 48]\nclass = Torque_max", fillcolor="#41a1e6"] ;
220 -> 221 ;
222 [label="Modelo <= 0.04\ngini = 0.02\nsamples = 66\nvalue = [1, 109]\nclass = Torque_max", fillcolor="#3b9ee5"] ;
220 -> 222 ;
223 [label="gini = 0.0\nsamples = 32\nvalue = [0, 56]\nclass = Torque_max", fillcolor="#399de5"] ;
222 -> 223 ;
224 [label="Modelo <= 0.05\ngini = 0.04\nsamples = 34\nvalue = [1, 53]\nclass = Torque_max", fillcolor="#3d9fe5"] ;
222 -> 224 ;
225 [label="gini = 0.04\nsamples = 32\nvalue = [1, 49]\nclass = Torque_max", fillcolor="#3d9fe6"] ;
224 -> 225 ;
226 [label="gini = 0.0\nsamples = 2\nvalue = [0, 4]\nclass = Torque_max", fillcolor="#399de5"] ;
224 -> 226 ;
227 [label="gini = 0.0\nsamples = 28\nvalue = [0, 40]\nclass = Torque_max", fillcolor="#399de5"] ;
217 -> 227 ;
228 [label="Modelo <= 0.04\ngini = 0.16\nsamples = 29\nvalue = [4, 42]\nclass = Torque_max", fillcolor="#4ca6e7"] ;
216 -> 228 ;
229 [label="gini = 0.17\nsamples = 13\nvalue = [2, 19]\nclass = Torque_max", fillcolor="#4ea7e8"] ;
228 -> 229 ;
230 [label="gini = 0.15\nsamples = 16\nvalue = [2, 23]\nclass = Torque_max", fillcolor="#4aa6e7"] ;
228 -> 230 ;
231 [label="gini = 0.0\nsamples = 11\nvalue = [0, 17]\nclass = Torque_max", fillcolor="#399de5"] ;
209 -> 231 ;
232 [label="Trabajador <= 0.56\ngini = 0.24\nsamples = 13\nvalue = [3, 18]\nclass = Torque_max", fillcolor="#5aade9"] ;
208 -> 232 ;
233 [label="gini = 0.0\nsamples = 2\nvalue = [0, 6]\nclass = Torque_max", fillcolor="#399de5"] ;
232 -> 233 ;
234 [label="Trabajador <= 0.64\ngini = 0.32\nsamples = 11\nvalue = [3, 12]\nclass = Torque_max", fillcolor="#6ab6ec"] ;
232 -> 234 ;
235 [label="gini = 0.42\nsamples = 7\nvalue = [3, 7]\nclass = Torque_max", fillcolor="#8ec7f0"] ;
234 -> 235 ;
236 [label="gini = 0.0\nsamples = 4\nvalue = [0, 5]\nclass = Torque_max", fillcolor="#399de5"] ;
234 -> 236 ;
237 [label="Modelo <= 0.04\ngini = 0.29\nsamples = 30\nvalue = [8, 37]\nclass = Torque_max", fillcolor="#64b2eb"] ;
195 -> 237 ;
238 [label="gini = 0.0\nsamples = 9\nvalue = [0, 18]\nclass = Torque_max", fillcolor="#399de5"] ;
237 -> 238 ;
239 [label="Trabajador <= 0.47\ngini = 0.42\nsamples = 21\nvalue = [8, 19]\nclass = Torque_max", fillcolor="#8cc6f0"] ;
237 -> 239 ;
240 [label="gini = 0.43\nsamples = 15\nvalue = [6, 13]\nclass = Torque_max", fillcolor="#94caf1"] ;
239 -> 240 ;
241 [label="gini = 0.38\nsamples = 6\nvalue = [2, 6]\nclass = Torque_max", fillcolor="#7bbeee"] ;
239 -> 241 ;
242 [label="Angle_max <= 0.05\ngini = 0.37\nsamples = 546\nvalue = [205, 641]\nclass = Torque_max", fillcolor="#78bced"] ;
138 -> 242 ;
243 [label="Modelo <= 0.08\ngini = 0.05\nsamples = 199\nvalue = [7, 285]\nclass = Torque_max", fillcolor="#3e9fe6"] ;
242 -> 243 ;
244 [label="Modelo <= 0.06\ngini = 0.09\nsamples = 65\nvalue = [5, 95]\nclass = Torque_max", fillcolor="#43a2e6"] ;
243 -> 244 ;
245 [label="gini = 0.0\nsamples = 21\nvalue = [0, 33]\nclass = Torque_max", fillcolor="#399de5"] ;
244 -> 245 ;
246 [label="Trabajador <= 0.4\ngini = 0.14\nsamples = 44\nvalue = [5, 62]\nclass = Torque_max", fillcolor="#49a5e7"] ;
244 -> 246 ;
247 [label="gini = 0.0\nsamples = 3\nvalue = [5, 0]\nclass = Torque_min", fillcolor="#e58139"] ;
246 -> 247 ;
248 [label="gini = 0.0\nsamples = 41\nvalue = [0, 62]\nclass = Torque_max", fillcolor="#399de5"] ;
246 -> 248 ;
249 [label="Trabajador <= 0.74\ngini = 0.02\nsamples = 134\nvalue = [2, 190]\nclass = Torque_max", fillcolor="#3b9ee5"] ;
243 -> 249 ;
250 [label="Trabajador <= 0.53\ngini = 0.05\nsamples = 62\nvalue = [2, 83]\nclass = Torque_max", fillcolor="#3e9fe6"] ;
249 -> 250 ;
251 [label="gini = 0.0\nsamples = 21\nvalue = [0, 27]\nclass = Torque_max", fillcolor="#399de5"] ;
250 -> 251 ;
252 [label="gini = 0.07\nsamples = 41\nvalue = [2, 56]\nclass = Torque_max", fillcolor="#40a0e6"] ;
250 -> 252 ;
253 [label="gini = 0.0\nsamples = 72\nvalue = [0, 107]\nclass = Torque_max", fillcolor="#399de5"] ;
249 -> 253 ;
254 [label="Torque_max <= 0.14\ngini = 0.46\nsamples = 347\nvalue = [198, 356]\nclass = Torque_max", fillcolor="#a7d4f3"] ;
242 -> 254 ;
255 [label="Trabajador <= 0.74\ngini = 0.48\nsamples = 302\nvalue = [191, 292]\nclass = Torque_max", fillcolor="#bbddf6"] ;
254 -> 255 ;
256 [label="Trabajador <= 0.53\ngini = 0.46\nsamples = 139\nvalue = [79, 137]\nclass = Torque_max", fillcolor="#abd6f4"] ;
255 -> 256 ;
257 [label="Modelo <= 0.08\ngini = 0.49\nsamples = 28\nvalue = [14, 19]\nclass = Torque_max", fillcolor="#cbe5f8"] ;
256 -> 257 ;
258 [label="gini = 0.48\nsamples = 4\nvalue = [2, 3]\nclass = Torque_max", fillcolor="#bddef6"] ;
257 -> 258 ;
259 [label="Trabajador <= 0.4\ngini = 0.49\nsamples = 24\nvalue = [12, 16]\nclass = Torque_max", fillcolor="#cee6f8"] ;
257 -> 259 ;
260 [label="gini = 0.5\nsamples = 2\nvalue = [1, 1]\nclass = Torque_min", fillcolor="#ffffff"] ;
259 -> 260 ;
261 [label="gini = 0.49\nsamples = 22\nvalue = [11, 15]\nclass = Torque_max", fillcolor="#cae5f8"] ;
259 -> 261 ;
262 [label="Modelo <= 0.08\ngini = 0.46\nsamples = 111\nvalue = [65, 118]\nclass = Torque_max", fillcolor="#a6d3f3"] ;
256 -> 262 ;
263 [label="gini = 0.36\nsamples = 25\nvalue = [10, 32]\nclass = Torque_max", fillcolor="#77bced"] ;
262 -> 263 ;
264 [label="gini = 0.48\nsamples = 86\nvalue = [55, 86]\nclass = Torque_max", fillcolor="#b8dcf6"] ;
262 -> 264 ;
265 [label="Modelo <= 0.08\ngini = 0.49\nsamples = 163\nvalue = [112, 155]\nclass = Torque_max", fillcolor="#c8e4f8"] ;
255 -> 265 ;
266 [label="Trabajador <= 0.94\ngini = 0.41\nsamples = 27\nvalue = [14, 34]\nclass = Torque_max", fillcolor="#8bc5f0"] ;
265 -> 266 ;
267 [label="gini = 0.43\nsamples = 12\nvalue = [7, 15]\nclass = Torque_max", fillcolor="#95cbf1"] ;
266 -> 267 ;
268 [label="gini = 0.39\nsamples = 15\nvalue = [7, 19]\nclass = Torque_max", fillcolor="#82c1ef"] ;
266 -> 268 ;
269 [label="Trabajador <= 0.94\ngini = 0.49\nsamples = 136\nvalue = [98, 121]\nclass = Torque_max", fillcolor="#d9ecfa"] ;
265 -> 269 ;
270 [label="gini = 0.49\nsamples = 12\nvalue = [10, 8]\nclass = Torque_min", fillcolor="#fae6d7"] ;
269 -> 270 ;
271 [label="gini = 0.49\nsamples = 124\nvalue = [88, 113]\nclass = Torque_max", fillcolor="#d3e9f9"] ;
269 -> 271 ;
272 [label="Angle_max <= 0.15\ngini = 0.18\nsamples = 45\nvalue = [7, 64]\nclass = Torque_max", fillcolor="#4fa8e8"] ;
254 -> 272 ;
273 [label="gini = 0.46\nsamples = 8\nvalue = [4, 7]\nclass = Torque_max", fillcolor="#aad5f4"] ;
272 -> 273 ;
274 [label="Modelo <= 0.08\ngini = 0.09\nsamples = 37\nvalue = [3, 57]\nclass = Torque_max", fillcolor="#43a2e6"] ;
272 -> 274 ;
275 [label="Torque_max <= 0.3\ngini = 0.04\nsamples = 29\nvalue = [1, 46]\nclass = Torque_max", fillcolor="#3d9fe6"] ;
274 -> 275 ;
276 [label="Trabajador <= 0.61\ngini = 0.06\nsamples = 20\nvalue = [1, 33]\nclass = Torque_max", fillcolor="#3fa0e6"] ;
275 -> 276 ;
277 [label="gini = 0.0\nsamples = 1\nvalue = [0, 2]\nclass = Torque_max", fillcolor="#399de5"] ;
276 -> 277 ;
278 [label="gini = 0.06\nsamples = 19\nvalue = [1, 31]\nclass = Torque_max", fillcolor="#3fa0e6"] ;
276 -> 278 ;
279 [label="gini = 0.0\nsamples = 9\nvalue = [0, 13]\nclass = Torque_max", fillcolor="#399de5"] ;
275 -> 279 ;
280 [label="gini = 0.26\nsamples = 8\nvalue = [2, 11]\nclass = Torque_max", fillcolor="#5dafea"] ;
274 -> 280 ;
281 [label="Torque_min <= 0.71\ngini = 0.49\nsamples = 787\nvalue = [536, 669]\nclass = Torque_max", fillcolor="#d8ecfa"] ;
3 -> 281 ;
282 [label="Torque_min <= 0.35\ngini = 0.49\nsamples = 580\nvalue = [493, 386]\nclass = Torque_min", fillcolor="#f9e4d4"] ;
281 -> 282 ;
283 [label="gini = 0.0\nsamples = 12\nvalue = [17, 0]\nclass = Torque_min", fillcolor="#e58139"] ;
282 -> 283 ;
284 [label="Modelo <= 0.08\ngini = 0.49\nsamples = 568\nvalue = [476, 386]\nclass = Torque_min", fillcolor="#fae7da"] ;
282 -> 284 ;
285 [label="Modelo <= 0.06\ngini = 0.49\nsamples = 168\nvalue = [148, 115]\nclass = Torque_min", fillcolor="#f9e3d3"] ;
284 -> 285 ;
286 [label="Modelo <= 0.05\ngini = 0.5\nsamples = 63\nvalue = [55, 45]\nclass = Torque_min", fillcolor="#fae8db"] ;
285 -> 286 ;
287 [label="Trabajador <= 0.73\ngini = 0.49\nsamples = 62\nvalue = [55, 43]\nclass = Torque_min", fillcolor="#f9e4d4"] ;
286 -> 287 ;
288 [label="gini = 0.41\nsamples = 5\nvalue = [5, 2]\nclass = Torque_min", fillcolor="#efb388"] ;
287 -> 288 ;
289 [label="gini = 0.5\nsamples = 57\nvalue = [50, 41]\nclass = Torque_min", fillcolor="#fae8db"] ;
287 -> 289 ;
290 [label="gini = 0.0\nsamples = 1\nvalue = [0, 2]\nclass = Torque_max", fillcolor="#399de5"] ;
286 -> 290 ;
291 [label="Trabajador <= 0.74\ngini = 0.49\nsamples = 105\nvalue = [93, 70]\nclass = Torque_min", fillcolor="#f9e0ce"] ;
285 -> 291 ;
292 [label="Trabajador <= 0.4\ngini = 0.5\nsamples = 42\nvalue = [35, 33]\nclass = Torque_min", fillcolor="#fef8f4"] ;
291 -> 292 ;
293 [label="gini = 0.0\nsamples = 1\nvalue = [0, 1]\nclass = Torque_max", fillcolor="#399de5"] ;
292 -> 293 ;
294 [label="Trabajador <= 0.53\ngini = 0.5\nsamples = 41\nvalue = [35, 32]\nclass = Torque_min", fillcolor="#fdf4ee"] ;
292 -> 294 ;
295 [label="gini = 0.0\nsamples = 1\nvalue = [2, 0]\nclass = Torque_min", fillcolor="#e58139"] ;
294 -> 295 ;
296 [label="gini = 0.5\nsamples = 40\nvalue = [33, 32]\nclass = Torque_min", fillcolor="#fefbf9"] ;
294 -> 296 ;
297 [label="Trabajador <= 0.94\ngini = 0.48\nsamples = 63\nvalue = [58, 37]\nclass = Torque_min", fillcolor="#f6d1b7"] ;
291 -> 297 ;
298 [label="gini = 0.48\nsamples = 30\nvalue = [28, 19]\nclass = Torque_min", fillcolor="#f7d7bf"] ;
297 -> 298 ;
299 [label="gini = 0.47\nsamples = 33\nvalue = [30, 18]\nclass = Torque_min", fillcolor="#f5cdb0"] ;
297 -> 299 ;
300 [label="Trabajador <= 0.94\ngini = 0.5\nsamples = 400\nvalue = [328, 271]\nclass = Torque_min", fillcolor="#fae9dd"] ;
284 -> 300 ;
301 [label="Trabajador <= 0.4\ngini = 0.49\nsamples = 208\nvalue = [184, 133]\nclass = Torque_min", fillcolor="#f8dcc8"] ;
300 -> 301 ;
302 [label="gini = 0.44\nsamples = 3\nvalue = [2, 4]\nclass = Torque_max", fillcolor="#9ccef2"] ;
301 -> 302 ;
303 [label="Trabajador <= 0.74\ngini = 0.49\nsamples = 205\nvalue = [182, 129]\nclass = Torque_min", fillcolor="#f7dac5"] ;
301 -> 303 ;
304 [label="Trabajador <= 0.53\ngini = 0.49\nsamples = 192\nvalue = [168, 122]\nclass = Torque_min", fillcolor="#f8dcc9"] ;
303 -> 304 ;
305 [label="gini = 0.48\nsamples = 58\nvalue = [48, 31]\nclass = Torque_min", fillcolor="#f6d2b9"] ;
304 -> 305 ;
306 [label="gini = 0.49\nsamples = 134\nvalue = [120, 91]\nclass = Torque_min", fillcolor="#f9e1cf"] ;
304 -> 306 ;
307 [label="gini = 0.44\nsamples = 13\nvalue = [14, 7]\nclass = Torque_min", fillcolor="#f2c09c"] ;
303 -> 307 ;
308 [label="gini = 0.5\nsamples = 192\nvalue = [144, 138]\nclass = Torque_min", fillcolor="#fefaf7"] ;
300 -> 308 ;
309 [label="Trabajador <= 0.53\ngini = 0.23\nsamples = 207\nvalue = [43, 283]\nclass = Torque_max", fillcolor="#57ace9"] ;
281 -> 309 ;
310 [label="Torque_max <= 0.81\ngini = 0.41\nsamples = 79\nvalue = [36, 87]\nclass = Torque_max", fillcolor="#8bc6f0"] ;
309 -> 310 ;
311 [label="Modelo <= 0.04\ngini = 0.39\nsamples = 68\nvalue = [28, 77]\nclass = Torque_max", fillcolor="#81c1ee"] ;
310 -> 311 ;
312 [label="gini = 0.44\nsamples = 2\nvalue = [2, 1]\nclass = Torque_min", fillcolor="#f2c09c"] ;
311 -> 312 ;
313 [label="Trabajador <= 0.3\ngini = 0.38\nsamples = 66\nvalue = [26, 76]\nclass = Torque_max", fillcolor="#7dbfee"] ;
311 -> 313 ;
314 [label="gini = 0.44\nsamples = 25\nvalue = [12, 25]\nclass = Torque_max", fillcolor="#98ccf1"] ;
313 -> 314 ;
315 [label="Trabajador <= 0.33\ngini = 0.34\nsamples = 41\nvalue = [14, 51]\nclass = Torque_max", fillcolor="#6fb8ec"] ;
313 -> 315 ;
316 [label="gini = 0.2\nsamples = 5\nvalue = [1, 8]\nclass = Torque_max", fillcolor="#52a9e8"] ;
315 -> 316 ;
317 [label="Trabajador <= 0.34\ngini = 0.36\nsamples = 36\nvalue = [13, 43]\nclass = Torque_max", fillcolor="#75bbed"] ;
315 -> 317 ;
318 [label="gini = 0.44\nsamples = 5\nvalue = [3, 6]\nclass = Torque_max", fillcolor="#9ccef2"] ;
317 -> 318 ;
319 [label="Trabajador <= 0.43\ngini = 0.33\nsamples = 31\nvalue = [10, 37]\nclass = Torque_max", fillcolor="#6fb7ec"] ;
317 -> 319 ;
320 [label="gini = 0.35\nsamples = 26\nvalue = [9, 31]\nclass = Torque_max", fillcolor="#72b9ed"] ;
319 -> 320 ;
321 [label="gini = 0.24\nsamples = 5\nvalue = [1, 6]\nclass = Torque_max", fillcolor="#5aade9"] ;
319 -> 321 ;
322 [label="Pset_name_cat <= 0.23\ngini = 0.49\nsamples = 11\nvalue = [8, 10]\nclass = Torque_max", fillcolor="#d7ebfa"] ;
310 -> 322 ;
323 [label="gini = 0.5\nsamples = 8\nvalue = [6, 7]\nclass = Torque_max", fillcolor="#e3f1fb"] ;
322 -> 323 ;
324 [label="gini = 0.48\nsamples = 3\nvalue = [2, 3]\nclass = Torque_max", fillcolor="#bddef6"] ;
322 -> 324 ;
325 [label="Angle_max <= 0.12\ngini = 0.07\nsamples = 128\nvalue = [7, 196]\nclass = Torque_max", fillcolor="#40a0e6"] ;
309 -> 325 ;
326 [label="Trabajador <= 0.64\ngini = 0.36\nsamples = 12\nvalue = [5, 16]\nclass = Torque_max", fillcolor="#77bced"] ;
325 -> 326 ;
327 [label="gini = 0.0\nsamples = 1\nvalue = [1, 0]\nclass = Torque_min", fillcolor="#e58139"] ;
326 -> 327 ;
328 [label="Pset_name_cat <= 0.23\ngini = 0.32\nsamples = 11\nvalue = [4, 16]\nclass = Torque_max", fillcolor="#6ab6ec"] ;
326 -> 328 ;
329 [label="gini = 0.32\nsamples = 7\nvalue = [3, 12]\nclass = Torque_max", fillcolor="#6ab6ec"] ;
328 -> 329 ;
330 [label="gini = 0.32\nsamples = 4\nvalue = [1, 4]\nclass = Torque_max", fillcolor="#6ab6ec"] ;
328 -> 330 ;
331 [label="Modelo <= 0.03\ngini = 0.02\nsamples = 116\nvalue = [2, 180]\nclass = Torque_max", fillcolor="#3b9ee5"] ;
325 -> 331 ;
332 [label="gini = 0.24\nsamples = 7\nvalue = [2, 12]\nclass = Torque_max", fillcolor="#5aade9"] ;
331 -> 332 ;
333 [label="gini = 0.0\nsamples = 109\nvalue = [0, 168]\nclass = Torque_max", fillcolor="#399de5"] ;
331 -> 333 ;
334 [label="Torque_max <= 0.59\ngini = 0.11\nsamples = 3636\nvalue = [321, 5412]\nclass = Torque_max", fillcolor="#45a3e7"] ;
2 -> 334 ;
335 [label="Angle_max <= 0.31\ngini = 0.12\nsamples = 3102\nvalue = [309, 4608]\nclass = Torque_max", fillcolor="#46a4e7"] ;
334 -> 335 ;
336 [label="Pset_name_cat <= 0.87\ngini = 0.11\nsamples = 2827\nvalue = [252, 4235]\nclass = Torque_max", fillcolor="#45a3e7"] ;
335 -> 336 ;
337 [label="Modelo <= 0.1\ngini = 0.11\nsamples = 2499\nvalue = [241, 3719]\nclass = Torque_max", fillcolor="#46a3e7"] ;
336 -> 337 ;
338 [label="Angle_max <= 0.15\ngini = 0.11\nsamples = 2344\nvalue = [219, 3489]\nclass = Torque_max", fillcolor="#45a3e7"] ;
337 -> 338 ;
339 [label="Torque_max <= 0.49\ngini = 0.1\nsamples = 2089\nvalue = [183, 3120]\nclass = Torque_max", fillcolor="#45a3e7"] ;
338 -> 339 ;
340 [label="Pset_name_cat <= 0.66\ngini = 0.09\nsamples = 1101\nvalue = [78, 1639]\nclass = Torque_max", fillcolor="#42a2e6"] ;
339 -> 340 ;
341 [label="Pset_name_cat <= 0.62\ngini = 0.13\nsamples = 298\nvalue = [33, 448]\nclass = Torque_max", fillcolor="#48a4e7"] ;
340 -> 341 ;
342 [label="gini = 0.0\nsamples = 24\nvalue = [0, 35]\nclass = Torque_max", fillcolor="#399de5"] ;
341 -> 342 ;
343 [label="Modelo <= 0.06\ngini = 0.14\nsamples = 274\nvalue = [33, 413]\nclass = Torque_max", fillcolor="#49a5e7"] ;
341 -> 343 ;
344 [label="Trabajador <= 0.29\ngini = 0.18\nsamples = 189\nvalue = [32, 280]\nclass = Torque_max", fillcolor="#50a8e8"] ;
343 -> 344 ;
345 [label="gini = 0.0\nsamples = 3\nvalue = [6, 0]\nclass = Torque_min", fillcolor="#e58139"] ;
344 -> 345 ;
346 [label="Modelo <= 0.01\ngini = 0.16\nsamples = 186\nvalue = [26, 280]\nclass = Torque_max", fillcolor="#4ba6e7"] ;
344 -> 346 ;
347 [label="gini = 0.29\nsamples = 23\nvalue = [6, 28]\nclass = Torque_max", fillcolor="#63b2eb"] ;
346 -> 347 ;
348 [label="Trabajador <= 0.47\ngini = 0.14\nsamples = 163\nvalue = [20, 252]\nclass = Torque_max", fillcolor="#49a5e7"] ;
346 -> 348 ;
349 [label="gini = 0.0\nsamples = 28\nvalue = [0, 47]\nclass = Torque_max", fillcolor="#399de5"] ;
348 -> 349 ;
350 [label="Trabajador <= 0.64\ngini = 0.16\nsamples = 135\nvalue = [20, 205]\nclass = Torque_max", fillcolor="#4ca7e8"] ;
348 -> 350 ;
351 [label="Modelo <= 0.02\ngini = 0.25\nsamples = 42\nvalue = [11, 63]\nclass = Torque_max", fillcolor="#5caeea"] ;
350 -> 351 ;
352 [label="Trabajador <= 0.57\ngini = 0.29\nsamples = 28\nvalue = [8, 37]\nclass = Torque_max", fillcolor="#64b2eb"] ;
351 -> 352 ;
353 [label="gini = 0.14\nsamples = 10\nvalue = [1, 12]\nclass = Torque_max", fillcolor="#49a5e7"] ;
352 -> 353 ;
354 [label="gini = 0.34\nsamples = 18\nvalue = [7, 25]\nclass = Torque_max", fillcolor="#70b8ec"] ;
352 -> 354 ;
355 [label="gini = 0.19\nsamples = 14\nvalue = [3, 26]\nclass = Torque_max", fillcolor="#50a8e8"] ;
351 -> 355 ;
356 [label="Modelo <= 0.04\ngini = 0.11\nsamples = 93\nvalue = [9, 142]\nclass = Torque_max", fillcolor="#46a3e7"] ;
350 -> 356 ;
357 [label="Trabajador <= 0.81\ngini = 0.14\nsamples = 77\nvalue = [9, 111]\nclass = Torque_max", fillcolor="#49a5e7"] ;
356 -> 357 ;
358 [label="Modelo <= 0.02\ngini = 0.14\nsamples = 17\nvalue = [2, 24]\nclass = Torque_max", fillcolor="#49a5e7"] ;
357 -> 358 ;
359 [label="gini = 0.26\nsamples = 7\nvalue = [2, 11]\nclass = Torque_max", fillcolor="#5dafea"] ;
358 -> 359 ;
360 [label="gini = 0.0\nsamples = 10\nvalue = [0, 13]\nclass = Torque_max", fillcolor="#399de5"] ;
358 -> 360 ;
361 [label="Modelo <= 0.02\ngini = 0.14\nsamples = 60\nvalue = [7, 87]\nclass = Torque_max", fillcolor="#49a5e7"] ;
357 -> 361 ;
362 [label="gini = 0.0\nsamples = 10\nvalue = [0, 15]\nclass = Torque_max", fillcolor="#399de5"] ;
361 -> 362 ;
363 [label="Modelo <= 0.02\ngini = 0.16\nsamples = 50\nvalue = [7, 72]\nclass = Torque_max", fillcolor="#4ca7e8"] ;
361 -> 363 ;
364 [label="gini = 0.16\nsamples = 22\nvalue = [3, 32]\nclass = Torque_max", fillcolor="#4ca6e7"] ;
363 -> 364 ;
365 [label="Modelo <= 0.02\ngini = 0.17\nsamples = 28\nvalue = [4, 40]\nclass = Torque_max", fillcolor="#4da7e8"] ;
363 -> 365 ;
366 [label="gini = 0.2\nsamples = 7\nvalue = [1, 8]\nclass = Torque_max", fillcolor="#52a9e8"] ;
365 -> 366 ;
367 [label="gini = 0.16\nsamples = 21\nvalue = [3, 32]\nclass = Torque_max", fillcolor="#4ca6e7"] ;
365 -> 367 ;
368 [label="gini = 0.0\nsamples = 16\nvalue = [0, 31]\nclass = Torque_max", fillcolor="#399de5"] ;
356 -> 368 ;
369 [label="Trabajador <= 0.32\ngini = 0.01\nsamples = 85\nvalue = [1, 133]\nclass = Torque_max", fillcolor="#3a9ee5"] ;
343 -> 369 ;
370 [label="gini = 0.07\nsamples = 18\nvalue = [1, 26]\nclass = Torque_max", fillcolor="#41a1e6"] ;
369 -> 370 ;
371 [label="gini = 0.0\nsamples = 67\nvalue = [0, 107]\nclass = Torque_max", fillcolor="#399de5"] ;
369 -> 371 ;
372 [label="Trabajador <= 0.81\ngini = 0.07\nsamples = 803\nvalue = [45, 1191]\nclass = Torque_max", fillcolor="#40a1e6"] ;
340 -> 372 ;
373 [label="Trabajador <= 0.52\ngini = 0.06\nsamples = 640\nvalue = [31, 967]\nclass = Torque_max", fillcolor="#3fa0e6"] ;
372 -> 373 ;
374 [label="Trabajador <= 0.46\ngini = 0.11\nsamples = 111\nvalue = [10, 157]\nclass = Torque_max", fillcolor="#46a3e7"] ;
373 -> 374 ;
375 [label="Pset_name_cat <= 0.7\ngini = 0.02\nsamples = 51\nvalue = [1, 80]\nclass = Torque_max", fillcolor="#3b9ee5"] ;
374 -> 375 ;
376 [label="gini = 0.0\nsamples = 32\nvalue = [0, 55]\nclass = Torque_max", fillcolor="#399de5"] ;
375 -> 376 ;
377 [label="Trabajador <= 0.38\ngini = 0.07\nsamples = 19\nvalue = [1, 25]\nclass = Torque_max", fillcolor="#41a1e6"] ;
375 -> 377 ;
378 [label="gini = 0.0\nsamples = 12\nvalue = [0, 16]\nclass = Torque_max", fillcolor="#399de5"] ;
377 -> 378 ;
379 [label="Modelo <= 0.05\ngini = 0.18\nsamples = 7\nvalue = [1, 9]\nclass = Torque_max", fillcolor="#4fa8e8"] ;
377 -> 379 ;
380 [label="gini = 0.38\nsamples = 4\nvalue = [1, 3]\nclass = Torque_max", fillcolor="#7bbeee"] ;
379 -> 380 ;
381 [label="gini = 0.0\nsamples = 3\nvalue = [0, 6]\nclass = Torque_max", fillcolor="#399de5"] ;
379 -> 381 ;
382 [label="Pset_name_cat <= 0.7\ngini = 0.19\nsamples = 60\nvalue = [9, 77]\nclass = Torque_max", fillcolor="#50a8e8"] ;
374 -> 382 ;
383 [label="gini = 0.17\nsamples = 40\nvalue = [6, 56]\nclass = Torque_max", fillcolor="#4ea8e8"] ;
382 -> 383 ;
384 [label="Modelo <= 0.05\ngini = 0.22\nsamples = 20\nvalue = [3, 21]\nclass = Torque_max", fillcolor="#55abe9"] ;
382 -> 384 ;
385 [label="gini = 0.44\nsamples = 3\nvalue = [1, 2]\nclass = Torque_max", fillcolor="#9ccef2"] ;
384 -> 385 ;
386 [label="Modelo <= 0.07\ngini = 0.17\nsamples = 17\nvalue = [2, 19]\nclass = Torque_max", fillcolor="#4ea7e8"] ;
384 -> 386 ;
387 [label="gini = 0.0\nsamples = 2\nvalue = [0, 2]\nclass = Torque_max", fillcolor="#399de5"] ;
386 -> 387 ;
388 [label="gini = 0.19\nsamples = 15\nvalue = [2, 17]\nclass = Torque_max", fillcolor="#50a9e8"] ;
386 -> 388 ;
389 [label="Pset_name_cat <= 0.7\ngini = 0.05\nsamples = 529\nvalue = [21, 810]\nclass = Torque_max", fillcolor="#3ea0e6"] ;
373 -> 389 ;
390 [label="Modelo <= 0.04\ngini = 0.04\nsamples = 247\nvalue = [8, 397]\nclass = Torque_max", fillcolor="#3d9fe6"] ;
389 -> 390 ;
391 [label="Trabajador <= 0.6\ngini = 0.08\nsamples = 110\nvalue = [7, 169]\nclass = Torque_max", fillcolor="#41a1e6"] ;
390 -> 391 ;
392 [label="Modelo <= 0.03\ngini = 0.1\nsamples = 74\nvalue = [6, 111]\nclass = Torque_max", fillcolor="#44a2e6"] ;
391 -> 392 ;
393 [label="gini = 0.0\nsamples = 8\nvalue = [0, 9]\nclass = Torque_max", fillcolor="#399de5"] ;
392 -> 393 ;
394 [label="Modelo <= 0.03\ngini = 0.1\nsamples = 66\nvalue = [6, 102]\nclass = Torque_max", fillcolor="#45a3e7"] ;
392 -> 394 ;
395 [label="gini = 0.1\nsamples = 56\nvalue = [5, 90]\nclass = Torque_max", fillcolor="#44a2e6"] ;
394 -> 395 ;
396 [label="gini = 0.14\nsamples = 10\nvalue = [1, 12]\nclass = Torque_max", fillcolor="#49a5e7"] ;
394 -> 396 ;
397 [label="gini = 0.03\nsamples = 36\nvalue = [1, 58]\nclass = Torque_max", fillcolor="#3c9fe5"] ;
391 -> 397 ;
398 [label="Trabajador <= 0.57\ngini = 0.01\nsamples = 137\nvalue = [1, 228]\nclass = Torque_max", fillcolor="#3a9de5"] ;
390 -> 398 ;
399 [label="Modelo <= 0.06\ngini = 0.05\nsamples = 21\nvalue = [1, 41]\nclass = Torque_max", fillcolor="#3e9fe6"] ;
398 -> 399 ;
400 [label="gini = 0.0\nsamples = 10\nvalue = [0, 21]\nclass = Torque_max", fillcolor="#399de5"] ;
399 -> 400 ;
401 [label="Trabajador <= 0.53\ngini = 0.09\nsamples = 11\nvalue = [1, 20]\nclass = Torque_max", fillcolor="#43a2e6"] ;
399 -> 401 ;
402 [label="gini = 0.0\nsamples = 7\nvalue = [0, 13]\nclass = Torque_max", fillcolor="#399de5"] ;
401 -> 402 ;
403 [label="gini = 0.22\nsamples = 4\nvalue = [1, 7]\nclass = Torque_max", fillcolor="#55abe9"] ;
401 -> 403 ;
404 [label="gini = 0.0\nsamples = 116\nvalue = [0, 187]\nclass = Torque_max", fillcolor="#399de5"] ;
398 -> 404 ;
405 [label="Trabajador <= 0.6\ngini = 0.06\nsamples = 282\nvalue = [13, 413]\nclass = Torque_max", fillcolor="#3fa0e6"] ;
389 -> 405 ;
406 [label="Modelo <= 0.05\ngini = 0.03\nsamples = 142\nvalue = [3, 205]\nclass = Torque_max", fillcolor="#3c9ee5"] ;
405 -> 406 ;
407 [label="gini = 0.0\nsamples = 103\nvalue = [0, 159]\nclass = Torque_max", fillcolor="#399de5"] ;
406 -> 407 ;
408 [label="Trabajador <= 0.53\ngini = 0.11\nsamples = 39\nvalue = [3, 46]\nclass = Torque_max", fillcolor="#46a3e7"] ;
406 -> 408 ;
409 [label="gini = 0.0\nsamples = 10\nvalue = [0, 15]\nclass = Torque_max", fillcolor="#399de5"] ;
408 -> 409 ;
410 [label="Modelo <= 0.06\ngini = 0.16\nsamples = 29\nvalue = [3, 31]\nclass = Torque_max", fillcolor="#4ca6e8"] ;
408 -> 410 ;
411 [label="gini = 0.38\nsamples = 10\nvalue = [3, 9]\nclass = Torque_max", fillcolor="#7bbeee"] ;
410 -> 411 ;
412 [label="gini = 0.0\nsamples = 19\nvalue = [0, 22]\nclass = Torque_max", fillcolor="#399de5"] ;
410 -> 412 ;
413 [label="Trabajador <= 0.64\ngini = 0.09\nsamples = 140\nvalue = [10, 208]\nclass = Torque_max", fillcolor="#43a2e6"] ;
405 -> 413 ;
414 [label="Modelo <= 0.07\ngini = 0.09\nsamples = 27\nvalue = [2, 40]\nclass = Torque_max", fillcolor="#43a2e6"] ;
413 -> 414 ;
415 [label="gini = 0.12\nsamples = 20\nvalue = [2, 28]\nclass = Torque_max", fillcolor="#47a4e7"] ;
414 -> 415 ;
416 [label="gini = 0.0\nsamples = 7\nvalue = [0, 12]\nclass = Torque_max", fillcolor="#399de5"] ;
414 -> 416 ;
417 [label="Modelo <= 0.04\ngini = 0.09\nsamples = 113\nvalue = [8, 168]\nclass = Torque_max", fillcolor="#42a2e6"] ;
413 -> 417 ;
418 [label="gini = 0.0\nsamples = 45\nvalue = [0, 70]\nclass = Torque_max", fillcolor="#399de5"] ;
417 -> 418 ;
419 [label="Modelo <= 0.05\ngini = 0.14\nsamples = 68\nvalue = [8, 98]\nclass = Torque_max", fillcolor="#49a5e7"] ;
417 -> 419 ;
420 [label="gini = 0.44\nsamples = 2\nvalue = [2, 1]\nclass = Torque_min", fillcolor="#f2c09c"] ;
419 -> 420 ;
421 [label="Modelo <= 0.05\ngini = 0.11\nsamples = 66\nvalue = [6, 97]\nclass = Torque_max", fillcolor="#45a3e7"] ;
419 -> 421 ;
422 [label="gini = 0.17\nsamples = 30\nvalue = [5, 47]\nclass = Torque_max", fillcolor="#4ea7e8"] ;
421 -> 422 ;
423 [label="Modelo <= 0.08\ngini = 0.04\nsamples = 36\nvalue = [1, 50]\nclass = Torque_max", fillcolor="#3d9fe6"] ;
421 -> 423 ;
424 [label="gini = 0.0\nsamples = 9\nvalue = [0, 10]\nclass = Torque_max", fillcolor="#399de5"] ;
423 -> 424 ;
425 [label="gini = 0.05\nsamples = 27\nvalue = [1, 40]\nclass = Torque_max", fillcolor="#3e9fe6"] ;
423 -> 425 ;
426 [label="Pset_name_cat <= 0.7\ngini = 0.11\nsamples = 163\nvalue = [14, 224]\nclass = Torque_max", fillcolor="#45a3e7"] ;
372 -> 426 ;
427 [label="Modelo <= 0.08\ngini = 0.07\nsamples = 72\nvalue = [4, 102]\nclass = Torque_max", fillcolor="#41a1e6"] ;
426 -> 427 ;
428 [label="gini = 0.0\nsamples = 28\nvalue = [0, 46]\nclass = Torque_max", fillcolor="#399de5"] ;
427 -> 428 ;
429 [label="gini = 0.12\nsamples = 44\nvalue = [4, 56]\nclass = Torque_max", fillcolor="#47a4e7"] ;
427 -> 429 ;
430 [label="Modelo <= 0.08\ngini = 0.14\nsamples = 91\nvalue = [10, 122]\nclass = Torque_max", fillcolor="#49a5e7"] ;
426 -> 430 ;
431 [label="Modelo <= 0.07\ngini = 0.06\nsamples = 60\nvalue = [3, 88]\nclass = Torque_max", fillcolor="#40a0e6"] ;
430 -> 431 ;
432 [label="gini = 0.0\nsamples = 20\nvalue = [0, 26]\nclass = Torque_max", fillcolor="#399de5"] ;
431 -> 432 ;
433 [label="Modelo <= 0.07\ngini = 0.09\nsamples = 40\nvalue = [3, 62]\nclass = Torque_max", fillcolor="#43a2e6"] ;
431 -> 433 ;
434 [label="gini = 0.08\nsamples = 28\nvalue = [2, 44]\nclass = Torque_max", fillcolor="#42a1e6"] ;
433 -> 434 ;
435 [label="gini = 0.1\nsamples = 12\nvalue = [1, 18]\nclass = Torque_max", fillcolor="#44a2e6"] ;
433 -> 435 ;
436 [label="gini = 0.28\nsamples = 31\nvalue = [7, 34]\nclass = Torque_max", fillcolor="#62b1ea"] ;
430 -> 436 ;
437 [label="Modelo <= 0.08\ngini = 0.12\nsamples = 988\nvalue = [105, 1481]\nclass = Torque_max", fillcolor="#47a4e7"] ;
339 -> 437 ;
438 [label="Trabajador <= 0.81\ngini = 0.11\nsamples = 747\nvalue = [71, 1123]\nclass = Torque_max", fillcolor="#46a3e7"] ;
437 -> 438 ;
439 [label="Modelo <= 0.02\ngini = 0.09\nsamples = 658\nvalue = [50, 997]\nclass = Torque_max", fillcolor="#43a2e6"] ;
438 -> 439 ;
440 [label="Trabajador <= 0.53\ngini = 0.06\nsamples = 158\nvalue = [7, 226]\nclass = Torque_max", fillcolor="#3fa0e6"] ;
439 -> 440 ;
441 [label="gini = 0.0\nsamples = 14\nvalue = [0, 17]\nclass = Torque_max", fillcolor="#399de5"] ;
440 -> 441 ;
442 [label="Modelo <= 0.02\ngini = 0.06\nsamples = 144\nvalue = [7, 209]\nclass = Torque_max", fillcolor="#40a0e6"] ;
440 -> 442 ;
443 [label="Modelo <= 0.01\ngini = 0.08\nsamples = 97\nvalue = [6, 139]\nclass = Torque_max", fillcolor="#42a1e6"] ;
442 -> 443 ;
444 [label="Modelo <= 0.01\ngini = 0.07\nsamples = 74\nvalue = [4, 106]\nclass = Torque_max", fillcolor="#40a1e6"] ;
443 -> 444 ;
445 [label="gini = 0.07\nsamples = 37\nvalue = [2, 55]\nclass = Torque_max", fillcolor="#40a1e6"] ;
444 -> 445 ;
446 [label="Trabajador <= 0.57\ngini = 0.07\nsamples = 37\nvalue = [2, 51]\nclass = Torque_max", fillcolor="#41a1e6"] ;
444 -> 446 ;
447 [label="Modelo <= 0.01\ngini = 0.05\nsamples = 25\nvalue = [1, 39]\nclass = Torque_max", fillcolor="#3ea0e6"] ;
446 -> 447 ;
448 [label="gini = 0.07\nsamples = 16\nvalue = [1, 26]\nclass = Torque_max", fillcolor="#41a1e6"] ;
447 -> 448 ;
449 [label="gini = 0.0\nsamples = 9\nvalue = [0, 13]\nclass = Torque_max", fillcolor="#399de5"] ;
447 -> 449 ;
450 [label="gini = 0.14\nsamples = 12\nvalue = [1, 12]\nclass = Torque_max", fillcolor="#49a5e7"] ;
446 -> 450 ;
451 [label="Trabajador <= 0.57\ngini = 0.11\nsamples = 23\nvalue = [2, 33]\nclass = Torque_max", fillcolor="#45a3e7"] ;
443 -> 451 ;
452 [label="gini = 0.44\nsamples = 2\nvalue = [2, 1]\nclass = Torque_min", fillcolor="#f2c09c"] ;
451 -> 452 ;
453 [label="gini = 0.0\nsamples = 21\nvalue = [0, 32]\nclass = Torque_max", fillcolor="#399de5"] ;
451 -> 453 ;
454 [label="Modelo <= 0.02\ngini = 0.03\nsamples = 47\nvalue = [1, 70]\nclass = Torque_max", fillcolor="#3c9ee5"] ;
442 -> 454 ;
455 [label="gini = 0.0\nsamples = 24\nvalue = [0, 40]\nclass = Torque_max", fillcolor="#399de5"] ;
454 -> 455 ;
456 [label="Trabajador <= 0.6\ngini = 0.06\nsamples = 23\nvalue = [1, 30]\nclass = Torque_max", fillcolor="#40a0e6"] ;
454 -> 456 ;
457 [label="gini = 0.0\nsamples = 11\nvalue = [0, 14]\nclass = Torque_max", fillcolor="#399de5"] ;
456 -> 457 ;
458 [label="gini = 0.11\nsamples = 12\nvalue = [1, 16]\nclass = Torque_max", fillcolor="#45a3e7"] ;
456 -> 458 ;
459 [label="Trabajador <= 0.57\ngini = 0.1\nsamples = 500\nvalue = [43, 771]\nclass = Torque_max", fillcolor="#44a2e6"] ;
439 -> 459 ;
460 [label="Modelo <= 0.03\ngini = 0.11\nsamples = 428\nvalue = [42, 652]\nclass = Torque_max", fillcolor="#46a3e7"] ;
459 -> 460 ;
461 [label="Modelo <= 0.03\ngini = 0.2\nsamples = 47\nvalue = [8, 63]\nclass = Torque_max", fillcolor="#52a9e8"] ;
460 -> 461 ;
462 [label="gini = 0.22\nsamples = 22\nvalue = [4, 28]\nclass = Torque_max", fillcolor="#55abe9"] ;
461 -> 462 ;
463 [label="gini = 0.18\nsamples = 25\nvalue = [4, 35]\nclass = Torque_max", fillcolor="#50a8e8"] ;
461 -> 463 ;
464 [label="Modelo <= 0.07\ngini = 0.1\nsamples = 381\nvalue = [34, 589]\nclass = Torque_max", fillcolor="#44a3e7"] ;
460 -> 464 ;
465 [label="Modelo <= 0.03\ngini = 0.1\nsamples = 349\nvalue = [29, 544]\nclass = Torque_max", fillcolor="#44a2e6"] ;
464 -> 465 ;
466 [label="gini = 0.12\nsamples = 172\nvalue = [17, 255]\nclass = Torque_max", fillcolor="#46a4e7"] ;
465 -> 466 ;
467 [label="Modelo <= 0.05\ngini = 0.08\nsamples = 177\nvalue = [12, 289]\nclass = Torque_max", fillcolor="#41a1e6"] ;
465 -> 467 ;
468 [label="gini = 0.0\nsamples = 60\nvalue = [0, 101]\nclass = Torque_max", fillcolor="#399de5"] ;
467 -> 468 ;
469 [label="Trabajador <= 0.53\ngini = 0.11\nsamples = 117\nvalue = [12, 188]\nclass = Torque_max", fillcolor="#46a3e7"] ;
467 -> 469 ;
470 [label="Modelo <= 0.05\ngini = 0.18\nsamples = 23\nvalue = [4, 36]\nclass = Torque_max", fillcolor="#4fa8e8"] ;
469 -> 470 ;
471 [label="gini = 0.0\nsamples = 1\nvalue = [2, 0]\nclass = Torque_min", fillcolor="#e58139"] ;
470 -> 471 ;
472 [label="Modelo <= 0.06\ngini = 0.1\nsamples = 22\nvalue = [2, 36]\nclass = Torque_max", fillcolor="#44a2e6"] ;
470 -> 472 ;
473 [label="gini = 0.0\nsamples = 7\nvalue = [0, 14]\nclass = Torque_max", fillcolor="#399de5"] ;
472 -> 473 ;
474 [label="gini = 0.15\nsamples = 15\nvalue = [2, 22]\nclass = Torque_max", fillcolor="#4ba6e7"] ;
472 -> 474 ;
475 [label="Modelo <= 0.06\ngini = 0.09\nsamples = 94\nvalue = [8, 152]\nclass = Torque_max", fillcolor="#43a2e6"] ;
469 -> 475 ;
476 [label="Modelo <= 0.05\ngini = 0.13\nsamples = 64\nvalue = [8, 104]\nclass = Torque_max", fillcolor="#48a5e7"] ;
475 -> 476 ;
477 [label="gini = 0.11\nsamples = 48\nvalue = [5, 81]\nclass = Torque_max", fillcolor="#45a3e7"] ;
476 -> 477 ;
478 [label="gini = 0.2\nsamples = 16\nvalue = [3, 23]\nclass = Torque_max", fillcolor="#53aae8"] ;
476 -> 478 ;
479 [label="gini = 0.0\nsamples = 30\nvalue = [0, 48]\nclass = Torque_max", fillcolor="#399de5"] ;
475 -> 479 ;
480 [label="Modelo <= 0.08\ngini = 0.18\nsamples = 32\nvalue = [5, 45]\nclass = Torque_max", fillcolor="#4fa8e8"] ;
464 -> 480 ;
481 [label="gini = 0.26\nsamples = 8\nvalue = [2, 11]\nclass = Torque_max", fillcolor="#5dafea"] ;
480 -> 481 ;
482 [label="gini = 0.15\nsamples = 24\nvalue = [3, 34]\nclass = Torque_max", fillcolor="#4aa6e7"] ;
480 -> 482 ;
483 [label="Modelo <= 0.06\ngini = 0.02\nsamples = 72\nvalue = [1, 119]\nclass = Torque_max", fillcolor="#3b9ee5"] ;
459 -> 483 ;
484 [label="Modelo <= 0.05\ngini = 0.04\nsamples = 34\nvalue = [1, 53]\nclass = Torque_max", fillcolor="#3d9fe5"] ;
483 -> 484 ;
485 [label="gini = 0.0\nsamples = 27\nvalue = [0, 43]\nclass = Torque_max", fillcolor="#399de5"] ;
484 -> 485 ;
486 [label="gini = 0.17\nsamples = 7\nvalue = [1, 10]\nclass = Torque_max", fillcolor="#4da7e8"] ;
484 -> 486 ;
487 [label="gini = 0.0\nsamples = 38\nvalue = [0, 66]\nclass = Torque_max", fillcolor="#399de5"] ;
483 -> 487 ;
488 [label="Modelo <= 0.05\ngini = 0.24\nsamples = 89\nvalue = [21, 126]\nclass = Torque_max", fillcolor="#5aade9"] ;
438 -> 488 ;
489 [label="Modelo <= 0.03\ngini = 0.34\nsamples = 39\nvalue = [15, 54]\nclass = Torque_max", fillcolor="#70b8ec"] ;
488 -> 489 ;
490 [label="Modelo <= 0.02\ngini = 0.3\nsamples = 31\nvalue = [10, 44]\nclass = Torque_max", fillcolor="#66b3eb"] ;
489 -> 490 ;
491 [label="gini = 0.38\nsamples = 9\nvalue = [4, 12]\nclass = Torque_max", fillcolor="#7bbeee"] ;
490 -> 491 ;
492 [label="gini = 0.27\nsamples = 22\nvalue = [6, 32]\nclass = Torque_max", fillcolor="#5eafea"] ;
490 -> 492 ;
493 [label="Modelo <= 0.04\ngini = 0.44\nsamples = 8\nvalue = [5, 10]\nclass = Torque_max", fillcolor="#9ccef2"] ;
489 -> 493 ;
494 [label="gini = 0.0\nsamples = 1\nvalue = [1, 0]\nclass = Torque_min", fillcolor="#e58139"] ;
493 -> 494 ;
495 [label="gini = 0.41\nsamples = 7\nvalue = [4, 10]\nclass = Torque_max", fillcolor="#88c4ef"] ;
493 -> 495 ;
496 [label="Modelo <= 0.07\ngini = 0.14\nsamples = 50\nvalue = [6, 72]\nclass = Torque_max", fillcolor="#49a5e7"] ;
488 -> 496 ;
497 [label="Modelo <= 0.06\ngini = 0.21\nsamples = 34\nvalue = [6, 44]\nclass = Torque_max", fillcolor="#54aae9"] ;
496 -> 497 ;
498 [label="gini = 0.0\nsamples = 14\nvalue = [0, 20]\nclass = Torque_max", fillcolor="#399de5"] ;
497 -> 498 ;
499 [label="gini = 0.32\nsamples = 20\nvalue = [6, 24]\nclass = Torque_max", fillcolor="#6ab6ec"] ;
497 -> 499 ;
500 [label="gini = 0.0\nsamples = 16\nvalue = [0, 28]\nclass = Torque_max", fillcolor="#399de5"] ;
496 -> 500 ;
501 [label="Trabajador <= 0.38\ngini = 0.16\nsamples = 241\nvalue = [34, 358]\nclass = Torque_max", fillcolor="#4ca6e7"] ;
437 -> 501 ;
502 [label="gini = 0.34\nsamples = 10\nvalue = [5, 18]\nclass = Torque_max", fillcolor="#70b8ec"] ;
501 -> 502 ;
503 [label="Trabajador <= 0.47\ngini = 0.14\nsamples = 231\nvalue = [29, 340]\nclass = Torque_max", fillcolor="#4aa5e7"] ;
501 -> 503 ;
504 [label="gini = 0.0\nsamples = 6\nvalue = [0, 8]\nclass = Torque_max", fillcolor="#399de5"] ;
503 -> 504 ;
505 [label="Trabajador <= 0.81\ngini = 0.15\nsamples = 225\nvalue = [29, 332]\nclass = Torque_max", fillcolor="#4aa6e7"] ;
503 -> 505 ;
506 [label="Modelo <= 0.09\ngini = 0.14\nsamples = 208\nvalue = [26, 307]\nclass = Torque_max", fillcolor="#4aa5e7"] ;
505 -> 506 ;
507 [label="Modelo <= 0.09\ngini = 0.17\nsamples = 174\nvalue = [26, 253]\nclass = Torque_max", fillcolor="#4da7e8"] ;
506 -> 507 ;
508 [label="Trabajador <= 0.57\ngini = 0.15\nsamples = 173\nvalue = [23, 253]\nclass = Torque_max", fillcolor="#4ba6e7"] ;
507 -> 508 ;
509 [label="gini = 0.16\nsamples = 103\nvalue = [14, 142]\nclass = Torque_max", fillcolor="#4da7e8"] ;
508 -> 509 ;
510 [label="Trabajador <= 0.6\ngini = 0.14\nsamples = 70\nvalue = [9, 111]\nclass = Torque_max", fillcolor="#49a5e7"] ;
508 -> 510 ;
511 [label="gini = 0.0\nsamples = 7\nvalue = [0, 12]\nclass = Torque_max", fillcolor="#399de5"] ;
510 -> 511 ;
512 [label="Trabajador <= 0.64\ngini = 0.15\nsamples = 63\nvalue = [9, 99]\nclass = Torque_max", fillcolor="#4ba6e7"] ;
510 -> 512 ;
513 [label="gini = 0.17\nsamples = 29\nvalue = [5, 47]\nclass = Torque_max", fillcolor="#4ea7e8"] ;
512 -> 513 ;
514 [label="gini = 0.13\nsamples = 34\nvalue = [4, 52]\nclass = Torque_max", fillcolor="#48a5e7"] ;
512 -> 514 ;
515 [label="gini = 0.0\nsamples = 1\nvalue = [3, 0]\nclass = Torque_min", fillcolor="#e58139"] ;
507 -> 515 ;
516 [label="gini = 0.0\nsamples = 34\nvalue = [0, 54]\nclass = Torque_max", fillcolor="#399de5"] ;
506 -> 516 ;
517 [label="gini = 0.19\nsamples = 17\nvalue = [3, 25]\nclass = Torque_max", fillcolor="#51a9e8"] ;
505 -> 517 ;
518 [label="Angle_min <= 0.0\ngini = 0.16\nsamples = 255\nvalue = [36, 369]\nclass = Torque_max", fillcolor="#4ca7e8"] ;
338 -> 518 ;
519 [label="Trabajador <= 0.46\ngini = 0.12\nsamples = 162\nvalue = [16, 245]\nclass = Torque_max", fillcolor="#46a3e7"] ;
518 -> 519 ;
520 [label="gini = 0.0\nsamples = 14\nvalue = [0, 21]\nclass = Torque_max", fillcolor="#399de5"] ;
519 -> 520 ;
521 [label="Modelo <= 0.09\ngini = 0.12\nsamples = 148\nvalue = [16, 224]\nclass = Torque_max", fillcolor="#47a4e7"] ;
519 -> 521 ;
522 [label="Modelo <= 0.02\ngini = 0.1\nsamples = 133\nvalue = [11, 207]\nclass = Torque_max", fillcolor="#44a2e6"] ;
521 -> 522 ;
523 [label="gini = 0.0\nsamples = 48\nvalue = [0, 83]\nclass = Torque_max", fillcolor="#399de5"] ;
522 -> 523 ;
524 [label="Trabajador <= 0.57\ngini = 0.15\nsamples = 85\nvalue = [11, 124]\nclass = Torque_max", fillcolor="#4ba6e7"] ;
522 -> 524 ;
525 [label="Trabajador <= 0.53\ngini = 0.13\nsamples = 69\nvalue = [8, 105]\nclass = Torque_max", fillcolor="#48a4e7"] ;
524 -> 525 ;
526 [label="gini = 0.32\nsamples = 5\nvalue = [1, 4]\nclass = Torque_max", fillcolor="#6ab6ec"] ;
525 -> 526 ;
527 [label="Modelo <= 0.02\ngini = 0.12\nsamples = 64\nvalue = [7, 101]\nclass = Torque_max", fillcolor="#47a4e7"] ;
525 -> 527 ;
528 [label="gini = 0.38\nsamples = 15\nvalue = [5, 15]\nclass = Torque_max", fillcolor="#7bbeee"] ;
527 -> 528 ;
529 [label="Modelo <= 0.05\ngini = 0.04\nsamples = 49\nvalue = [2, 86]\nclass = Torque_max", fillcolor="#3e9fe6"] ;
527 -> 529 ;
530 [label="gini = 0.0\nsamples = 22\nvalue = [0, 40]\nclass = Torque_max", fillcolor="#399de5"] ;
529 -> 530 ;
531 [label="Modelo <= 0.06\ngini = 0.08\nsamples = 27\nvalue = [2, 46]\nclass = Torque_max", fillcolor="#42a1e6"] ;
529 -> 531 ;
532 [label="gini = 0.18\nsamples = 13\nvalue = [2, 18]\nclass = Torque_max", fillcolor="#4fa8e8"] ;
531 -> 532 ;
533 [label="gini = 0.0\nsamples = 14\nvalue = [0, 28]\nclass = Torque_max", fillcolor="#399de5"] ;
531 -> 533 ;
534 [label="Modelo <= 0.09\ngini = 0.24\nsamples = 16\nvalue = [3, 19]\nclass = Torque_max", fillcolor="#58ace9"] ;
524 -> 534 ;
535 [label="Modelo <= 0.07\ngini = 0.21\nsamples = 11\nvalue = [2, 15]\nclass = Torque_max", fillcolor="#53aae8"] ;
534 -> 535 ;
536 [label="gini = 0.2\nsamples = 7\nvalue = [1, 8]\nclass = Torque_max", fillcolor="#52a9e8"] ;
535 -> 536 ;
537 [label="gini = 0.22\nsamples = 4\nvalue = [1, 7]\nclass = Torque_max", fillcolor="#55abe9"] ;
535 -> 537 ;
538 [label="gini = 0.32\nsamples = 5\nvalue = [1, 4]\nclass = Torque_max", fillcolor="#6ab6ec"] ;
534 -> 538 ;
539 [label="gini = 0.35\nsamples = 15\nvalue = [5, 17]\nclass = Torque_max", fillcolor="#73baed"] ;
521 -> 539 ;
540 [label="Trabajador <= 0.75\ngini = 0.24\nsamples = 93\nvalue = [20, 124]\nclass = Torque_max", fillcolor="#59ade9"] ;
518 -> 540 ;
541 [label="Modelo <= 0.06\ngini = 0.04\nsamples = 55\nvalue = [2, 86]\nclass = Torque_max", fillcolor="#3e9fe6"] ;
540 -> 541 ;
542 [label="Modelo <= 0.02\ngini = 0.1\nsamples = 26\nvalue = [2, 36]\nclass = Torque_max", fillcolor="#44a2e6"] ;
541 -> 542 ;
543 [label="Torque_max <= 0.49\ngini = 0.06\nsamples = 22\nvalue = [1, 30]\nclass = Torque_max", fillcolor="#40a0e6"] ;
542 -> 543 ;
544 [label="gini = 0.0\nsamples = 10\nvalue = [0, 15]\nclass = Torque_max", fillcolor="#399de5"] ;
543 -> 544 ;
545 [label="gini = 0.12\nsamples = 12\nvalue = [1, 15]\nclass = Torque_max", fillcolor="#46a4e7"] ;
543 -> 545 ;
546 [label="Trabajador <= 0.4\ngini = 0.24\nsamples = 4\nvalue = [1, 6]\nclass = Torque_max", fillcolor="#5aade9"] ;
542 -> 546 ;
547 [label="gini = 0.0\nsamples = 3\nvalue = [0, 6]\nclass = Torque_max", fillcolor="#399de5"] ;
546 -> 547 ;
548 [label="gini = 0.0\nsamples = 1\nvalue = [1, 0]\nclass = Torque_min", fillcolor="#e58139"] ;
546 -> 548 ;
549 [label="gini = 0.0\nsamples = 29\nvalue = [0, 50]\nclass = Torque_max", fillcolor="#399de5"] ;
541 -> 549 ;
550 [label="gini = 0.44\nsamples = 38\nvalue = [18, 38]\nclass = Torque_max", fillcolor="#97cbf1"] ;
540 -> 550 ;
551 [label="Torque_max <= 0.49\ngini = 0.16\nsamples = 155\nvalue = [22, 230]\nclass = Torque_max", fillcolor="#4ca6e7"] ;
337 -> 551 ;
552 [label="Trabajador <= 0.47\ngini = 0.21\nsamples = 74\nvalue = [14, 102]\nclass = Torque_max", fillcolor="#54aae9"] ;
551 -> 552 ;
553 [label="gini = 0.0\nsamples = 9\nvalue = [0, 17]\nclass = Torque_max", fillcolor="#399de5"] ;
552 -> 553 ;
554 [label="Trabajador <= 0.57\ngini = 0.24\nsamples = 65\nvalue = [14, 85]\nclass = Torque_max", fillcolor="#5aade9"] ;
552 -> 554 ;
555 [label="gini = 0.2\nsamples = 18\nvalue = [3, 23]\nclass = Torque_max", fillcolor="#53aae8"] ;
554 -> 555 ;
556 [label="Trabajador <= 0.64\ngini = 0.26\nsamples = 47\nvalue = [11, 62]\nclass = Torque_max", fillcolor="#5caeea"] ;
554 -> 556 ;
557 [label="gini = 0.41\nsamples = 5\nvalue = [2, 5]\nclass = Torque_max", fillcolor="#88c4ef"] ;
556 -> 557 ;
558 [label="Trabajador <= 0.81\ngini = 0.24\nsamples = 42\nvalue = [9, 57]\nclass = Torque_max", fillcolor="#58ace9"] ;
556 -> 558 ;
559 [label="gini = 0.18\nsamples = 11\nvalue = [2, 18]\nclass = Torque_max", fillcolor="#4fa8e8"] ;
558 -> 559 ;
560 [label="gini = 0.26\nsamples = 31\nvalue = [7, 39]\nclass = Torque_max", fillcolor="#5dafea"] ;
558 -> 560 ;
561 [label="Trabajador <= 0.53\ngini = 0.11\nsamples = 81\nvalue = [8, 128]\nclass = Torque_max", fillcolor="#45a3e7"] ;
551 -> 561 ;
562 [label="Trabajador <= 0.46\ngini = 0.25\nsamples = 21\nvalue = [5, 29]\nclass = Torque_max", fillcolor="#5baee9"] ;
561 -> 562 ;
563 [label="gini = 0.14\nsamples = 16\nvalue = [2, 24]\nclass = Torque_max", fillcolor="#49a5e7"] ;
562 -> 563 ;
564 [label="gini = 0.47\nsamples = 5\nvalue = [3, 5]\nclass = Torque_max", fillcolor="#b0d8f5"] ;
562 -> 564 ;
565 [label="Trabajador <= 0.57\ngini = 0.06\nsamples = 60\nvalue = [3, 99]\nclass = Torque_max", fillcolor="#3fa0e6"] ;
561 -> 565 ;
566 [label="gini = 0.07\nsamples = 51\nvalue = [3, 86]\nclass = Torque_max", fillcolor="#40a0e6"] ;
565 -> 566 ;
567 [label="gini = 0.0\nsamples = 9\nvalue = [0, 13]\nclass = Torque_max", fillcolor="#399de5"] ;
565 -> 567 ;
568 [label="Torque_max <= 0.27\ngini = 0.04\nsamples = 328\nvalue = [11, 516]\nclass = Torque_max", fillcolor="#3d9fe6"] ;
336 -> 568 ;
569 [label="gini = 0.0\nsamples = 8\nvalue = [0, 13]\nclass = Torque_max", fillcolor="#399de5"] ;
568 -> 569 ;
570 [label="Modelo <= 0.08\ngini = 0.04\nsamples = 320\nvalue = [11, 503]\nclass = Torque_max", fillcolor="#3d9fe6"] ;
568 -> 570 ;
571 [label="Trabajador <= 0.84\ngini = 0.03\nsamples = 206\nvalue = [6, 336]\nclass = Torque_max", fillcolor="#3d9fe5"] ;
570 -> 571 ;
572 [label="Modelo <= 0.08\ngini = 0.01\nsamples = 171\nvalue = [2, 281]\nclass = Torque_max", fillcolor="#3a9ee5"] ;
571 -> 572 ;
573 [label="gini = 0.0\nsamples = 106\nvalue = [0, 174]\nclass = Torque_max", fillcolor="#399de5"] ;
572 -> 573 ;
574 [label="gini = 0.04\nsamples = 65\nvalue = [2, 107]\nclass = Torque_max", fillcolor="#3d9fe5"] ;
572 -> 574 ;
575 [label="gini = 0.13\nsamples = 35\nvalue = [4, 55]\nclass = Torque_max", fillcolor="#47a4e7"] ;
571 -> 575 ;
576 [label="gini = 0.06\nsamples = 114\nvalue = [5, 167]\nclass = Torque_max", fillcolor="#3fa0e6"] ;
570 -> 576 ;
577 [label="Modelo <= 0.05\ngini = 0.23\nsamples = 275\nvalue = [57, 373]\nclass = Torque_max", fillcolor="#57ace9"] ;
335 -> 577 ;
578 [label="Modelo <= 0.03\ngini = 0.47\nsamples = 88\nvalue = [52, 86]\nclass = Torque_max", fillcolor="#b1d8f5"] ;
577 -> 578 ;
579 [label="Modelo <= 0.03\ngini = 0.46\nsamples = 83\nvalue = [48, 84]\nclass = Torque_max", fillcolor="#aad5f4"] ;
578 -> 579 ;
580 [label="gini = 0.43\nsamples = 9\nvalue = [6, 13]\nclass = Torque_max", fillcolor="#94caf1"] ;
579 -> 580 ;
581 [label="Trabajador <= 0.84\ngini = 0.47\nsamples = 74\nvalue = [42, 71]\nclass = Torque_max", fillcolor="#aed7f4"] ;
579 -> 581 ;
582 [label="gini = 0.49\nsamples = 52\nvalue = [34, 42]\nclass = Torque_max", fillcolor="#d9ecfa"] ;
581 -> 582 ;
583 [label="gini = 0.34\nsamples = 22\nvalue = [8, 29]\nclass = Torque_max", fillcolor="#70b8ec"] ;
581 -> 583 ;
584 [label="gini = 0.44\nsamples = 5\nvalue = [4, 2]\nclass = Torque_min", fillcolor="#f2c09c"] ;
578 -> 584 ;
585 [label="Modelo <= 0.07\ngini = 0.03\nsamples = 187\nvalue = [5, 287]\nclass = Torque_max", fillcolor="#3c9fe5"] ;
577 -> 585 ;
586 [label="Modelo <= 0.07\ngini = 0.05\nsamples = 46\nvalue = [2, 69]\nclass = Torque_max", fillcolor="#3fa0e6"] ;
585 -> 586 ;
587 [label="gini = 0.0\nsamples = 23\nvalue = [0, 31]\nclass = Torque_max", fillcolor="#399de5"] ;
586 -> 587 ;
588 [label="gini = 0.09\nsamples = 23\nvalue = [2, 38]\nclass = Torque_max", fillcolor="#43a2e6"] ;
586 -> 588 ;
589 [label="Modelo <= 0.08\ngini = 0.03\nsamples = 141\nvalue = [3, 218]\nclass = Torque_max", fillcolor="#3c9ee5"] ;
585 -> 589 ;
590 [label="gini = 0.0\nsamples = 2\nvalue = [0, 4]\nclass = Torque_max", fillcolor="#399de5"] ;
589 -> 590 ;
591 [label="Modelo <= 0.08\ngini = 0.03\nsamples = 139\nvalue = [3, 214]\nclass = Torque_max", fillcolor="#3c9ee5"] ;
589 -> 591 ;
592 [label="gini = 0.03\nsamples = 41\nvalue = [1, 70]\nclass = Torque_max", fillcolor="#3c9ee5"] ;
591 -> 592 ;
593 [label="gini = 0.03\nsamples = 98\nvalue = [2, 144]\nclass = Torque_max", fillcolor="#3c9ee5"] ;
591 -> 593 ;
594 [label="Pset_name_cat <= 0.86\ngini = 0.03\nsamples = 534\nvalue = [12, 804]\nclass = Torque_max", fillcolor="#3c9ee5"] ;
334 -> 594 ;
595 [label="Modelo <= 0.04\ngini = 0.02\nsamples = 125\nvalue = [2, 201]\nclass = Torque_max", fillcolor="#3b9ee5"] ;
594 -> 595 ;
596 [label="gini = 0.0\nsamples = 81\nvalue = [0, 134]\nclass = Torque_max", fillcolor="#399de5"] ;
595 -> 596 ;
597 [label="Trabajador <= 0.62\ngini = 0.06\nsamples = 44\nvalue = [2, 67]\nclass = Torque_max", fillcolor="#3fa0e6"] ;
595 -> 597 ;
598 [label="gini = 0.1\nsamples = 12\nvalue = [1, 18]\nclass = Torque_max", fillcolor="#44a2e6"] ;
597 -> 598 ;
599 [label="Modelo <= 0.05\ngini = 0.04\nsamples = 32\nvalue = [1, 49]\nclass = Torque_max", fillcolor="#3d9fe6"] ;
597 -> 599 ;
600 [label="gini = 0.15\nsamples = 9\nvalue = [1, 11]\nclass = Torque_max", fillcolor="#4ba6e7"] ;
599 -> 600 ;
601 [label="gini = 0.0\nsamples = 23\nvalue = [0, 38]\nclass = Torque_max", fillcolor="#399de5"] ;
599 -> 601 ;
602 [label="Trabajador <= 0.73\ngini = 0.03\nsamples = 409\nvalue = [10, 603]\nclass = Torque_max", fillcolor="#3c9fe5"] ;
594 -> 602 ;
603 [label="Modelo <= 0.09\ngini = 0.03\nsamples = 46\nvalue = [1, 73]\nclass = Torque_max", fillcolor="#3c9ee5"] ;
602 -> 603 ;
604 [label="Trabajador <= 0.61\ngini = 0.04\nsamples = 33\nvalue = [1, 51]\nclass = Torque_max", fillcolor="#3d9fe6"] ;
603 -> 604 ;
605 [label="Modelo <= 0.06\ngini = 0.04\nsamples = 29\nvalue = [1, 43]\nclass = Torque_max", fillcolor="#3e9fe6"] ;
604 -> 605 ;
606 [label="gini = 0.0\nsamples = 7\nvalue = [0, 7]\nclass = Torque_max", fillcolor="#399de5"] ;
605 -> 606 ;
607 [label="gini = 0.05\nsamples = 22\nvalue = [1, 36]\nclass = Torque_max", fillcolor="#3ea0e6"] ;
605 -> 607 ;
608 [label="gini = 0.0\nsamples = 4\nvalue = [0, 8]\nclass = Torque_max", fillcolor="#399de5"] ;
604 -> 608 ;
609 [label="gini = 0.0\nsamples = 13\nvalue = [0, 22]\nclass = Torque_max", fillcolor="#399de5"] ;
603 -> 609 ;
610 [label="Modelo <= 0.03\ngini = 0.03\nsamples = 363\nvalue = [9, 530]\nclass = Torque_max", fillcolor="#3c9fe5"] ;
602 -> 610 ;
611 [label="Modelo <= 0.03\ngini = 0.09\nsamples = 89\nvalue = [6, 127]\nclass = Torque_max", fillcolor="#42a2e6"] ;
610 -> 611 ;
612 [label="Modelo <= 0.02\ngini = 0.03\nsamples = 75\nvalue = [2, 111]\nclass = Torque_max", fillcolor="#3d9fe5"] ;
611 -> 612 ;
613 [label="gini = 0.0\nsamples = 40\nvalue = [0, 63]\nclass = Torque_max", fillcolor="#399de5"] ;
612 -> 613 ;
614 [label="Modelo <= 0.02\ngini = 0.08\nsamples = 35\nvalue = [2, 48]\nclass = Torque_max", fillcolor="#41a1e6"] ;
612 -> 614 ;
615 [label="gini = 0.24\nsamples = 10\nvalue = [2, 12]\nclass = Torque_max", fillcolor="#5aade9"] ;
614 -> 615 ;
616 [label="gini = 0.0\nsamples = 25\nvalue = [0, 36]\nclass = Torque_max", fillcolor="#399de5"] ;
614 -> 616 ;
617 [label="gini = 0.32\nsamples = 14\nvalue = [4, 16]\nclass = Torque_max", fillcolor="#6ab6ec"] ;
611 -> 617 ;
618 [label="Modelo <= 0.07\ngini = 0.01\nsamples = 274\nvalue = [3, 403]\nclass = Torque_max", fillcolor="#3a9ee5"] ;
610 -> 618 ;
619 [label="Modelo <= 0.06\ngini = 0.02\nsamples = 115\nvalue = [2, 159]\nclass = Torque_max", fillcolor="#3b9ee5"] ;
618 -> 619 ;
620 [label="Modelo <= 0.04\ngini = 0.01\nsamples = 96\nvalue = [1, 136]\nclass = Torque_max", fillcolor="#3a9ee5"] ;
619 -> 620 ;
621 [label="gini = 0.02\nsamples = 74\nvalue = [1, 107]\nclass = Torque_max", fillcolor="#3b9ee5"] ;
620 -> 621 ;
622 [label="gini = 0.0\nsamples = 22\nvalue = [0, 29]\nclass = Torque_max", fillcolor="#399de5"] ;
620 -> 622 ;
623 [label="gini = 0.08\nsamples = 19\nvalue = [1, 23]\nclass = Torque_max", fillcolor="#42a1e6"] ;
619 -> 623 ;
624 [label="Modelo <= 0.08\ngini = 0.01\nsamples = 159\nvalue = [1, 244]\nclass = Torque_max", fillcolor="#3a9de5"] ;
618 -> 624 ;
625 [label="gini = 0.0\nsamples = 65\nvalue = [0, 107]\nclass = Torque_max", fillcolor="#399de5"] ;
624 -> 625 ;
626 [label="Modelo <= 0.09\ngini = 0.01\nsamples = 94\nvalue = [1, 137]\nclass = Torque_max", fillcolor="#3a9ee5"] ;
624 -> 626 ;
627 [label="gini = 0.02\nsamples = 80\nvalue = [1, 114]\nclass = Torque_max", fillcolor="#3b9ee5"] ;
626 -> 627 ;
628 [label="gini = 0.0\nsamples = 14\nvalue = [0, 23]\nclass = Torque_max", fillcolor="#399de5"] ;
626 -> 628 ;
629 [label="Torque_min <= 0.05\ngini = 0.09\nsamples = 29261\nvalue = [2265, 44094]\nclass = Torque_max", fillcolor="#43a2e6"] ;
1 -> 629 ;
630 [label="Modelo <= 0.3\ngini = 0.45\nsamples = 128\nvalue = [128, 68]\nclass = Torque_min", fillcolor="#f3c4a2"] ;
629 -> 630 ;
631 [label="gini = 0.0\nsamples = 56\nvalue = [95, 0]\nclass = Torque_min", fillcolor="#e58139"] ;
630 -> 631 ;
632 [label="Trabajador <= 0.04\ngini = 0.44\nsamples = 72\nvalue = [33, 68]\nclass = Torque_max", fillcolor="#99cdf2"] ;
630 -> 632 ;
633 [label="Modelo <= 0.35\ngini = 0.12\nsamples = 31\nvalue = [3, 42]\nclass = Torque_max", fillcolor="#47a4e7"] ;
632 -> 633 ;
634 [label="gini = 0.0\nsamples = 20\nvalue = [0, 27]\nclass = Torque_max", fillcolor="#399de5"] ;
633 -> 634 ;
635 [label="gini = 0.28\nsamples = 11\nvalue = [3, 15]\nclass = Torque_max", fillcolor="#61b1ea"] ;
633 -> 635 ;
636 [label="Torque_max <= 0.19\ngini = 0.5\nsamples = 41\nvalue = [30, 26]\nclass = Torque_min", fillcolor="#fceee5"] ;
632 -> 636 ;
637 [label="Modelo <= 0.33\ngini = 0.3\nsamples = 23\nvalue = [6, 26]\nclass = Torque_max", fillcolor="#67b4eb"] ;
636 -> 637 ;
638 [label="Trabajador <= 0.51\ngini = 0.38\nsamples = 14\nvalue = [5, 15]\nclass = Torque_max", fillcolor="#7bbeee"] ;
637 -> 638 ;
639 [label="gini = 0.0\nsamples = 2\nvalue = [0, 2]\nclass = Torque_max", fillcolor="#399de5"] ;
638 -> 639 ;
640 [label="Trabajador <= 0.72\ngini = 0.4\nsamples = 12\nvalue = [5, 13]\nclass = Torque_max", fillcolor="#85c3ef"] ;
638 -> 640 ;
641 [label="gini = 0.38\nsamples = 8\nvalue = [3, 9]\nclass = Torque_max", fillcolor="#7bbeee"] ;
640 -> 641 ;
642 [label="gini = 0.44\nsamples = 4\nvalue = [2, 4]\nclass = Torque_max", fillcolor="#9ccef2"] ;
640 -> 642 ;
643 [label="Trabajador <= 0.39\ngini = 0.15\nsamples = 9\nvalue = [1, 11]\nclass = Torque_max", fillcolor="#4ba6e7"] ;
637 -> 643 ;
644 [label="gini = 0.0\nsamples = 2\nvalue = [0, 2]\nclass = Torque_max", fillcolor="#399de5"] ;
643 -> 644 ;
645 [label="gini = 0.18\nsamples = 7\nvalue = [1, 9]\nclass = Torque_max", fillcolor="#4fa8e8"] ;
643 -> 645 ;
646 [label="gini = 0.0\nsamples = 18\nvalue = [24, 0]\nclass = Torque_min", fillcolor="#e58139"] ;
636 -> 646 ;
647 [label="Angle_max <= 0.91\ngini = 0.09\nsamples = 29133\nvalue = [2137, 44026]\nclass = Torque_max", fillcolor="#43a2e6"] ;
629 -> 647 ;
648 [label="Angle_max <= 0.26\ngini = 0.09\nsamples = 29097\nvalue = [2109, 43996]\nclass = Torque_max", fillcolor="#42a2e6"] ;
647 -> 648 ;
649 [label="Pset_name_cat <= 0.09\ngini = 0.12\nsamples = 3787\nvalue = [390, 5535]\nclass = Torque_max", fillcolor="#47a4e7"] ;
648 -> 649 ;
650 [label="Torque_max <= 0.49\ngini = 0.42\nsamples = 145\nvalue = [76, 173]\nclass = Torque_max", fillcolor="#90c8f0"] ;
649 -> 650 ;
651 [label="Torque_min <= 0.32\ngini = 0.48\nsamples = 70\nvalue = [47, 73]\nclass = Torque_max", fillcolor="#b8dcf6"] ;
650 -> 651 ;
652 [label="gini = 0.44\nsamples = 13\nvalue = [6, 12]\nclass = Torque_max", fillcolor="#9ccef2"] ;
651 -> 652 ;
653 [label="Trabajador <= 0.5\ngini = 0.48\nsamples = 57\nvalue = [41, 61]\nclass = Torque_max", fillcolor="#bedff6"] ;
651 -> 653 ;
654 [label="Modelo <= 0.25\ngini = 0.5\nsamples = 46\nvalue = [40, 47]\nclass = Torque_max", fillcolor="#e2f0fb"] ;
653 -> 654 ;
655 [label="Trabajador <= 0.39\ngini = 0.48\nsamples = 35\nvalue = [28, 41]\nclass = Torque_max", fillcolor="#c0e0f7"] ;
654 -> 655 ;
656 [label="Modelo <= 0.15\ngini = 0.45\nsamples = 19\nvalue = [15, 28]\nclass = Torque_max", fillcolor="#a3d2f3"] ;
655 -> 656 ;
657 [label="gini = 0.41\nsamples = 7\nvalue = [7, 17]\nclass = Torque_max", fillcolor="#8bc5f0"] ;
656 -> 657 ;
658 [label="Trabajador <= 0.19\ngini = 0.49\nsamples = 12\nvalue = [8, 11]\nclass = Torque_max", fillcolor="#c9e4f8"] ;
656 -> 658 ;
659 [label="gini = 0.5\nsamples = 9\nvalue = [8, 8]\nclass = Torque_min", fillcolor="#ffffff"] ;
658 -> 659 ;
660 [label="gini = 0.0\nsamples = 3\nvalue = [0, 3]\nclass = Torque_max", fillcolor="#399de5"] ;
658 -> 660 ;
661 [label="gini = 0.5\nsamples = 16\nvalue = [13, 13]\nclass = Torque_min", fillcolor="#ffffff"] ;
655 -> 661 ;
662 [label="Trabajador <= 0.07\ngini = 0.44\nsamples = 11\nvalue = [12, 6]\nclass = Torque_min", fillcolor="#f2c09c"] ;
654 -> 662 ;
663 [label="gini = 0.5\nsamples = 6\nvalue = [4, 4]\nclass = Torque_min", fillcolor="#ffffff"] ;
662 -> 663 ;
664 [label="gini = 0.32\nsamples = 5\nvalue = [8, 2]\nclass = Torque_min", fillcolor="#eca06a"] ;
662 -> 664 ;
665 [label="Trabajador <= 0.69\ngini = 0.12\nsamples = 11\nvalue = [1, 14]\nclass = Torque_max", fillcolor="#47a4e7"] ;
653 -> 665 ;
666 [label="gini = 0.32\nsamples = 4\nvalue = [1, 4]\nclass = Torque_max", fillcolor="#6ab6ec"] ;
665 -> 666 ;
667 [label="gini = 0.0\nsamples = 7\nvalue = [0, 10]\nclass = Torque_max", fillcolor="#399de5"] ;
665 -> 667 ;
668 [label="Trabajador <= 0.31\ngini = 0.35\nsamples = 75\nvalue = [29, 100]\nclass = Torque_max", fillcolor="#72b9ed"] ;
650 -> 668 ;
669 [label="gini = 0.0\nsamples = 3\nvalue = [0, 6]\nclass = Torque_max", fillcolor="#399de5"] ;
668 -> 669 ;
670 [label="Trabajador <= 0.56\ngini = 0.36\nsamples = 72\nvalue = [29, 94]\nclass = Torque_max", fillcolor="#76bbed"] ;
668 -> 670 ;
671 [label="Modelo <= 0.1\ngini = 0.37\nsamples = 69\nvalue = [29, 89]\nclass = Torque_max", fillcolor="#7abded"] ;
670 -> 671 ;
672 [label="Modelo <= 0.1\ngini = 0.33\nsamples = 37\nvalue = [11, 41]\nclass = Torque_max", fillcolor="#6eb7ec"] ;
671 -> 672 ;
673 [label="Trabajador <= 0.46\ngini = 0.33\nsamples = 17\nvalue = [5, 19]\nclass = Torque_max", fillcolor="#6db7ec"] ;
672 -> 673 ;
674 [label="gini = 0.42\nsamples = 11\nvalue = [5, 12]\nclass = Torque_max", fillcolor="#8bc6f0"] ;
673 -> 674 ;
675 [label="gini = 0.0\nsamples = 6\nvalue = [0, 7]\nclass = Torque_max", fillcolor="#399de5"] ;
673 -> 675 ;
676 [label="Trabajador <= 0.43\ngini = 0.34\nsamples = 20\nvalue = [6, 22]\nclass = Torque_max", fillcolor="#6fb8ec"] ;
672 -> 676 ;
677 [label="gini = 0.32\nsamples = 7\nvalue = [2, 8]\nclass = Torque_max", fillcolor="#6ab6ec"] ;
676 -> 677 ;
678 [label="gini = 0.35\nsamples = 13\nvalue = [4, 14]\nclass = Torque_max", fillcolor="#72b9ec"] ;
676 -> 678 ;
679 [label="Trabajador <= 0.46\ngini = 0.4\nsamples = 32\nvalue = [18, 48]\nclass = Torque_max", fillcolor="#83c2ef"] ;
671 -> 679 ;
680 [label="Trabajador <= 0.38\ngini = 0.28\nsamples = 8\nvalue = [3, 15]\nclass = Torque_max", fillcolor="#61b1ea"] ;
679 -> 680 ;
681 [label="gini = 0.0\nsamples = 1\nvalue = [0, 2]\nclass = Torque_max", fillcolor="#399de5"] ;
680 -> 681 ;
682 [label="gini = 0.3\nsamples = 7\nvalue = [3, 13]\nclass = Torque_max", fillcolor="#67b4eb"] ;
680 -> 682 ;
683 [label="Modelo <= 0.12\ngini = 0.43\nsamples = 24\nvalue = [15, 33]\nclass = Torque_max", fillcolor="#93caf1"] ;
679 -> 683 ;
684 [label="gini = 0.43\nsamples = 10\nvalue = [6, 13]\nclass = Torque_max", fillcolor="#94caf1"] ;
683 -> 684 ;
685 [label="gini = 0.43\nsamples = 14\nvalue = [9, 20]\nclass = Torque_max", fillcolor="#92c9f1"] ;
683 -> 685 ;
686 [label="gini = 0.0\nsamples = 3\nvalue = [0, 5]\nclass = Torque_max", fillcolor="#399de5"] ;
670 -> 686 ;
687 [label="Modelo <= 0.19\ngini = 0.1\nsamples = 3642\nvalue = [314, 5362]\nclass = Torque_max", fillcolor="#45a3e7"] ;
649 -> 687 ;
688 [label="Angle_max <= 0.04\ngini = 0.13\nsamples = 1625\nvalue = [183, 2379]\nclass = Torque_max", fillcolor="#48a5e7"] ;
687 -> 688 ;
689 [label="Torque_min <= 0.34\ngini = 0.21\nsamples = 609\nvalue = [116, 833]\nclass = Torque_max", fillcolor="#55abe9"] ;
688 -> 689 ;
690 [label="Angle_min <= 0.0\ngini = 0.33\nsamples = 86\nvalue = [29, 110]\nclass = Torque_max", fillcolor="#6db7ec"] ;
689 -> 690 ;
691 [label="gini = 0.0\nsamples = 30\nvalue = [0, 53]\nclass = Torque_max", fillcolor="#399de5"] ;
690 -> 691 ;
692 [label="Modelo <= 0.19\ngini = 0.45\nsamples = 56\nvalue = [29, 57]\nclass = Torque_max", fillcolor="#9ecff2"] ;
690 -> 692 ;
693 [label="Trabajador <= 0.55\ngini = 0.36\nsamples = 29\nvalue = [9, 30]\nclass = Torque_max", fillcolor="#74baed"] ;
692 -> 693 ;
694 [label="gini = 0.0\nsamples = 5\nvalue = [0, 8]\nclass = Torque_max", fillcolor="#399de5"] ;
693 -> 694 ;
695 [label="Modelo <= 0.18\ngini = 0.41\nsamples = 24\nvalue = [9, 22]\nclass = Torque_max", fillcolor="#8ac5f0"] ;
693 -> 695 ;
696 [label="gini = 0.48\nsamples = 14\nvalue = [7, 11]\nclass = Torque_max", fillcolor="#b7dbf6"] ;
695 -> 696 ;
697 [label="gini = 0.26\nsamples = 10\nvalue = [2, 11]\nclass = Torque_max", fillcolor="#5dafea"] ;
695 -> 697 ;
698 [label="Trabajador <= 0.52\ngini = 0.49\nsamples = 27\nvalue = [20, 27]\nclass = Torque_max", fillcolor="#cce6f8"] ;
692 -> 698 ;
699 [label="gini = 0.23\nsamples = 8\nvalue = [2, 13]\nclass = Torque_max", fillcolor="#57ace9"] ;
698 -> 699 ;
700 [label="Trabajador <= 0.75\ngini = 0.49\nsamples = 19\nvalue = [18, 14]\nclass = Torque_min", fillcolor="#f9e3d3"] ;
698 -> 700 ;
701 [label="gini = 0.5\nsamples = 15\nvalue = [13, 12]\nclass = Torque_min", fillcolor="#fdf5f0"] ;
700 -> 701 ;
702 [label="gini = 0.41\nsamples = 4\nvalue = [5, 2]\nclass = Torque_min", fillcolor="#efb388"] ;
700 -> 702 ;
703 [label="Torque_max <= 0.49\ngini = 0.19\nsamples = 523\nvalue = [87, 723]\nclass = Torque_max", fillcolor="#51a9e8"] ;
689 -> 703 ;
704 [label="Modelo <= 0.1\ngini = 0.1\nsamples = 199\nvalue = [17, 303]\nclass = Torque_max", fillcolor="#44a2e6"] ;
703 -> 704 ;
705 [label="Trabajador <= 0.73\ngini = 0.2\nsamples = 76\nvalue = [13, 105]\nclass = Torque_max", fillcolor="#52a9e8"] ;
704 -> 705 ;
706 [label="gini = 0.41\nsamples = 20\nvalue = [9, 22]\nclass = Torque_max", fillcolor="#8ac5f0"] ;
705 -> 706 ;
707 [label="gini = 0.09\nsamples = 56\nvalue = [4, 83]\nclass = Torque_max", fillcolor="#43a2e6"] ;
705 -> 707 ;
708 [label="Pset_name_cat <= 0.83\ngini = 0.04\nsamples = 123\nvalue = [4, 198]\nclass = Torque_max", fillcolor="#3d9fe6"] ;
704 -> 708 ;
709 [label="Pset_name_cat <= 0.68\ngini = 0.03\nsamples = 116\nvalue = [3, 190]\nclass = Torque_max", fillcolor="#3c9fe5"] ;
708 -> 709 ;
710 [label="Modelo <= 0.1\ngini = 0.02\nsamples = 71\nvalue = [1, 111]\nclass = Torque_max", fillcolor="#3b9ee5"] ;
709 -> 710 ;
711 [label="gini = 0.0\nsamples = 52\nvalue = [0, 76]\nclass = Torque_max", fillcolor="#399de5"] ;
710 -> 711 ;
712 [label="Trabajador <= 0.94\ngini = 0.05\nsamples = 19\nvalue = [1, 35]\nclass = Torque_max", fillcolor="#3fa0e6"] ;
710 -> 712 ;
713 [label="gini = 0.07\nsamples = 14\nvalue = [1, 25]\nclass = Torque_max", fillcolor="#41a1e6"] ;
712 -> 713 ;
714 [label="gini = 0.0\nsamples = 5\nvalue = [0, 10]\nclass = Torque_max", fillcolor="#399de5"] ;
712 -> 714 ;
715 [label="Trabajador <= 0.25\ngini = 0.05\nsamples = 45\nvalue = [2, 79]\nclass = Torque_max", fillcolor="#3e9fe6"] ;
709 -> 715 ;
716 [label="Modelo <= 0.16\ngini = 0.09\nsamples = 25\nvalue = [2, 41]\nclass = Torque_max", fillcolor="#43a2e6"] ;
715 -> 716 ;
717 [label="Modelo <= 0.15\ngini = 0.05\nsamples = 20\nvalue = [1, 35]\nclass = Torque_max", fillcolor="#3fa0e6"] ;
716 -> 717 ;
718 [label="gini = 0.06\nsamples = 17\nvalue = [1, 31]\nclass = Torque_max", fillcolor="#3fa0e6"] ;
717 -> 718 ;
719 [label="gini = 0.0\nsamples = 3\nvalue = [0, 4]\nclass = Torque_max", fillcolor="#399de5"] ;
717 -> 719 ;
720 [label="gini = 0.24\nsamples = 5\nvalue = [1, 6]\nclass = Torque_max", fillcolor="#5aade9"] ;
716 -> 720 ;
721 [label="gini = 0.0\nsamples = 20\nvalue = [0, 38]\nclass = Torque_max", fillcolor="#399de5"] ;
715 -> 721 ;
722 [label="gini = 0.2\nsamples = 7\nvalue = [1, 8]\nclass = Torque_max", fillcolor="#52a9e8"] ;
708 -> 722 ;
723 [label="Angle_min <= 0.0\ngini = 0.24\nsamples = 324\nvalue = [70, 420]\nclass = Torque_max", fillcolor="#5aade9"] ;
703 -> 723 ;
724 [label="Trabajador <= 0.29\ngini = 0.1\nsamples = 180\nvalue = [14, 261]\nclass = Torque_max", fillcolor="#44a2e6"] ;
723 -> 724 ;
725 [label="Angle_max <= 0.03\ngini = 0.12\nsamples = 113\nvalue = [11, 160]\nclass = Torque_max", fillcolor="#47a4e7"] ;
724 -> 725 ;
726 [label="Trabajador <= 0.26\ngini = 0.18\nsamples = 43\nvalue = [7, 61]\nclass = Torque_max", fillcolor="#50a8e8"] ;
725 -> 726 ;
727 [label="Modelo <= 0.14\ngini = 0.14\nsamples = 41\nvalue = [5, 61]\nclass = Torque_max", fillcolor="#49a5e7"] ;
726 -> 727 ;
728 [label="Angle_max <= 0.02\ngini = 0.26\nsamples = 20\nvalue = [5, 28]\nclass = Torque_max", fillcolor="#5caeea"] ;
727 -> 728 ;
729 [label="gini = 0.0\nsamples = 1\nvalue = [0, 1]\nclass = Torque_max", fillcolor="#399de5"] ;
728 -> 729 ;
730 [label="Trabajador <= 0.15\ngini = 0.26\nsamples = 19\nvalue = [5, 27]\nclass = Torque_max", fillcolor="#5eafea"] ;
728 -> 730 ;
731 [label="gini = 0.0\nsamples = 3\nvalue = [0, 6]\nclass = Torque_max", fillcolor="#399de5"] ;
730 -> 731 ;
732 [label="gini = 0.31\nsamples = 16\nvalue = [5, 21]\nclass = Torque_max", fillcolor="#68b4eb"] ;
730 -> 732 ;
733 [label="gini = 0.0\nsamples = 21\nvalue = [0, 33]\nclass = Torque_max", fillcolor="#399de5"] ;
727 -> 733 ;
734 [label="gini = 0.0\nsamples = 2\nvalue = [2, 0]\nclass = Torque_min", fillcolor="#e58139"] ;
726 -> 734 ;
735 [label="Modelo <= 0.16\ngini = 0.07\nsamples = 70\nvalue = [4, 99]\nclass = Torque_max", fillcolor="#41a1e6"] ;
725 -> 735 ;
736 [label="Trabajador <= 0.23\ngini = 0.04\nsamples = 31\nvalue = [1, 49]\nclass = Torque_max", fillcolor="#3d9fe6"] ;
735 -> 736 ;
737 [label="gini = 0.0\nsamples = 7\nvalue = [0, 14]\nclass = Torque_max", fillcolor="#399de5"] ;
736 -> 737 ;
738 [label="Modelo <= 0.15\ngini = 0.05\nsamples = 24\nvalue = [1, 35]\nclass = Torque_max", fillcolor="#3fa0e6"] ;
736 -> 738 ;
739 [label="gini = 0.07\nsamples = 19\nvalue = [1, 26]\nclass = Torque_max", fillcolor="#41a1e6"] ;
738 -> 739 ;
740 [label="gini = 0.0\nsamples = 5\nvalue = [0, 9]\nclass = Torque_max", fillcolor="#399de5"] ;
738 -> 740 ;
741 [label="Trabajador <= 0.13\ngini = 0.11\nsamples = 39\nvalue = [3, 50]\nclass = Torque_max", fillcolor="#45a3e7"] ;
735 -> 741 ;
742 [label="Modelo <= 0.18\ngini = 0.15\nsamples = 28\nvalue = [3, 35]\nclass = Torque_max", fillcolor="#4aa5e7"] ;
741 -> 742 ;
743 [label="gini = 0.19\nsamples = 14\nvalue = [2, 17]\nclass = Torque_max", fillcolor="#50a9e8"] ;
742 -> 743 ;
744 [label="gini = 0.1\nsamples = 14\nvalue = [1, 18]\nclass = Torque_max", fillcolor="#44a2e6"] ;
742 -> 744 ;
745 [label="gini = 0.0\nsamples = 11\nvalue = [0, 15]\nclass = Torque_max", fillcolor="#399de5"] ;
741 -> 745 ;
746 [label="Pset_name_cat <= 0.14\ngini = 0.06\nsamples = 67\nvalue = [3, 101]\nclass = Torque_max", fillcolor="#3fa0e6"] ;
724 -> 746 ;
747 [label="gini = 0.0\nsamples = 28\nvalue = [0, 42]\nclass = Torque_max", fillcolor="#399de5"] ;
746 -> 747 ;
748 [label="Trabajador <= 0.68\ngini = 0.09\nsamples = 39\nvalue = [3, 59]\nclass = Torque_max", fillcolor="#43a2e6"] ;
746 -> 748 ;
749 [label="gini = 0.0\nsamples = 14\nvalue = [0, 21]\nclass = Torque_max", fillcolor="#399de5"] ;
748 -> 749 ;
750 [label="Modelo <= 0.18\ngini = 0.14\nsamples = 25\nvalue = [3, 38]\nclass = Torque_max", fillcolor="#49a5e7"] ;
748 -> 750 ;
751 [label="Trabajador <= 0.75\ngini = 0.19\nsamples = 16\nvalue = [3, 26]\nclass = Torque_max", fillcolor="#50a8e8"] ;
750 -> 751 ;
752 [label="gini = 0.3\nsamples = 5\nvalue = [2, 9]\nclass = Torque_max", fillcolor="#65b3eb"] ;
751 -> 752 ;
753 [label="Angle_max <= 0.02\ngini = 0.1\nsamples = 11\nvalue = [1, 17]\nclass = Torque_max", fillcolor="#45a3e7"] ;
751 -> 753 ;
754 [label="gini = 0.0\nsamples = 5\nvalue = [0, 7]\nclass = Torque_max", fillcolor="#399de5"] ;
753 -> 754 ;
755 [label="gini = 0.17\nsamples = 6\nvalue = [1, 10]\nclass = Torque_max", fillcolor="#4da7e8"] ;
753 -> 755 ;
756 [label="gini = 0.0\nsamples = 9\nvalue = [0, 12]\nclass = Torque_max", fillcolor="#399de5"] ;
750 -> 756 ;
757 [label="Trabajador <= 0.94\ngini = 0.39\nsamples = 144\nvalue = [56, 159]\nclass = Torque_max", fillcolor="#7fc0ee"] ;
723 -> 757 ;
758 [label="Pset_name_cat <= 0.51\ngini = 0.3\nsamples = 120\nvalue = [33, 146]\nclass = Torque_max", fillcolor="#66b3eb"] ;
757 -> 758 ;
759 [label="Modelo <= 0.12\ngini = 0.42\nsamples = 43\nvalue = [18, 43]\nclass = Torque_max", fillcolor="#8cc6f0"] ;
758 -> 759 ;
760 [label="Trabajador <= 0.61\ngini = 0.38\nsamples = 19\nvalue = [7, 21]\nclass = Torque_max", fillcolor="#7bbeee"] ;
759 -> 760 ;
761 [label="gini = 0.0\nsamples = 3\nvalue = [0, 3]\nclass = Torque_max", fillcolor="#399de5"] ;
760 -> 761 ;
762 [label="Pset_name_cat <= 0.23\ngini = 0.4\nsamples = 16\nvalue = [7, 18]\nclass = Torque_max", fillcolor="#86c3ef"] ;
760 -> 762 ;
763 [label="gini = 0.47\nsamples = 13\nvalue = [7, 12]\nclass = Torque_max", fillcolor="#acd6f4"] ;
762 -> 763 ;
764 [label="gini = 0.0\nsamples = 3\nvalue = [0, 6]\nclass = Torque_max", fillcolor="#399de5"] ;
762 -> 764 ;
765 [label="Pset_name_cat <= 0.23\ngini = 0.44\nsamples = 24\nvalue = [11, 22]\nclass = Torque_max", fillcolor="#9ccef2"] ;
759 -> 765 ;
766 [label="Trabajador <= 0.32\ngini = 0.43\nsamples = 16\nvalue = [6, 13]\nclass = Torque_max", fillcolor="#94caf1"] ;
765 -> 766 ;
767 [label="Trabajador <= 0.29\ngini = 0.38\nsamples = 5\nvalue = [6, 2]\nclass = Torque_min", fillcolor="#eeab7b"] ;
766 -> 767 ;
768 [label="gini = 0.0\nsamples = 1\nvalue = [0, 1]\nclass = Torque_max", fillcolor="#399de5"] ;
767 -> 768 ;
769 [label="gini = 0.24\nsamples = 4\nvalue = [6, 1]\nclass = Torque_min", fillcolor="#e9965a"] ;
767 -> 769 ;
770 [label="gini = 0.0\nsamples = 11\nvalue = [0, 11]\nclass = Torque_max", fillcolor="#399de5"] ;
766 -> 770 ;
771 [label="Trabajador <= 0.64\ngini = 0.46\nsamples = 8\nvalue = [5, 9]\nclass = Torque_max", fillcolor="#a7d3f3"] ;
765 -> 771 ;
772 [label="Trabajador <= 0.47\ngini = 0.38\nsamples = 7\nvalue = [3, 9]\nclass = Torque_max", fillcolor="#7bbeee"] ;
771 -> 772 ;
773 [label="Trabajador <= 0.34\ngini = 0.5\nsamples = 4\nvalue = [3, 3]\nclass = Torque_min", fillcolor="#ffffff"] ;
772 -> 773 ;
774 [label="gini = 0.0\nsamples = 1\nvalue = [0, 1]\nclass = Torque_max", fillcolor="#399de5"] ;
773 -> 774 ;
775 [label="gini = 0.48\nsamples = 3\nvalue = [3, 2]\nclass = Torque_min", fillcolor="#f6d5bd"] ;
773 -> 775 ;
776 [label="gini = 0.0\nsamples = 3\nvalue = [0, 6]\nclass = Torque_max", fillcolor="#399de5"] ;
772 -> 776 ;
777 [label="gini = 0.0\nsamples = 1\nvalue = [2, 0]\nclass = Torque_min", fillcolor="#e58139"] ;
771 -> 777 ;
778 [label="Trabajador <= 0.37\ngini = 0.22\nsamples = 77\nvalue = [15, 103]\nclass = Torque_max", fillcolor="#56abe9"] ;
758 -> 778 ;
779 [label="gini = 0.48\nsamples = 9\nvalue = [6, 9]\nclass = Torque_max", fillcolor="#bddef6"] ;
778 -> 779 ;
780 [label="gini = 0.16\nsamples = 68\nvalue = [9, 94]\nclass = Torque_max", fillcolor="#4ca6e7"] ;
778 -> 780 ;
781 [label="Pset_name_cat <= 0.23\ngini = 0.46\nsamples = 24\nvalue = [23, 13]\nclass = Torque_min", fillcolor="#f4c8a9"] ;
757 -> 781 ;
782 [label="Modelo <= 0.12\ngini = 0.35\nsamples = 17\nvalue = [21, 6]\nclass = Torque_min", fillcolor="#eca572"] ;
781 -> 782 ;
783 [label="gini = 0.0\nsamples = 1\nvalue = [3, 0]\nclass = Torque_min", fillcolor="#e58139"] ;
782 -> 783 ;
784 [label="gini = 0.38\nsamples = 16\nvalue = [18, 6]\nclass = Torque_min", fillcolor="#eeab7b"] ;
782 -> 784 ;
785 [label="gini = 0.35\nsamples = 7\nvalue = [2, 7]\nclass = Torque_max", fillcolor="#72b9ec"] ;
781 -> 785 ;
786 [label="Torque_min <= 0.21\ngini = 0.08\nsamples = 1016\nvalue = [67, 1546]\nclass = Torque_max", fillcolor="#42a1e6"] ;
688 -> 786 ;
787 [label="gini = 0.0\nsamples = 50\nvalue = [0, 80]\nclass = Torque_max", fillcolor="#399de5"] ;
786 -> 787 ;
788 [label="Trabajador <= 0.34\ngini = 0.08\nsamples = 966\nvalue = [67, 1466]\nclass = Torque_max", fillcolor="#42a1e6"] ;
786 -> 788 ;
789 [label="Pset_name_cat <= 0.75\ngini = 0.18\nsamples = 114\nvalue = [20, 180]\nclass = Torque_max", fillcolor="#4fa8e8"] ;
788 -> 789 ;
790 [label="Pset_name_cat <= 0.24\ngini = 0.11\nsamples = 83\nvalue = [9, 140]\nclass = Torque_max", fillcolor="#46a3e7"] ;
789 -> 790 ;
791 [label="gini = 0.0\nsamples = 11\nvalue = [0, 17]\nclass = Torque_max", fillcolor="#399de5"] ;
790 -> 791 ;
792 [label="Trabajador <= 0.13\ngini = 0.13\nsamples = 72\nvalue = [9, 123]\nclass = Torque_max", fillcolor="#47a4e7"] ;
790 -> 792 ;
793 [label="gini = 0.0\nsamples = 13\nvalue = [0, 21]\nclass = Torque_max", fillcolor="#399de5"] ;
792 -> 793 ;
794 [label="Pset_name_cat <= 0.65\ngini = 0.15\nsamples = 59\nvalue = [9, 102]\nclass = Torque_max", fillcolor="#4aa6e7"] ;
792 -> 794 ;
795 [label="Angle_max <= 0.11\ngini = 0.16\nsamples = 54\nvalue = [9, 91]\nclass = Torque_max", fillcolor="#4da7e8"] ;
794 -> 795 ;
796 [label="Trabajador <= 0.22\ngini = 0.16\nsamples = 35\nvalue = [6, 63]\nclass = Torque_max", fillcolor="#4ca6e7"] ;
795 -> 796 ;
797 [label="gini = 0.47\nsamples = 4\nvalue = [3, 5]\nclass = Torque_max", fillcolor="#b0d8f5"] ;
796 -> 797 ;
798 [label="Trabajador <= 0.25\ngini = 0.09\nsamples = 31\nvalue = [3, 58]\nclass = Torque_max", fillcolor="#43a2e6"] ;
796 -> 798 ;
799 [label="gini = 0.15\nsamples = 13\nvalue = [2, 22]\nclass = Torque_max", fillcolor="#4ba6e7"] ;
798 -> 799 ;
800 [label="Trabajador <= 0.26\ngini = 0.05\nsamples = 18\nvalue = [1, 36]\nclass = Torque_max", fillcolor="#3ea0e6"] ;
798 -> 800 ;
801 [label="Modelo <= 0.15\ngini = 0.07\nsamples = 14\nvalue = [1, 27]\nclass = Torque_max", fillcolor="#40a1e6"] ;
800 -> 801 ;
802 [label="gini = 0.08\nsamples = 13\nvalue = [1, 24]\nclass = Torque_max", fillcolor="#41a1e6"] ;
801 -> 802 ;
803 [label="gini = 0.0\nsamples = 1\nvalue = [0, 3]\nclass = Torque_max", fillcolor="#399de5"] ;
801 -> 803 ;
804 [label="gini = 0.0\nsamples = 4\nvalue = [0, 9]\nclass = Torque_max", fillcolor="#399de5"] ;
800 -> 804 ;
805 [label="Trabajador <= 0.25\ngini = 0.17\nsamples = 19\nvalue = [3, 28]\nclass = Torque_max", fillcolor="#4ea8e8"] ;
795 -> 805 ;
806 [label="gini = 0.0\nsamples = 16\nvalue = [0, 26]\nclass = Torque_max", fillcolor="#399de5"] ;
805 -> 806 ;
807 [label="gini = 0.48\nsamples = 3\nvalue = [3, 2]\nclass = Torque_min", fillcolor="#f6d5bd"] ;
805 -> 807 ;
808 [label="gini = 0.0\nsamples = 5\nvalue = [0, 11]\nclass = Torque_max", fillcolor="#399de5"] ;
794 -> 808 ;
809 [label="Angle_min <= 0.0\ngini = 0.34\nsamples = 31\nvalue = [11, 40]\nclass = Torque_max", fillcolor="#6fb8ec"] ;
789 -> 809 ;
810 [label="gini = 0.0\nsamples = 9\nvalue = [0, 12]\nclass = Torque_max", fillcolor="#399de5"] ;
809 -> 810 ;
811 [label="Trabajador <= 0.29\ngini = 0.4\nsamples = 22\nvalue = [11, 28]\nclass = Torque_max", fillcolor="#87c4ef"] ;
809 -> 811 ;
812 [label="gini = 0.0\nsamples = 6\nvalue = [0, 12]\nclass = Torque_max", fillcolor="#399de5"] ;
811 -> 812 ;
813 [label="Pset_name_cat <= 0.82\ngini = 0.48\nsamples = 16\nvalue = [11, 16]\nclass = Torque_max", fillcolor="#c1e0f7"] ;
811 -> 813 ;
814 [label="Trabajador <= 0.32\ngini = 0.48\nsamples = 10\nvalue = [8, 12]\nclass = Torque_max", fillcolor="#bddef6"] ;
813 -> 814 ;
815 [label="gini = 0.49\nsamples = 7\nvalue = [8, 6]\nclass = Torque_min", fillcolor="#f8e0ce"] ;
814 -> 815 ;
816 [label="gini = 0.0\nsamples = 3\nvalue = [0, 6]\nclass = Torque_max", fillcolor="#399de5"] ;
814 -> 816 ;
817 [label="Trabajador <= 0.32\ngini = 0.49\nsamples = 6\nvalue = [3, 4]\nclass = Torque_max", fillcolor="#cee6f8"] ;
813 -> 817 ;
818 [label="gini = 0.38\nsamples = 4\nvalue = [1, 3]\nclass = Torque_max", fillcolor="#7bbeee"] ;
817 -> 818 ;
