digraph Tree {
node [shape=box, style="filled, rounded", color="black", fontname=helvetica] ;
edge [fontname=helvetica] ;
0 [label="Angle_min <= 0.0\ngini = 0.11\nsamples = 86496\nvalue = [8360, 128568]\nclass = Torque_max", fillcolor="#46a3e7"] ;
1 [label="Torque_min <= 0.06\ngini = 0.08\nsamples = 67052\nvalue = [4455, 101448]\nclass = Torque_max", fillcolor="#42a1e6"] ;
0 -> 1 [labeldistance=2.5, labelangle=45, headlabel="True"] ;
2 [label="Modelo <= 0.11\ngini = 0.39\nsamples = 836\nvalue = [342, 955]\nclass = Torque_max", fillcolor="#80c0ee"] ;
1 -> 2 ;
3 [label="Modelo <= 0.04\ngini = 0.07\nsamples = 469\nvalue = [28, 703]\nclass = Torque_max", fillcolor="#41a1e6"] ;
2 -> 3 ;
4 [label="gini = 0.0\nsamples = 17\nvalue = [24, 0]\nclass = Torque_min", fillcolor="#e58139"] ;
3 -> 4 ;
5 [label="Trabajador <= 0.4\ngini = 0.01\nsamples = 452\nvalue = [4, 703]\nclass = Torque_max", fillcolor="#3a9ee5"] ;
3 -> 5 ;
6 [label="Modelo <= 0.08\ngini = 0.24\nsamples = 5\nvalue = [1, 6]\nclass = Torque_max", fillcolor="#5aade9"] ;
5 -> 6 ;
7 [label="gini = 0.38\nsamples = 3\nvalue = [1, 3]\nclass = Torque_max", fillcolor="#7bbeee"] ;
6 -> 7 ;
8 [label="gini = 0.0\nsamples = 2\nvalue = [0, 3]\nclass = Torque_max", fillcolor="#399de5"] ;
6 -> 8 ;
9 [label="Trabajador <= 0.57\ngini = 0.01\nsamples = 447\nvalue = [3, 697]\nclass = Torque_max", fillcolor="#3a9de5"] ;
5 -> 9 ;
10 [label="Modelo <= 0.08\ngini = 0.02\nsamples = 216\nvalue = [3, 342]\nclass = Torque_max", fillcolor="#3b9ee5"] ;
9 -> 10 ;
11 [label="gini = 0.0\nsamples = 42\nvalue = [0, 64]\nclass = Torque_max", fillcolor="#399de5"] ;
10 -> 11 ;
12 [label="Trabajador <= 0.53\ngini = 0.02\nsamples = 174\nvalue = [3, 278]\nclass = Torque_max", fillcolor="#3b9ee5"] ;
10 -> 12 ;
13 [label="gini = 0.0\nsamples = 45\nvalue = [0, 75]\nclass = Torque_max", fillcolor="#399de5"] ;
12 -> 13 ;
14 [label="gini = 0.03\nsamples = 129\nvalue = [3, 203]\nclass = Torque_max", fillcolor="#3c9ee5"] ;
12 -> 14 ;
15 [label="gini = 0.0\nsamples = 231\nvalue = [0, 355]\nclass = Torque_max", fillcolor="#399de5"] ;
9 -> 15 ;
16 [label="Torque_max <= 0.04\ngini = 0.49\nsamples = 367\nvalue = [314, 252]\nclass = Torque_min", fillcolor="#fae6d8"] ;
2 -> 16 ;
17 [label="Modelo <= 0.32\ngini = 0.11\nsamples = 171\nvalue = [16, 252]\nclass = Torque_max", fillcolor="#46a3e7"] ;
16 -> 17 ;
18 [label="Trabajador <= 0.51\ngini = 0.23\nsamples = 25\nvalue = [5, 33]\nclass = Torque_max", fillcolor="#57ace9"] ;
17 -> 18 ;
19 [label="gini = 0.0\nsamples = 4\nvalue = [0, 4]\nclass = Torque_max", fillcolor="#399de5"] ;
18 -> 19 ;
20 [label="Trabajador <= 0.72\ngini = 0.25\nsamples = 21\nvalue = [5, 29]\nclass = Torque_max", fillcolor="#5baee9"] ;
18 -> 20 ;
21 [label="gini = 0.36\nsamples = 8\nvalue = [3, 10]\nclass = Torque_max", fillcolor="#74baed"] ;
20 -> 21 ;
22 [label="gini = 0.17\nsamples = 13\nvalue = [2, 19]\nclass = Torque_max", fillcolor="#4ea7e8"] ;
20 -> 22 ;
23 [label="Angle_max <= 0.53\ngini = 0.09\nsamples = 146\nvalue = [11, 219]\nclass = Torque_max", fillcolor="#43a2e6"] ;
17 -> 23 ;
24 [label="Modelo <= 0.34\ngini = 0.06\nsamples = 93\nvalue = [4, 131]\nclass = Torque_max", fillcolor="#3fa0e6"] ;
23 -> 24 ;
25 [label="Trabajador <= 0.36\ngini = 0.1\nsamples = 35\nvalue = [3, 52]\nclass = Torque_max", fillcolor="#44a3e6"] ;
24 -> 25 ;
26 [label="Modelo <= 0.34\ngini = 0.06\nsamples = 22\nvalue = [1, 33]\nclass = Torque_max", fillcolor="#3fa0e6"] ;
25 -> 26 ;
27 [label="gini = 0.0\nsamples = 8\nvalue = [0, 11]\nclass = Torque_max", fillcolor="#399de5"] ;
26 -> 27 ;
28 [label="gini = 0.08\nsamples = 14\nvalue = [1, 22]\nclass = Torque_max", fillcolor="#42a1e6"] ;
26 -> 28 ;
29 [label="gini = 0.17\nsamples = 13\nvalue = [2, 19]\nclass = Torque_max", fillcolor="#4ea7e8"] ;
25 -> 29 ;
30 [label="Trabajador <= 0.02\ngini = 0.02\nsamples = 58\nvalue = [1, 79]\nclass = Torque_max", fillcolor="#3c9ee5"] ;
24 -> 30 ;
31 [label="gini = 0.0\nsamples = 6\nvalue = [0, 7]\nclass = Torque_max", fillcolor="#399de5"] ;
30 -> 31 ;
32 [label="Trabajador <= 0.05\ngini = 0.03\nsamples = 52\nvalue = [1, 72]\nclass = Torque_max", fillcolor="#3c9ee5"] ;
30 -> 32 ;
33 [label="Modelo <= 0.35\ngini = 0.03\nsamples = 51\nvalue = [1, 71]\nclass = Torque_max", fillcolor="#3c9ee5"] ;
32 -> 33 ;
34 [label="gini = 0.0\nsamples = 21\nvalue = [0, 31]\nclass = Torque_max", fillcolor="#399de5"] ;
33 -> 34 ;
35 [label="Modelo <= 0.36\ngini = 0.05\nsamples = 30\nvalue = [1, 40]\nclass = Torque_max", fillcolor="#3e9fe6"] ;
33 -> 35 ;
36 [label="gini = 0.06\nsamples = 21\nvalue = [1, 30]\nclass = Torque_max", fillcolor="#40a0e6"] ;
35 -> 36 ;
37 [label="gini = 0.0\nsamples = 9\nvalue = [0, 10]\nclass = Torque_max", fillcolor="#399de5"] ;
35 -> 37 ;
38 [label="gini = 0.0\nsamples = 1\nvalue = [0, 1]\nclass = Torque_max", fillcolor="#399de5"] ;
32 -> 38 ;
39 [label="Trabajador <= 0.75\ngini = 0.14\nsamples = 53\nvalue = [7, 88]\nclass = Torque_max", fillcolor="#49a5e7"] ;
23 -> 39 ;
40 [label="Trabajador <= 0.59\ngini = 0.16\nsamples = 34\nvalue = [5, 53]\nclass = Torque_max", fillcolor="#4ca6e7"] ;
39 -> 40 ;
41 [label="gini = 0.15\nsamples = 13\nvalue = [2, 22]\nclass = Torque_max", fillcolor="#4ba6e7"] ;
40 -> 41 ;
42 [label="gini = 0.16\nsamples = 21\nvalue = [3, 31]\nclass = Torque_max", fillcolor="#4ca6e8"] ;
40 -> 42 ;
43 [label="gini = 0.1\nsamples = 19\nvalue = [2, 35]\nclass = Torque_max", fillcolor="#44a3e6"] ;
39 -> 43 ;
44 [label="gini = 0.0\nsamples = 196\nvalue = [298, 0]\nclass = Torque_min", fillcolor="#e58139"] ;
16 -> 44 ;
45 [label="Pset_name_cat <= 0.06\ngini = 0.08\nsamples = 66216\nvalue = [4113, 100493]\nclass = Torque_max", fillcolor="#41a1e6"] ;
1 -> 45 ;
46 [label="Torque_max <= 0.25\ngini = 0.21\nsamples = 3945\nvalue = [721, 5450]\nclass = Torque_max", fillcolor="#53aae8"] ;
45 -> 46 ;
47 [label="Angle_max <= 0.51\ngini = 0.01\nsamples = 2061\nvalue = [22, 3194]\nclass = Torque_max", fillcolor="#3a9ee5"] ;
46 -> 47 ;
48 [label="Modelo <= 0.41\ngini = 0.01\nsamples = 2037\nvalue = [18, 3165]\nclass = Torque_max", fillcolor="#3a9ee5"] ;
47 -> 48 ;
49 [label="Trabajador <= 0.96\ngini = 0.01\nsamples = 2022\nvalue = [16, 3137]\nclass = Torque_max", fillcolor="#3a9de5"] ;
48 -> 49 ;
50 [label="Modelo <= 0.33\ngini = 0.01\nsamples = 2020\nvalue = [14, 3137]\nclass = Torque_max", fillcolor="#3a9de5"] ;
49 -> 50 ;
51 [label="Trabajador <= 0.64\ngini = 0.01\nsamples = 1624\nvalue = [7, 2522]\nclass = Torque_max", fillcolor="#3a9de5"] ;
50 -> 51 ;
52 [label="gini = 0.0\nsamples = 827\nvalue = [0, 1286]\nclass = Torque_max", fillcolor="#399de5"] ;
51 -> 52 ;
53 [label="Modelo <= 0.14\ngini = 0.01\nsamples = 797\nvalue = [7, 1236]\nclass = Torque_max", fillcolor="#3a9ee5"] ;
51 -> 53 ;
54 [label="Trabajador <= 0.72\ngini = 0.03\nsamples = 93\nvalue = [2, 133]\nclass = Torque_max", fillcolor="#3c9ee5"] ;
53 -> 54 ;
55 [label="gini = 0.0\nsamples = 36\nvalue = [0, 59]\nclass = Torque_max", fillcolor="#399de5"] ;
54 -> 55 ;
56 [label="Modelo <= 0.13\ngini = 0.05\nsamples = 57\nvalue = [2, 74]\nclass = Torque_max", fillcolor="#3ea0e6"] ;
54 -> 56 ;
57 [label="gini = 0.0\nsamples = 52\nvalue = [0, 70]\nclass = Torque_max", fillcolor="#399de5"] ;
56 -> 57 ;
58 [label="Trabajador <= 0.83\ngini = 0.44\nsamples = 5\nvalue = [2, 4]\nclass = Torque_max", fillcolor="#9ccef2"] ;
56 -> 58 ;
59 [label="gini = 0.0\nsamples = 1\nvalue = [2, 0]\nclass = Torque_min", fillcolor="#e58139"] ;
58 -> 59 ;
60 [label="gini = 0.0\nsamples = 4\nvalue = [0, 4]\nclass = Torque_max", fillcolor="#399de5"] ;
58 -> 60 ;
61 [label="Trabajador <= 0.66\ngini = 0.01\nsamples = 704\nvalue = [5, 1103]\nclass = Torque_max", fillcolor="#3a9de5"] ;
53 -> 61 ;
62 [label="Trabajador <= 0.65\ngini = 0.02\nsamples = 233\nvalue = [4, 354]\nclass = Torque_max", fillcolor="#3b9ee5"] ;
61 -> 62 ;
63 [label="Modelo <= 0.28\ngini = 0.01\nsamples = 216\nvalue = [2, 320]\nclass = Torque_max", fillcolor="#3a9ee5"] ;
62 -> 63 ;
64 [label="gini = 0.0\nsamples = 132\nvalue = [0, 190]\nclass = Torque_max", fillcolor="#399de5"] ;
63 -> 64 ;
65 [label="Modelo <= 0.28\ngini = 0.03\nsamples = 84\nvalue = [2, 130]\nclass = Torque_max", fillcolor="#3c9fe5"] ;
63 -> 65 ;
66 [label="gini = 0.35\nsamples = 5\nvalue = [2, 7]\nclass = Torque_max", fillcolor="#72b9ec"] ;
65 -> 66 ;
67 [label="gini = 0.0\nsamples = 79\nvalue = [0, 123]\nclass = Torque_max", fillcolor="#399de5"] ;
65 -> 67 ;
68 [label="Modelo <= 0.28\ngini = 0.1\nsamples = 17\nvalue = [2, 34]\nclass = Torque_max", fillcolor="#45a3e7"] ;
62 -> 68 ;
69 [label="gini = 0.13\nsamples = 13\nvalue = [2, 27]\nclass = Torque_max", fillcolor="#48a4e7"] ;
68 -> 69 ;
70 [label="gini = 0.0\nsamples = 4\nvalue = [0, 7]\nclass = Torque_max", fillcolor="#399de5"] ;
68 -> 70 ;
71 [label="Trabajador <= 0.86\ngini = 0.0\nsamples = 471\nvalue = [1, 749]\nclass = Torque_max", fillcolor="#399de5"] ;
61 -> 71 ;
72 [label="gini = 0.0\nsamples = 184\nvalue = [0, 281]\nclass = Torque_max", fillcolor="#399de5"] ;
71 -> 72 ;
73 [label="Modelo <= 0.31\ngini = 0.0\nsamples = 287\nvalue = [1, 468]\nclass = Torque_max", fillcolor="#399de5"] ;
71 -> 73 ;
74 [label="gini = 0.0\nsamples = 239\nvalue = [0, 393]\nclass = Torque_max", fillcolor="#399de5"] ;
73 -> 74 ;
75 [label="Modelo <= 0.32\ngini = 0.03\nsamples = 48\nvalue = [1, 75]\nclass = Torque_max", fillcolor="#3c9ee5"] ;
73 -> 75 ;
76 [label="gini = 0.09\nsamples = 13\nvalue = [1, 20]\nclass = Torque_max", fillcolor="#43a2e6"] ;
75 -> 76 ;
77 [label="gini = 0.0\nsamples = 35\nvalue = [0, 55]\nclass = Torque_max", fillcolor="#399de5"] ;
75 -> 77 ;
78 [label="Modelo <= 0.35\ngini = 0.02\nsamples = 396\nvalue = [7, 615]\nclass = Torque_max", fillcolor="#3b9ee5"] ;
50 -> 78 ;
79 [label="Modelo <= 0.35\ngini = 0.05\nsamples = 160\nvalue = [6, 248]\nclass = Torque_max", fillcolor="#3e9fe6"] ;
78 -> 79 ;
80 [label="Trabajador <= 0.23\ngini = 0.02\nsamples = 109\nvalue = [2, 181]\nclass = Torque_max", fillcolor="#3b9ee5"] ;
79 -> 80 ;
81 [label="gini = 0.08\nsamples = 15\nvalue = [1, 24]\nclass = Torque_max", fillcolor="#41a1e6"] ;
80 -> 81 ;
82 [label="Modelo <= 0.34\ngini = 0.01\nsamples = 94\nvalue = [1, 157]\nclass = Torque_max", fillcolor="#3a9ee5"] ;
80 -> 82 ;
83 [label="Trabajador <= 0.55\ngini = 0.03\nsamples = 41\nvalue = [1, 65]\nclass = Torque_max", fillcolor="#3c9fe5"] ;
82 -> 83 ;
84 [label="gini = 0.0\nsamples = 10\nvalue = [0, 15]\nclass = Torque_max", fillcolor="#399de5"] ;
83 -> 84 ;
85 [label="gini = 0.04\nsamples = 31\nvalue = [1, 50]\nclass = Torque_max", fillcolor="#3d9fe6"] ;
83 -> 85 ;
86 [label="gini = 0.0\nsamples = 53\nvalue = [0, 92]\nclass = Torque_max", fillcolor="#399de5"] ;
82 -> 86 ;
87 [label="Trabajador <= 0.72\ngini = 0.11\nsamples = 51\nvalue = [4, 67]\nclass = Torque_max", fillcolor="#45a3e7"] ;
79 -> 87 ;
88 [label="gini = 0.0\nsamples = 28\nvalue = [0, 38]\nclass = Torque_max", fillcolor="#399de5"] ;
87 -> 88 ;
89 [label="gini = 0.21\nsamples = 23\nvalue = [4, 29]\nclass = Torque_max", fillcolor="#54abe9"] ;
87 -> 89 ;
90 [label="Trabajador <= 0.19\ngini = 0.01\nsamples = 236\nvalue = [1, 367]\nclass = Torque_max", fillcolor="#3a9de5"] ;
78 -> 90 ;
91 [label="Modelo <= 0.36\ngini = 0.1\nsamples = 13\nvalue = [1, 17]\nclass = Torque_max", fillcolor="#45a3e7"] ;
90 -> 91 ;
92 [label="gini = 0.2\nsamples = 7\nvalue = [1, 8]\nclass = Torque_max", fillcolor="#52a9e8"] ;
91 -> 92 ;
93 [label="gini = 0.0\nsamples = 6\nvalue = [0, 9]\nclass = Torque_max", fillcolor="#399de5"] ;
91 -> 93 ;
94 [label="gini = 0.0\nsamples = 223\nvalue = [0, 350]\nclass = Torque_max", fillcolor="#399de5"] ;
90 -> 94 ;
95 [label="gini = 0.0\nsamples = 2\nvalue = [2, 0]\nclass = Torque_min", fillcolor="#e58139"] ;
49 -> 95 ;
96 [label="Trabajador <= 0.36\ngini = 0.12\nsamples = 15\nvalue = [2, 28]\nclass = Torque_max", fillcolor="#47a4e7"] ;
48 -> 96 ;
97 [label="gini = 0.3\nsamples = 6\nvalue = [2, 9]\nclass = Torque_max", fillcolor="#65b3eb"] ;
96 -> 97 ;
98 [label="gini = 0.0\nsamples = 9\nvalue = [0, 19]\nclass = Torque_max", fillcolor="#399de5"] ;
96 -> 98 ;
99 [label="gini = 0.21\nsamples = 24\nvalue = [4, 29]\nclass = Torque_max", fillcolor="#54abe9"] ;
47 -> 99 ;
100 [label="Angle_max <= 0.41\ngini = 0.36\nsamples = 1884\nvalue = [699, 2256]\nclass = Torque_max", fillcolor="#76bbed"] ;
46 -> 100 ;
101 [label="Modelo <= 0.54\ngini = 0.4\nsamples = 1581\nvalue = [679, 1807]\nclass = Torque_max", fillcolor="#83c2ef"] ;
100 -> 101 ;
102 [label="Modelo <= 0.53\ngini = 0.38\nsamples = 947\nvalue = [382, 1118]\nclass = Torque_max", fillcolor="#7dbeee"] ;
101 -> 102 ;
103 [label="Trabajador <= 0.72\ngini = 0.39\nsamples = 890\nvalue = [368, 1036]\nclass = Torque_max", fillcolor="#7fc0ee"] ;
102 -> 103 ;
104 [label="Trabajador <= 0.25\ngini = 0.44\nsamples = 591\nvalue = [314, 629]\nclass = Torque_max", fillcolor="#9ccef2"] ;
103 -> 104 ;
105 [label="Trabajador <= 0.07\ngini = 0.47\nsamples = 338\nvalue = [203, 338]\nclass = Torque_max", fillcolor="#b0d8f5"] ;
104 -> 105 ;
106 [label="gini = 0.32\nsamples = 7\nvalue = [2, 8]\nclass = Torque_max", fillcolor="#6ab6ec"] ;
105 -> 106 ;
107 [label="Trabajador <= 0.15\ngini = 0.47\nsamples = 331\nvalue = [201, 330]\nclass = Torque_max", fillcolor="#b2d9f5"] ;
105 -> 107 ;
108 [label="Trabajador <= 0.1\ngini = 0.47\nsamples = 267\nvalue = [162, 270]\nclass = Torque_max", fillcolor="#b0d8f5"] ;
107 -> 108 ;
109 [label="Modelo <= 0.25\ngini = 0.47\nsamples = 266\nvalue = [162, 268]\nclass = Torque_max", fillcolor="#b1d8f5"] ;
108 -> 109 ;
110 [label="gini = 0.24\nsamples = 14\nvalue = [3, 18]\nclass = Torque_max", fillcolor="#5aade9"] ;
109 -> 110 ;
111 [label="Modelo <= 0.36\ngini = 0.48\nsamples = 252\nvalue = [159, 250]\nclass = Torque_max", fillcolor="#b7dbf6"] ;
109 -> 111 ;
112 [label="gini = 0.49\nsamples = 13\nvalue = [9, 12]\nclass = Torque_max", fillcolor="#cee6f8"] ;
111 -> 112 ;
113 [label="Modelo <= 0.45\ngini = 0.47\nsamples = 239\nvalue = [150, 238]\nclass = Torque_max", fillcolor="#b6dbf5"] ;
111 -> 113 ;
114 [label="gini = 0.47\nsamples = 203\nvalue = [127, 204]\nclass = Torque_max", fillcolor="#b4daf5"] ;
113 -> 114 ;
115 [label="gini = 0.48\nsamples = 36\nvalue = [23, 34]\nclass = Torque_max", fillcolor="#bfdff7"] ;
113 -> 115 ;
116 [label="gini = 0.0\nsamples = 1\nvalue = [0, 2]\nclass = Torque_max", fillcolor="#399de5"] ;
108 -> 116 ;
117 [label="Trabajador <= 0.18\ngini = 0.48\nsamples = 64\nvalue = [39, 60]\nclass = Torque_max", fillcolor="#baddf6"] ;
107 -> 117 ;
118 [label="gini = 0.5\nsamples = 12\nvalue = [9, 9]\nclass = Torque_min", fillcolor="#ffffff"] ;
117 -> 118 ;
119 [label="gini = 0.47\nsamples = 52\nvalue = [30, 51]\nclass = Torque_max", fillcolor="#add7f4"] ;
117 -> 119 ;
120 [label="Trabajador <= 0.39\ngini = 0.4\nsamples = 253\nvalue = [111, 291]\nclass = Torque_max", fillcolor="#85c2ef"] ;
104 -> 120 ;
121 [label="Modelo <= 0.5\ngini = 0.19\nsamples = 95\nvalue = [15, 127]\nclass = Torque_max", fillcolor="#50a9e8"] ;
120 -> 121 ;
122 [label="Modelo <= 0.42\ngini = 0.17\nsamples = 90\nvalue = [13, 123]\nclass = Torque_max", fillcolor="#4ea7e8"] ;
121 -> 122 ;
123 [label="Modelo <= 0.26\ngini = 0.18\nsamples = 83\nvalue = [13, 114]\nclass = Torque_max", fillcolor="#50a8e8"] ;
122 -> 123 ;
124 [label="gini = 0.0\nsamples = 5\nvalue = [0, 7]\nclass = Torque_max", fillcolor="#399de5"] ;
123 -> 124 ;
125 [label="gini = 0.19\nsamples = 78\nvalue = [13, 107]\nclass = Torque_max", fillcolor="#51a9e8"] ;
123 -> 125 ;
126 [label="gini = 0.0\nsamples = 7\nvalue = [0, 9]\nclass = Torque_max", fillcolor="#399de5"] ;
122 -> 126 ;
127 [label="gini = 0.44\nsamples = 5\nvalue = [2, 4]\nclass = Torque_max", fillcolor="#9ccef2"] ;
121 -> 127 ;
128 [label="Trabajador <= 0.59\ngini = 0.47\nsamples = 158\nvalue = [96, 164]\nclass = Torque_max", fillcolor="#add6f4"] ;
120 -> 128 ;
129 [label="Trabajador <= 0.5\ngini = 0.46\nsamples = 116\nvalue = [71, 125]\nclass = Torque_max", fillcolor="#a9d5f4"] ;
128 -> 129 ;
130 [label="Modelo <= 0.26\ngini = 0.47\nsamples = 110\nvalue = [70, 118]\nclass = Torque_max", fillcolor="#aed7f4"] ;
129 -> 130 ;
131 [label="gini = 0.43\nsamples = 22\nvalue = [13, 29]\nclass = Torque_max", fillcolor="#92c9f1"] ;
130 -> 131 ;
132 [label="gini = 0.48\nsamples = 88\nvalue = [57, 89]\nclass = Torque_max", fillcolor="#b8dcf6"] ;
130 -> 132 ;
133 [label="gini = 0.22\nsamples = 6\nvalue = [1, 7]\nclass = Torque_max", fillcolor="#55abe9"] ;
129 -> 133 ;
134 [label="gini = 0.48\nsamples = 42\nvalue = [25, 39]\nclass = Torque_max", fillcolor="#b8dcf6"] ;
128 -> 134 ;
135 [label="Modelo <= 0.42\ngini = 0.21\nsamples = 299\nvalue = [54, 407]\nclass = Torque_max", fillcolor="#53aae8"] ;
103 -> 135 ;
136 [label="Trabajador <= 0.86\ngini = 0.22\nsamples = 267\nvalue = [53, 363]\nclass = Torque_max", fillcolor="#56abe9"] ;
135 -> 136 ;
137 [label="Modelo <= 0.26\ngini = 0.26\nsamples = 233\nvalue = [53, 300]\nclass = Torque_max", fillcolor="#5caeea"] ;
136 -> 137 ;
138 [label="gini = 0.0\nsamples = 5\nvalue = [0, 6]\nclass = Torque_max", fillcolor="#399de5"] ;
137 -> 138 ;
139 [label="gini = 0.26\nsamples = 228\nvalue = [53, 294]\nclass = Torque_max", fillcolor="#5dafea"] ;
137 -> 139 ;
140 [label="gini = 0.0\nsamples = 34\nvalue = [0, 63]\nclass = Torque_max", fillcolor="#399de5"] ;
136 -> 140 ;
141 [label="Modelo <= 0.5\ngini = 0.04\nsamples = 32\nvalue = [1, 44]\nclass = Torque_max", fillcolor="#3d9fe6"] ;
135 -> 141 ;
142 [label="Trabajador <= 0.82\ngini = 0.1\nsamples = 14\nvalue = [1, 17]\nclass = Torque_max", fillcolor="#45a3e7"] ;
141 -> 142 ;
143 [label="gini = 0.0\nsamples = 7\nvalue = [0, 11]\nclass = Torque_max", fillcolor="#399de5"] ;
142 -> 143 ;
144 [label="gini = 0.24\nsamples = 7\nvalue = [1, 6]\nclass = Torque_max", fillcolor="#5aade9"] ;
142 -> 144 ;
145 [label="gini = 0.0\nsamples = 18\nvalue = [0, 27]\nclass = Torque_max", fillcolor="#399de5"] ;
141 -> 145 ;
146 [label="Trabajador <= 0.19\ngini = 0.25\nsamples = 57\nvalue = [14, 82]\nclass = Torque_max", fillcolor="#5baee9"] ;
102 -> 146 ;
147 [label="gini = 0.47\nsamples = 12\nvalue = [9, 15]\nclass = Torque_max", fillcolor="#b0d8f5"] ;
146 -> 147 ;
148 [label="Trabajador <= 0.71\ngini = 0.13\nsamples = 45\nvalue = [5, 67]\nclass = Torque_max", fillcolor="#48a4e7"] ;
146 -> 148 ;
149 [label="Modelo <= 0.54\ngini = 0.12\nsamples = 37\nvalue = [4, 58]\nclass = Torque_max", fillcolor="#47a4e7"] ;
148 -> 149 ;
150 [label="gini = 0.12\nsamples = 35\nvalue = [4, 56]\nclass = Torque_max", fillcolor="#47a4e7"] ;
149 -> 150 ;
151 [label="gini = 0.0\nsamples = 2\nvalue = [0, 2]\nclass = Torque_max", fillcolor="#399de5"] ;
149 -> 151 ;
152 [label="gini = 0.18\nsamples = 8\nvalue = [1, 9]\nclass = Torque_max", fillcolor="#4fa8e8"] ;
148 -> 152 ;
153 [label="Trabajador <= 0.24\ngini = 0.42\nsamples = 634\nvalue = [297, 689]\nclass = Torque_max", fillcolor="#8ec7f0"] ;
101 -> 153 ;
154 [label="Modelo <= 0.6\ngini = 0.48\nsamples = 366\nvalue = [224, 329]\nclass = Torque_max", fillcolor="#c0e0f7"] ;
153 -> 154 ;
155 [label="Modelo <= 0.55\ngini = 0.49\nsamples = 224\nvalue = [154, 193]\nclass = Torque_max", fillcolor="#d7ebfa"] ;
154 -> 155 ;
156 [label="gini = 0.49\nsamples = 167\nvalue = [109, 148]\nclass = Torque_max", fillcolor="#cbe5f8"] ;
155 -> 156 ;
157 [label="Trabajador <= 0.11\ngini = 0.5\nsamples = 57\nvalue = [45, 45]\nclass = Torque_min", fillcolor="#ffffff"] ;
155 -> 157 ;
158 [label="gini = 0.47\nsamples = 45\nvalue = [26, 43]\nclass = Torque_max", fillcolor="#b1d8f5"] ;
157 -> 158 ;
159 [label="gini = 0.17\nsamples = 12\nvalue = [19, 2]\nclass = Torque_min", fillcolor="#e88e4e"] ;
157 -> 159 ;
160 [label="Modelo <= 0.69\ngini = 0.45\nsamples = 142\nvalue = [70, 136]\nclass = Torque_max", fillcolor="#9fcff2"] ;
154 -> 160 ;
161 [label="Trabajador <= 0.13\ngini = 0.42\nsamples = 123\nvalue = [52, 123]\nclass = Torque_max", fillcolor="#8dc6f0"] ;
160 -> 161 ;
162 [label="Modelo <= 0.66\ngini = 0.42\nsamples = 117\nvalue = [50, 117]\nclass = Torque_max", fillcolor="#8ec7f0"] ;
161 -> 162 ;
163 [label="gini = 0.43\nsamples = 64\nvalue = [28, 62]\nclass = Torque_max", fillcolor="#92c9f1"] ;
162 -> 163 ;
164 [label="gini = 0.41\nsamples = 53\nvalue = [22, 55]\nclass = Torque_max", fillcolor="#88c4ef"] ;
162 -> 164 ;
165 [label="gini = 0.38\nsamples = 6\nvalue = [2, 6]\nclass = Torque_max", fillcolor="#7bbeee"] ;
161 -> 165 ;
166 [label="Modelo <= 0.71\ngini = 0.49\nsamples = 19\nvalue = [18, 13]\nclass = Torque_min", fillcolor="#f8dcc8"] ;
160 -> 166 ;
167 [label="gini = 0.41\nsamples = 4\nvalue = [5, 2]\nclass = Torque_min", fillcolor="#efb388"] ;
166 -> 167 ;
168 [label="Trabajador <= 0.13\ngini = 0.5\nsamples = 15\nvalue = [13, 11]\nclass = Torque_min", fillcolor="#fbece1"] ;
166 -> 168 ;
169 [label="gini = 0.44\nsamples = 4\nvalue = [3, 6]\nclass = Torque_max", fillcolor="#9ccef2"] ;
168 -> 169 ;
170 [label="gini = 0.44\nsamples = 11\nvalue = [10, 5]\nclass = Torque_min", fillcolor="#f2c09c"] ;
168 -> 170 ;
171 [label="Trabajador <= 0.6\ngini = 0.28\nsamples = 268\nvalue = [73, 360]\nclass = Torque_max", fillcolor="#61b1ea"] ;
153 -> 171 ;
172 [label="Trabajador <= 0.39\ngini = 0.35\nsamples = 182\nvalue = [67, 234]\nclass = Torque_max", fillcolor="#72b9ec"] ;
171 -> 172 ;
173 [label="Trabajador <= 0.31\ngini = 0.15\nsamples = 104\nvalue = [14, 160]\nclass = Torque_max", fillcolor="#4aa6e7"] ;
172 -> 173 ;
174 [label="gini = 0.16\nsamples = 61\nvalue = [8, 86]\nclass = Torque_max", fillcolor="#4ba6e7"] ;
173 -> 174 ;
175 [label="gini = 0.14\nsamples = 43\nvalue = [6, 74]\nclass = Torque_max", fillcolor="#49a5e7"] ;
173 -> 175 ;
176 [label="Trabajador <= 0.56\ngini = 0.49\nsamples = 78\nvalue = [53, 74]\nclass = Torque_max", fillcolor="#c7e3f8"] ;
172 -> 176 ;
177 [label="Trabajador <= 0.5\ngini = 0.48\nsamples = 75\nvalue = [51, 73]\nclass = Torque_max", fillcolor="#c3e1f7"] ;
176 -> 177 ;
178 [label="gini = 0.49\nsamples = 65\nvalue = [45, 63]\nclass = Torque_max", fillcolor="#c6e3f8"] ;
177 -> 178 ;
179 [label="gini = 0.47\nsamples = 10\nvalue = [6, 10]\nclass = Torque_max", fillcolor="#b0d8f5"] ;
177 -> 179 ;
180 [label="gini = 0.44\nsamples = 3\nvalue = [2, 1]\nclass = Torque_min", fillcolor="#f2c09c"] ;
176 -> 180 ;
181 [label="Trabajador <= 0.81\ngini = 0.09\nsamples = 86\nvalue = [6, 126]\nclass = Torque_max", fillcolor="#42a2e6"] ;
171 -> 181 ;
182 [label="Trabajador <= 0.71\ngini = 0.13\nsamples = 50\nvalue = [5, 67]\nclass = Torque_max", fillcolor="#48a4e7"] ;
181 -> 182 ;
183 [label="gini = 0.07\nsamples = 21\nvalue = [1, 25]\nclass = Torque_max", fillcolor="#41a1e6"] ;
182 -> 183 ;
184 [label="gini = 0.16\nsamples = 29\nvalue = [4, 42]\nclass = Torque_max", fillcolor="#4ca6e7"] ;
182 -> 184 ;
185 [label="Modelo <= 0.55\ngini = 0.03\nsamples = 36\nvalue = [1, 59]\nclass = Torque_max", fillcolor="#3c9fe5"] ;
181 -> 185 ;
186 [label="gini = 0.09\nsamples = 14\nvalue = [1, 20]\nclass = Torque_max", fillcolor="#43a2e6"] ;
185 -> 186 ;
187 [label="gini = 0.0\nsamples = 22\nvalue = [0, 39]\nclass = Torque_max", fillcolor="#399de5"] ;
185 -> 187 ;
188 [label="Modelo <= 0.25\ngini = 0.08\nsamples = 303\nvalue = [20, 449]\nclass = Torque_max", fillcolor="#42a1e6"] ;
100 -> 188 ;
189 [label="Trabajador <= 0.59\ngini = 0.16\nsamples = 95\nvalue = [13, 131]\nclass = Torque_max", fillcolor="#4da7e8"] ;
188 -> 189 ;
190 [label="gini = 0.0\nsamples = 31\nvalue = [0, 50]\nclass = Torque_max", fillcolor="#399de5"] ;
189 -> 190 ;
191 [label="Trabajador <= 0.78\ngini = 0.24\nsamples = 64\nvalue = [13, 81]\nclass = Torque_max", fillcolor="#59ade9"] ;
189 -> 191 ;
192 [label="gini = 0.37\nsamples = 18\nvalue = [7, 22]\nclass = Torque_max", fillcolor="#78bced"] ;
191 -> 192 ;
193 [label="gini = 0.17\nsamples = 46\nvalue = [6, 59]\nclass = Torque_max", fillcolor="#4da7e8"] ;
191 -> 193 ;
194 [label="Modelo <= 0.35\ngini = 0.04\nsamples = 208\nvalue = [7, 318]\nclass = Torque_max", fillcolor="#3d9fe6"] ;
188 -> 194 ;
195 [label="Trabajador <= 0.59\ngini = 0.09\nsamples = 77\nvalue = [5, 105]\nclass = Torque_max", fillcolor="#42a2e6"] ;
194 -> 195 ;
196 [label="gini = 0.09\nsamples = 72\nvalue = [5, 99]\nclass = Torque_max", fillcolor="#43a2e6"] ;
195 -> 196 ;
197 [label="gini = 0.0\nsamples = 5\nvalue = [0, 6]\nclass = Torque_max", fillcolor="#399de5"] ;
195 -> 197 ;
198 [label="Trabajador <= 0.67\ngini = 0.02\nsamples = 131\nvalue = [2, 213]\nclass = Torque_max", fillcolor="#3b9ee5"] ;
194 -> 198 ;
199 [label="Trabajador <= 0.5\ngini = 0.04\nsamples = 64\nvalue = [2, 98]\nclass = Torque_max", fillcolor="#3d9fe6"] ;
198 -> 199 ;
200 [label="gini = 0.0\nsamples = 1\nvalue = [0, 4]\nclass = Torque_max", fillcolor="#399de5"] ;
199 -> 200 ;
201 [label="gini = 0.04\nsamples = 63\nvalue = [2, 94]\nclass = Torque_max", fillcolor="#3d9fe6"] ;
199 -> 201 ;
202 [label="gini = 0.0\nsamples = 67\nvalue = [0, 115]\nclass = Torque_max", fillcolor="#399de5"] ;
198 -> 202 ;
203 [label="Modelo <= 0.36\ngini = 0.07\nsamples = 62271\nvalue = [3392, 95043]\nclass = Torque_max", fillcolor="#40a0e6"] ;
45 -> 203 ;
204 [label="Pset_name_cat <= 0.17\ngini = 0.05\nsamples = 52208\nvalue = [2328, 80122]\nclass = Torque_max", fillcolor="#3fa0e6"] ;
203 -> 204 ;
205 [label="Modelo <= 0.21\ngini = 0.02\nsamples = 10349\nvalue = [193, 16074]\nclass = Torque_max", fillcolor="#3b9ee5"] ;
204 -> 205 ;
206 [label="Angle_min <= 0.0\ngini = 0.02\nsamples = 3229\nvalue = [40, 5073]\nclass = Torque_max", fillcolor="#3b9ee5"] ;
205 -> 206 ;
207 [label="Angle_max <= 0.04\ngini = 0.01\nsamples = 3210\nvalue = [38, 5046]\nclass = Torque_max", fillcolor="#3a9ee5"] ;
206 -> 207 ;
208 [label="Trabajador <= 0.12\ngini = 0.03\nsamples = 296\nvalue = [6, 462]\nclass = Torque_max", fillcolor="#3c9ee5"] ;
207 -> 208 ;
209 [label="Modelo <= 0.19\ngini = 0.12\nsamples = 55\nvalue = [5, 75]\nclass = Torque_max", fillcolor="#46a4e7"] ;
208 -> 209 ;
210 [label="Modelo <= 0.15\ngini = 0.13\nsamples = 48\nvalue = [5, 66]\nclass = Torque_max", fillcolor="#48a4e7"] ;
209 -> 210 ;
211 [label="gini = 0.0\nsamples = 5\nvalue = [0, 8]\nclass = Torque_max", fillcolor="#399de5"] ;
210 -> 211 ;
212 [label="Modelo <= 0.17\ngini = 0.15\nsamples = 43\nvalue = [5, 58]\nclass = Torque_max", fillcolor="#4aa5e7"] ;
210 -> 212 ;
213 [label="gini = 0.17\nsamples = 22\nvalue = [3, 30]\nclass = Torque_max", fillcolor="#4da7e8"] ;
212 -> 213 ;
214 [label="gini = 0.12\nsamples = 21\nvalue = [2, 28]\nclass = Torque_max", fillcolor="#47a4e7"] ;
212 -> 214 ;
215 [label="gini = 0.0\nsamples = 7\nvalue = [0, 9]\nclass = Torque_max", fillcolor="#399de5"] ;
209 -> 215 ;
216 [label="Torque_min <= 0.46\ngini = 0.01\nsamples = 241\nvalue = [1, 387]\nclass = Torque_max", fillcolor="#3a9de5"] ;
208 -> 216 ;
217 [label="gini = 0.0\nsamples = 75\nvalue = [0, 122]\nclass = Torque_max", fillcolor="#399de5"] ;
216 -> 217 ;
218 [label="Trabajador <= 0.26\ngini = 0.01\nsamples = 166\nvalue = [1, 265]\nclass = Torque_max", fillcolor="#3a9de5"] ;
216 -> 218 ;
219 [label="Trabajador <= 0.23\ngini = 0.01\nsamples = 94\nvalue = [1, 148]\nclass = Torque_max", fillcolor="#3a9ee5"] ;
218 -> 219 ;
220 [label="gini = 0.0\nsamples = 24\nvalue = [0, 32]\nclass = Torque_max", fillcolor="#399de5"] ;
219 -> 220 ;
221 [label="Modelo <= 0.15\ngini = 0.02\nsamples = 70\nvalue = [1, 116]\nclass = Torque_max", fillcolor="#3b9ee5"] ;
219 -> 221 ;
222 [label="gini = 0.04\nsamples = 34\nvalue = [1, 55]\nclass = Torque_max", fillcolor="#3d9fe5"] ;
221 -> 222 ;
223 [label="gini = 0.0\nsamples = 36\nvalue = [0, 61]\nclass = Torque_max", fillcolor="#399de5"] ;
221 -> 223 ;
224 [label="gini = 0.0\nsamples = 72\nvalue = [0, 117]\nclass = Torque_max", fillcolor="#399de5"] ;
218 -> 224 ;
225 [label="Torque_min <= 0.34\ngini = 0.01\nsamples = 2914\nvalue = [32, 4584]\nclass = Torque_max", fillcolor="#3a9ee5"] ;
207 -> 225 ;
226 [label="Modelo <= 0.2\ngini = 0.01\nsamples = 515\nvalue = [3, 826]\nclass = Torque_max", fillcolor="#3a9de5"] ;
225 -> 226 ;
227 [label="Trabajador <= 0.79\ngini = 0.0\nsamples = 447\nvalue = [1, 724]\nclass = Torque_max", fillcolor="#399de5"] ;
226 -> 227 ;
228 [label="gini = 0.0\nsamples = 334\nvalue = [0, 535]\nclass = Torque_max", fillcolor="#399de5"] ;
227 -> 228 ;
229 [label="Trabajador <= 0.83\ngini = 0.01\nsamples = 113\nvalue = [1, 189]\nclass = Torque_max", fillcolor="#3a9ee5"] ;
227 -> 229 ;
230 [label="Modelo <= 0.14\ngini = 0.02\nsamples = 64\nvalue = [1, 109]\nclass = Torque_max", fillcolor="#3b9ee5"] ;
229 -> 230 ;
231 [label="Modelo <= 0.13\ngini = 0.07\nsamples = 14\nvalue = [1, 25]\nclass = Torque_max", fillcolor="#41a1e6"] ;
230 -> 231 ;
232 [label="gini = 0.0\nsamples = 8\nvalue = [0, 15]\nclass = Torque_max", fillcolor="#399de5"] ;
231 -> 232 ;
233 [label="gini = 0.17\nsamples = 6\nvalue = [1, 10]\nclass = Torque_max", fillcolor="#4da7e8"] ;
231 -> 233 ;
234 [label="gini = 0.0\nsamples = 50\nvalue = [0, 84]\nclass = Torque_max", fillcolor="#399de5"] ;
230 -> 234 ;
235 [label="gini = 0.0\nsamples = 49\nvalue = [0, 80]\nclass = Torque_max", fillcolor="#399de5"] ;
229 -> 235 ;
236 [label="Modelo <= 0.21\ngini = 0.04\nsamples = 68\nvalue = [2, 102]\nclass = Torque_max", fillcolor="#3d9fe6"] ;
226 -> 236 ;
237 [label="Trabajador <= 0.46\ngini = 0.05\nsamples = 46\nvalue = [2, 70]\nclass = Torque_max", fillcolor="#3fa0e6"] ;
236 -> 237 ;
238 [label="gini = 0.15\nsamples = 15\nvalue = [2, 23]\nclass = Torque_max", fillcolor="#4aa6e7"] ;
237 -> 238 ;
239 [label="gini = 0.0\nsamples = 31\nvalue = [0, 47]\nclass = Torque_max", fillcolor="#399de5"] ;
237 -> 239 ;
240 [label="gini = 0.0\nsamples = 22\nvalue = [0, 32]\nclass = Torque_max", fillcolor="#399de5"] ;
236 -> 240 ;
241 [label="Trabajador <= 0.35\ngini = 0.02\nsamples = 2399\nvalue = [29, 3758]\nclass = Torque_max", fillcolor="#3b9ee5"] ;
225 -> 241 ;
242 [label="Trabajador <= 0.29\ngini = 0.02\nsamples = 773\nvalue = [15, 1196]\nclass = Torque_max", fillcolor="#3b9ee5"] ;
241 -> 242 ;
243 [label="Modelo <= 0.18\ngini = 0.02\nsamples = 726\nvalue = [9, 1121]\nclass = Torque_max", fillcolor="#3b9ee5"] ;
242 -> 243 ;
244 [label="Pset_name_cat <= 0.13\ngini = 0.01\nsamples = 418\nvalue = [2, 654]\nclass = Torque_max", fillcolor="#3a9de5"] ;
243 -> 244 ;
245 [label="Modelo <= 0.12\ngini = 0.01\nsamples = 344\nvalue = [2, 546]\nclass = Torque_max", fillcolor="#3a9de5"] ;
244 -> 245 ;
246 [label="Trabajador <= 0.26\ngini = 0.02\nsamples = 159\nvalue = [2, 252]\nclass = Torque_max", fillcolor="#3b9ee5"] ;
245 -> 246 ;
247 [label="Trabajador <= 0.12\ngini = 0.01\nsamples = 136\nvalue = [1, 213]\nclass = Torque_max", fillcolor="#3a9de5"] ;
246 -> 247 ;
248 [label="Modelo <= 0.11\ngini = 0.01\nsamples = 98\nvalue = [1, 153]\nclass = Torque_max", fillcolor="#3a9ee5"] ;
247 -> 248 ;
249 [label="gini = 0.0\nsamples = 31\nvalue = [0, 45]\nclass = Torque_max", fillcolor="#399de5"] ;
248 -> 249 ;
250 [label="gini = 0.02\nsamples = 67\nvalue = [1, 108]\nclass = Torque_max", fillcolor="#3b9ee5"] ;
248 -> 250 ;
251 [label="gini = 0.0\nsamples = 38\nvalue = [0, 60]\nclass = Torque_max", fillcolor="#399de5"] ;
247 -> 251 ;
252 [label="Modelo <= 0.11\ngini = 0.05\nsamples = 23\nvalue = [1, 39]\nclass = Torque_max", fillcolor="#3ea0e6"] ;
246 -> 252 ;
253 [label="gini = 0.0\nsamples = 16\nvalue = [0, 29]\nclass = Torque_max", fillcolor="#399de5"] ;
252 -> 253 ;
254 [label="gini = 0.17\nsamples = 7\nvalue = [1, 10]\nclass = Torque_max", fillcolor="#4da7e8"] ;
252 -> 254 ;
255 [label="gini = 0.0\nsamples = 185\nvalue = [0, 294]\nclass = Torque_max", fillcolor="#399de5"] ;
245 -> 255 ;
256 [label="gini = 0.0\nsamples = 74\nvalue = [0, 108]\nclass = Torque_max", fillcolor="#399de5"] ;
244 -> 256 ;
257 [label="Modelo <= 0.2\ngini = 0.03\nsamples = 308\nvalue = [7, 467]\nclass = Torque_max", fillcolor="#3c9ee5"] ;
243 -> 257 ;
258 [label="Pset_name_cat <= 0.13\ngini = 0.04\nsamples = 242\nvalue = [7, 354]\nclass = Torque_max", fillcolor="#3d9fe6"] ;
257 -> 258 ;
259 [label="Modelo <= 0.2\ngini = 0.04\nsamples = 221\nvalue = [7, 317]\nclass = Torque_max", fillcolor="#3d9fe6"] ;
258 -> 259 ;
260 [label="Modelo <= 0.19\ngini = 0.03\nsamples = 155\nvalue = [3, 211]\nclass = Torque_max", fillcolor="#3c9ee5"] ;
259 -> 260 ;
261 [label="Modelo <= 0.19\ngini = 0.05\nsamples = 86\nvalue = [3, 121]\nclass = Torque_max", fillcolor="#3e9fe6"] ;
260 -> 261 ;
262 [label="Modelo <= 0.19\ngini = 0.03\nsamples = 48\nvalue = [1, 70]\nclass = Torque_max", fillcolor="#3c9ee5"] ;
261 -> 262 ;
263 [label="Trabajador <= 0.13\ngini = 0.06\nsamples = 25\nvalue = [1, 32]\nclass = Torque_max", fillcolor="#3fa0e6"] ;
262 -> 263 ;
264 [label="gini = 0.14\nsamples = 12\nvalue = [1, 12]\nclass = Torque_max", fillcolor="#49a5e7"] ;
263 -> 264 ;
265 [label="gini = 0.0\nsamples = 13\nvalue = [0, 20]\nclass = Torque_max", fillcolor="#399de5"] ;
263 -> 265 ;
266 [label="gini = 0.0\nsamples = 23\nvalue = [0, 38]\nclass = Torque_max", fillcolor="#399de5"] ;
262 -> 266 ;
267 [label="gini = 0.07\nsamples = 38\nvalue = [2, 51]\nclass = Torque_max", fillcolor="#41a1e6"] ;
261 -> 267 ;
268 [label="gini = 0.0\nsamples = 69\nvalue = [0, 90]\nclass = Torque_max", fillcolor="#399de5"] ;
260 -> 268 ;
269 [label="Trabajador <= 0.15\ngini = 0.07\nsamples = 66\nvalue = [4, 106]\nclass = Torque_max", fillcolor="#40a1e6"] ;
259 -> 269 ;
270 [label="Modelo <= 0.2\ngini = 0.13\nsamples = 36\nvalue = [4, 54]\nclass = Torque_max", fillcolor="#48a4e7"] ;
269 -> 270 ;
271 [label="gini = 0.12\nsamples = 15\nvalue = [2, 28]\nclass = Torque_max", fillcolor="#47a4e7"] ;
270 -> 271 ;
272 [label="gini = 0.13\nsamples = 21\nvalue = [2, 26]\nclass = Torque_max", fillcolor="#48a5e7"] ;
270 -> 272 ;
273 [label="gini = 0.0\nsamples = 30\nvalue = [0, 52]\nclass = Torque_max", fillcolor="#399de5"] ;
269 -> 273 ;
274 [label="gini = 0.0\nsamples = 21\nvalue = [0, 37]\nclass = Torque_max", fillcolor="#399de5"] ;
258 -> 274 ;
275 [label="gini = 0.0\nsamples = 66\nvalue = [0, 113]\nclass = Torque_max", fillcolor="#399de5"] ;
257 -> 275 ;
276 [label="Modelo <= 0.19\ngini = 0.14\nsamples = 47\nvalue = [6, 75]\nclass = Torque_max", fillcolor="#49a5e7"] ;
242 -> 276 ;
277 [label="Modelo <= 0.15\ngini = 0.19\nsamples = 32\nvalue = [6, 52]\nclass = Torque_max", fillcolor="#50a8e8"] ;
276 -> 277 ;
278 [label="Torque_min <= 0.62\ngini = 0.06\nsamples = 17\nvalue = [1, 29]\nclass = Torque_max", fillcolor="#40a0e6"] ;
277 -> 278 ;
279 [label="gini = 0.0\nsamples = 1\nvalue = [0, 1]\nclass = Torque_max", fillcolor="#399de5"] ;
278 -> 279 ;
280 [label="Modelo <= 0.11\ngini = 0.07\nsamples = 16\nvalue = [1, 28]\nclass = Torque_max", fillcolor="#40a0e6"] ;
278 -> 280 ;
281 [label="gini = 0.0\nsamples = 3\nvalue = [0, 6]\nclass = Torque_max", fillcolor="#399de5"] ;
280 -> 281 ;
282 [label="gini = 0.08\nsamples = 13\nvalue = [1, 22]\nclass = Torque_max", fillcolor="#42a1e6"] ;
280 -> 282 ;
283 [label="gini = 0.29\nsamples = 15\nvalue = [5, 23]\nclass = Torque_max", fillcolor="#64b2eb"] ;
277 -> 283 ;
284 [label="gini = 0.0\nsamples = 15\nvalue = [0, 23]\nclass = Torque_max", fillcolor="#399de5"] ;
276 -> 284 ;
285 [label="Modelo <= 0.13\ngini = 0.01\nsamples = 1626\nvalue = [14, 2562]\nclass = Torque_max", fillcolor="#3a9ee5"] ;
241 -> 285 ;
286 [label="Modelo <= 0.12\ngini = 0.02\nsamples = 578\nvalue = [9, 909]\nclass = Torque_max", fillcolor="#3b9ee5"] ;
285 -> 286 ;
287 [label="Angle_min <= 0.0\ngini = 0.01\nsamples = 456\nvalue = [5, 715]\nclass = Torque_max", fillcolor="#3a9ee5"] ;
286 -> 287 ;
288 [label="Pset_name_cat <= 0.13\ngini = 0.01\nsamples = 445\nvalue = [5, 699]\nclass = Torque_max", fillcolor="#3a9ee5"] ;
287 -> 288 ;
289 [label="Trabajador <= 0.43\ngini = 0.02\nsamples = 150\nvalue = [2, 241]\nclass = Torque_max", fillcolor="#3b9ee5"] ;
288 -> 289 ;
290 [label="Modelo <= 0.12\ngini = 0.1\nsamples = 24\nvalue = [2, 36]\nclass = Torque_max", fillcolor="#44a2e6"] ;
289 -> 290 ;
291 [label="gini = 0.19\nsamples = 10\nvalue = [2, 17]\nclass = Torque_max", fillcolor="#50a9e8"] ;
290 -> 291 ;
292 [label="gini = 0.0\nsamples = 14\nvalue = [0, 19]\nclass = Torque_max", fillcolor="#399de5"] ;
290 -> 292 ;
293 [label="gini = 0.0\nsamples = 126\nvalue = [0, 205]\nclass = Torque_max", fillcolor="#399de5"] ;
289 -> 293 ;
294 [label="Modelo <= 0.11\ngini = 0.01\nsamples = 295\nvalue = [3, 458]\nclass = Torque_max", fillcolor="#3a9ee5"] ;
288 -> 294 ;
295 [label="gini = 0.0\nsamples = 57\nvalue = [0, 97]\nclass = Torque_max", fillcolor="#399de5"] ;
294 -> 295 ;
296 [label="Modelo <= 0.12\ngini = 0.02\nsamples = 238\nvalue = [3, 361]\nclass = Torque_max", fillcolor="#3b9ee5"] ;
294 -> 296 ;
297 [label="Trabajador <= 0.83\ngini = 0.02\nsamples = 153\nvalue = [2, 238]\nclass = Torque_max", fillcolor="#3b9ee5"] ;
296 -> 297 ;
298 [label="gini = 0.0\nsamples = 138\nvalue = [0, 210]\nclass = Torque_max", fillcolor="#399de5"] ;
297 -> 298 ;
299 [label="gini = 0.12\nsamples = 15\nvalue = [2, 28]\nclass = Torque_max", fillcolor="#47a4e7"] ;
297 -> 299 ;
300 [label="Trabajador <= 0.75\ngini = 0.02\nsamples = 85\nvalue = [1, 123]\nclass = Torque_max", fillcolor="#3b9ee5"] ;
296 -> 300 ;
301 [label="gini = 0.0\nsamples = 65\nvalue = [0, 100]\nclass = Torque_max", fillcolor="#399de5"] ;
300 -> 301 ;
302 [label="Trabajador <= 0.83\ngini = 0.08\nsamples = 20\nvalue = [1, 23]\nclass = Torque_max", fillcolor="#42a1e6"] ;
300 -> 302 ;
303 [label="gini = 0.12\nsamples = 11\nvalue = [1, 14]\nclass = Torque_max", fillcolor="#47a4e7"] ;
302 -> 303 ;
304 [label="gini = 0.0\nsamples = 9\nvalue = [0, 9]\nclass = Torque_max", fillcolor="#399de5"] ;
302 -> 304 ;
305 [label="gini = 0.0\nsamples = 11\nvalue = [0, 16]\nclass = Torque_max", fillcolor="#399de5"] ;
287 -> 305 ;
306 [label="Modelo <= 0.13\ngini = 0.04\nsamples = 122\nvalue = [4, 194]\nclass = Torque_max", fillcolor="#3d9fe6"] ;
286 -> 306 ;
307 [label="Pset_name_cat <= 0.13\ngini = 0.09\nsamples = 36\nvalue = [3, 63]\nclass = Torque_max", fillcolor="#42a2e6"] ;
306 -> 307 ;
308 [label="gini = 0.0\nsamples = 12\nvalue = [0, 21]\nclass = Torque_max", fillcolor="#399de5"] ;
307 -> 308 ;
309 [label="Trabajador <= 0.56\ngini = 0.12\nsamples = 24\nvalue = [3, 42]\nclass = Torque_max", fillcolor="#47a4e7"] ;
307 -> 309 ;
310 [label="gini = 0.0\nsamples = 14\nvalue = [0, 25]\nclass = Torque_max", fillcolor="#399de5"] ;
309 -> 310 ;
311 [label="gini = 0.26\nsamples = 10\nvalue = [3, 17]\nclass = Torque_max", fillcolor="#5caeea"] ;
309 -> 311 ;
312 [label="Pset_name_cat <= 0.13\ngini = 0.02\nsamples = 86\nvalue = [1, 131]\nclass = Torque_max", fillcolor="#3b9ee5"] ;
306 -> 312 ;
313 [label="Trabajador <= 0.52\ngini = 0.04\nsamples = 34\nvalue = [1, 49]\nclass = Torque_max", fillcolor="#3d9fe6"] ;
312 -> 313 ;
314 [label="Trabajador <= 0.38\ngini = 0.06\nsamples = 22\nvalue = [1, 31]\nclass = Torque_max", fillcolor="#3fa0e6"] ;
313 -> 314 ;
315 [label="gini = 0.0\nsamples = 5\nvalue = [0, 9]\nclass = Torque_max", fillcolor="#399de5"] ;
314 -> 315 ;
316 [label="gini = 0.08\nsamples = 17\nvalue = [1, 22]\nclass = Torque_max", fillcolor="#42a1e6"] ;
314 -> 316 ;
317 [label="gini = 0.0\nsamples = 12\nvalue = [0, 18]\nclass = Torque_max", fillcolor="#399de5"] ;
313 -> 317 ;
318 [label="gini = 0.0\nsamples = 52\nvalue = [0, 82]\nclass = Torque_max", fillcolor="#399de5"] ;
312 -> 318 ;
319 [label="Modelo <= 0.2\ngini = 0.01\nsamples = 1048\nvalue = [5, 1653]\nclass = Torque_max", fillcolor="#3a9de5"] ;
285 -> 319 ;
320 [label="Trabajador <= 0.69\ngini = 0.0\nsamples = 671\nvalue = [2, 1062]\nclass = Torque_max", fillcolor="#399de5"] ;
319 -> 320 ;
321 [label="gini = 0.0\nsamples = 319\nvalue = [0, 494]\nclass = Torque_max", fillcolor="#399de5"] ;
320 -> 321 ;
322 [label="Trabajador <= 0.74\ngini = 0.01\nsamples = 352\nvalue = [2, 568]\nclass = Torque_max", fillcolor="#3a9de5"] ;
320 -> 322 ;
323 [label="Torque_min <= 0.62\ngini = 0.01\nsamples = 172\nvalue = [2, 267]\nclass = Torque_max", fillcolor="#3a9ee5"] ;
322 -> 323 ;
324 [label="Trabajador <= 0.71\ngini = 0.06\nsamples = 24\nvalue = [1, 31]\nclass = Torque_max", fillcolor="#3fa0e6"] ;
323 -> 324 ;
325 [label="Modelo <= 0.16\ngini = 0.08\nsamples = 20\nvalue = [1, 24]\nclass = Torque_max", fillcolor="#41a1e6"] ;
324 -> 325 ;
326 [label="Modelo <= 0.15\ngini = 0.13\nsamples = 12\nvalue = [1, 13]\nclass = Torque_max", fillcolor="#48a5e7"] ;
325 -> 326 ;
327 [label="gini = 0.0\nsamples = 2\nvalue = [0, 2]\nclass = Torque_max", fillcolor="#399de5"] ;
326 -> 327 ;
328 [label="gini = 0.15\nsamples = 10\nvalue = [1, 11]\nclass = Torque_max", fillcolor="#4ba6e7"] ;
326 -> 328 ;
329 [label="gini = 0.0\nsamples = 8\nvalue = [0, 11]\nclass = Torque_max", fillcolor="#399de5"] ;
325 -> 329 ;
330 [label="gini = 0.0\nsamples = 4\nvalue = [0, 7]\nclass = Torque_max", fillcolor="#399de5"] ;
324 -> 330 ;
331 [label="Trabajador <= 0.71\ngini = 0.01\nsamples = 148\nvalue = [1, 236]\nclass = Torque_max", fillcolor="#3a9de5"] ;
323 -> 331 ;
332 [label="gini = 0.0\nsamples = 42\nvalue = [0, 65]\nclass = Torque_max", fillcolor="#399de5"] ;
331 -> 332 ;
333 [label="Modelo <= 0.18\ngini = 0.01\nsamples = 106\nvalue = [1, 171]\nclass = Torque_max", fillcolor="#3a9ee5"] ;
331 -> 333 ;
334 [label="gini = 0.0\nsamples = 72\nvalue = [0, 120]\nclass = Torque_max", fillcolor="#399de5"] ;
333 -> 334 ;
335 [label="Modelo <= 0.19\ngini = 0.04\nsamples = 34\nvalue = [1, 51]\nclass = Torque_max", fillcolor="#3d9fe6"] ;
333 -> 335 ;
336 [label="gini = 0.09\nsamples = 15\nvalue = [1, 20]\nclass = Torque_max", fillcolor="#43a2e6"] ;
335 -> 336 ;
337 [label="gini = 0.0\nsamples = 19\nvalue = [0, 31]\nclass = Torque_max", fillcolor="#399de5"] ;
335 -> 337 ;
338 [label="gini = 0.0\nsamples = 180\nvalue = [0, 301]\nclass = Torque_max", fillcolor="#399de5"] ;
322 -> 338 ;
339 [label="Trabajador <= 0.76\ngini = 0.01\nsamples = 377\nvalue = [3, 591]\nclass = Torque_max", fillcolor="#3a9de5"] ;
319 -> 339 ;
340 [label="Trabajador <= 0.38\ngini = 0.0\nsamples = 338\nvalue = [1, 533]\nclass = Torque_max", fillcolor="#399de5"] ;
339 -> 340 ;
341 [label="Torque_min <= 0.62\ngini = 0.03\nsamples = 43\nvalue = [1, 64]\nclass = Torque_max", fillcolor="#3c9fe5"] ;
340 -> 341 ;
342 [label="gini = 0.0\nsamples = 5\nvalue = [0, 9]\nclass = Torque_max", fillcolor="#399de5"] ;
341 -> 342 ;
343 [label="Modelo <= 0.2\ngini = 0.04\nsamples = 38\nvalue = [1, 55]\nclass = Torque_max", fillcolor="#3d9fe5"] ;
341 -> 343 ;
344 [label="gini = 0.05\nsamples = 27\nvalue = [1, 38]\nclass = Torque_max", fillcolor="#3ea0e6"] ;
343 -> 344 ;
345 [label="gini = 0.0\nsamples = 11\nvalue = [0, 17]\nclass = Torque_max", fillcolor="#399de5"] ;
343 -> 345 ;
346 [label="gini = 0.0\nsamples = 295\nvalue = [0, 469]\nclass = Torque_max", fillcolor="#399de5"] ;
340 -> 346 ;
347 [label="Modelo <= 0.2\ngini = 0.06\nsamples = 39\nvalue = [2, 58]\nclass = Torque_max", fillcolor="#40a0e6"] ;
339 -> 347 ;
348 [label="gini = 0.0\nsamples = 22\nvalue = [0, 38]\nclass = Torque_max", fillcolor="#399de5"] ;
347 -> 348 ;
349 [label="gini = 0.17\nsamples = 17\nvalue = [2, 20]\nclass = Torque_max", fillcolor="#4da7e8"] ;
347 -> 349 ;
350 [label="gini = 0.13\nsamples = 19\nvalue = [2, 27]\nclass = Torque_max", fillcolor="#48a4e7"] ;
206 -> 350 ;
351 [label="Modelo <= 0.23\ngini = 0.03\nsamples = 7120\nvalue = [153, 11001]\nclass = Torque_max", fillcolor="#3c9ee5"] ;
205 -> 351 ;
352 [label="Modelo <= 0.22\ngini = 0.1\nsamples = 294\nvalue = [25, 427]\nclass = Torque_max", fillcolor="#45a3e7"] ;
351 -> 352 ;
353 [label="Pset_name_cat <= 0.15\ngini = 0.11\nsamples = 186\nvalue = [17, 271]\nclass = Torque_max", fillcolor="#45a3e7"] ;
352 -> 353 ;
354 [label="Angle_max <= 0.33\ngini = 0.02\nsamples = 167\nvalue = [2, 259]\nclass = Torque_max", fillcolor="#3b9ee5"] ;
353 -> 354 ;
355 [label="Trabajador <= 0.39\ngini = 0.11\nsamples = 23\nvalue = [2, 33]\nclass = Torque_max", fillcolor="#45a3e7"] ;
354 -> 355 ;
356 [label="gini = 0.12\nsamples = 21\nvalue = [2, 30]\nclass = Torque_max", fillcolor="#46a4e7"] ;
355 -> 356 ;
357 [label="gini = 0.0\nsamples = 2\nvalue = [0, 3]\nclass = Torque_max", fillcolor="#399de5"] ;
355 -> 357 ;
358 [label="gini = 0.0\nsamples = 144\nvalue = [0, 226]\nclass = Torque_max", fillcolor="#399de5"] ;
354 -> 358 ;
359 [label="gini = 0.49\nsamples = 19\nvalue = [15, 12]\nclass = Torque_min", fillcolor="#fae6d7"] ;
353 -> 359 ;
360 [label="Trabajador <= 0.74\ngini = 0.09\nsamples = 108\nvalue = [8, 156]\nclass = Torque_max", fillcolor="#43a2e6"] ;
352 -> 360 ;
361 [label="Trabajador <= 0.19\ngini = 0.06\nsamples = 81\nvalue = [4, 116]\nclass = Torque_max", fillcolor="#40a0e6"] ;
360 -> 361 ;
362 [label="Torque_min <= 0.62\ngini = 0.15\nsamples = 32\nvalue = [4, 45]\nclass = Torque_max", fillcolor="#4ba6e7"] ;
361 -> 362 ;
363 [label="gini = 0.0\nsamples = 2\nvalue = [2, 0]\nclass = Torque_min", fillcolor="#e58139"] ;
362 -> 363 ;
364 [label="Angle_max <= 0.33\ngini = 0.08\nsamples = 30\nvalue = [2, 45]\nclass = Torque_max", fillcolor="#42a1e6"] ;
362 -> 364 ;
365 [label="gini = 0.11\nsamples = 20\nvalue = [2, 33]\nclass = Torque_max", fillcolor="#45a3e7"] ;
364 -> 365 ;
366 [label="gini = 0.0\nsamples = 10\nvalue = [0, 12]\nclass = Torque_max", fillcolor="#399de5"] ;
364 -> 366 ;
367 [label="gini = 0.0\nsamples = 49\nvalue = [0, 71]\nclass = Torque_max", fillcolor="#399de5"] ;
361 -> 367 ;
368 [label="Modelo <= 0.22\ngini = 0.17\nsamples = 27\nvalue = [4, 40]\nclass = Torque_max", fillcolor="#4da7e8"] ;
360 -> 368 ;
369 [label="gini = 0.0\nsamples = 7\nvalue = [0, 8]\nclass = Torque_max", fillcolor="#399de5"] ;
368 -> 369 ;
370 [label="Trabajador <= 0.79\ngini = 0.2\nsamples = 20\nvalue = [4, 32]\nclass = Torque_max", fillcolor="#52a9e8"] ;
368 -> 370 ;
371 [label="Torque_min <= 0.62\ngini = 0.27\nsamples = 15\nvalue = [4, 21]\nclass = Torque_max", fillcolor="#5fb0ea"] ;
370 -> 371 ;
372 [label="gini = 0.0\nsamples = 1\nvalue = [0, 1]\nclass = Torque_max", fillcolor="#399de5"] ;
371 -> 372 ;
373 [label="gini = 0.28\nsamples = 14\nvalue = [4, 20]\nclass = Torque_max", fillcolor="#61b1ea"] ;
371 -> 373 ;
374 [label="gini = 0.0\nsamples = 5\nvalue = [0, 11]\nclass = Torque_max", fillcolor="#399de5"] ;
370 -> 374 ;
375 [label="Torque_min <= 0.62\ngini = 0.02\nsamples = 6826\nvalue = [128, 10574]\nclass = Torque_max", fillcolor="#3b9ee5"] ;
351 -> 375 ;
376 [label="Torque_max <= 0.45\ngini = 0.01\nsamples = 3582\nvalue = [33, 5553]\nclass = Torque_max", fillcolor="#3a9ee5"] ;
375 -> 376 ;
377 [label="Pset_name_cat <= 0.15\ngini = 0.02\nsamples = 1239\nvalue = [16, 1953]\nclass = Torque_max", fillcolor="#3b9ee5"] ;
376 -> 377 ;
378 [label="Modelo <= 0.32\ngini = 0.01\nsamples = 1230\nvalue = [9, 1947]\nclass = Torque_max", fillcolor="#3a9de5"] ;
377 -> 378 ;
379 [label="Trabajador <= 0.39\ngini = 0.0\nsamples = 880\nvalue = [3, 1379]\nclass = Torque_max", fillcolor="#399de5"] ;
378 -> 379 ;
380 [label="gini = 0.0\nsamples = 241\nvalue = [0, 373]\nclass = Torque_max", fillcolor="#399de5"] ;
379 -> 380 ;
381 [label="Trabajador <= 0.43\ngini = 0.01\nsamples = 639\nvalue = [3, 1006]\nclass = Torque_max", fillcolor="#3a9de5"] ;
379 -> 381 ;
382 [label="Modelo <= 0.27\ngini = 0.02\nsamples = 106\nvalue = [2, 156]\nclass = Torque_max", fillcolor="#3c9ee5"] ;
381 -> 382 ;
383 [label="Modelo <= 0.27\ngini = 0.05\nsamples = 48\nvalue = [2, 72]\nclass = Torque_max", fillcolor="#3ea0e6"] ;
382 -> 383 ;
384 [label="gini = 0.0\nsamples = 41\nvalue = [0, 62]\nclass = Torque_max", fillcolor="#399de5"] ;
383 -> 384 ;
385 [label="gini = 0.28\nsamples = 7\nvalue = [2, 10]\nclass = Torque_max", fillcolor="#61b1ea"] ;
383 -> 385 ;
386 [label="gini = 0.0\nsamples = 58\nvalue = [0, 84]\nclass = Torque_max", fillcolor="#399de5"] ;
382 -> 386 ;
387 [label="Trabajador <= 0.7\ngini = 0.0\nsamples = 533\nvalue = [1, 850]\nclass = Torque_max", fillcolor="#399de5"] ;
381 -> 387 ;
388 [label="gini = 0.0\nsamples = 291\nvalue = [0, 480]\nclass = Torque_max", fillcolor="#399de5"] ;
387 -> 388 ;
389 [label="Trabajador <= 0.75\ngini = 0.01\nsamples = 242\nvalue = [1, 370]\nclass = Torque_max", fillcolor="#3a9de5"] ;
387 -> 389 ;
390 [label="Modelo <= 0.25\ngini = 0.01\nsamples = 91\nvalue = [1, 139]\nclass = Torque_max", fillcolor="#3a9ee5"] ;
389 -> 390 ;
391 [label="Modelo <= 0.24\ngini = 0.11\nsamples = 12\nvalue = [1, 16]\nclass = Torque_max", fillcolor="#45a3e7"] ;
390 -> 391 ;
392 [label="gini = 0.0\nsamples = 2\nvalue = [0, 3]\nclass = Torque_max", fillcolor="#399de5"] ;
391 -> 392 ;
393 [label="gini = 0.13\nsamples = 10\nvalue = [1, 13]\nclass = Torque_max", fillcolor="#48a5e7"] ;
391 -> 393 ;
394 [label="gini = 0.0\nsamples = 79\nvalue = [0, 123]\nclass = Torque_max", fillcolor="#399de5"] ;
390 -> 394 ;
395 [label="gini = 0.0\nsamples = 151\nvalue = [0, 231]\nclass = Torque_max", fillcolor="#399de5"] ;
389 -> 395 ;
396 [label="Modelo <= 0.32\ngini = 0.02\nsamples = 350\nvalue = [6, 568]\nclass = Torque_max", fillcolor="#3b9ee5"] ;
378 -> 396 ;
397 [label="Angle_max <= 0.33\ngini = 0.05\nsamples = 120\nvalue = [5, 200]\nclass = Torque_max", fillcolor="#3e9fe6"] ;
396 -> 397 ;
398 [label="Trabajador <= 0.5\ngini = 0.06\nsamples = 21\nvalue = [1, 33]\nclass = Torque_max", fillcolor="#3fa0e6"] ;
397 -> 398 ;
399 [label="gini = 0.09\nsamples = 12\nvalue = [1, 21]\nclass = Torque_max", fillcolor="#42a2e6"] ;
398 -> 399 ;
400 [label="gini = 0.0\nsamples = 9\nvalue = [0, 12]\nclass = Torque_max", fillcolor="#399de5"] ;
398 -> 400 ;
401 [label="Trabajador <= 0.43\ngini = 0.05\nsamples = 99\nvalue = [4, 167]\nclass = Torque_max", fillcolor="#3e9fe6"] ;
397 -> 401 ;
402 [label="Trabajador <= 0.38\ngini = 0.12\nsamples = 38\nvalue = [4, 58]\nclass = Torque_max", fillcolor="#47a4e7"] ;
401 -> 402 ;
403 [label="gini = 0.0\nsamples = 28\nvalue = [0, 47]\nclass = Torque_max", fillcolor="#399de5"] ;
402 -> 403 ;
404 [label="gini = 0.39\nsamples = 10\nvalue = [4, 11]\nclass = Torque_max", fillcolor="#81c1ee"] ;
402 -> 404 ;
405 [label="gini = 0.0\nsamples = 61\nvalue = [0, 109]\nclass = Torque_max", fillcolor="#399de5"] ;
401 -> 405 ;
406 [label="Angle_max <= 0.33\ngini = 0.01\nsamples = 230\nvalue = [1, 368]\nclass = Torque_max", fillcolor="#3a9de5"] ;
396 -> 406 ;
407 [label="gini = 0.0\nsamples = 72\nvalue = [0, 110]\nclass = Torque_max", fillcolor="#399de5"] ;
406 -> 407 ;
408 [label="Trabajador <= 0.38\ngini = 0.01\nsamples = 158\nvalue = [1, 258]\nclass = Torque_max", fillcolor="#3a9de5"] ;
406 -> 408 ;
409 [label="Trabajador <= 0.31\ngini = 0.02\nsamples = 44\nvalue = [1, 78]\nclass = Torque_max", fillcolor="#3c9ee5"] ;
408 -> 409 ;
410 [label="gini = 0.0\nsamples = 17\nvalue = [0, 30]\nclass = Torque_max", fillcolor="#399de5"] ;
409 -> 410 ;
411 [label="Modelo <= 0.33\ngini = 0.04\nsamples = 27\nvalue = [1, 48]\nclass = Torque_max", fillcolor="#3d9fe6"] ;
409 -> 411 ;
412 [label="gini = 0.0\nsamples = 11\nvalue = [0, 19]\nclass = Torque_max", fillcolor="#399de5"] ;
411 -> 412 ;
413 [label="Modelo <= 0.34\ngini = 0.06\nsamples = 16\nvalue = [1, 29]\nclass = Torque_max", fillcolor="#40a0e6"] ;
411 -> 413 ;
414 [label="gini = 0.07\nsamples = 15\nvalue = [1, 28]\nclass = Torque_max", fillcolor="#40a0e6"] ;
413 -> 414 ;
415 [label="gini = 0.0\nsamples = 1\nvalue = [0, 1]\nclass = Torque_max", fillcolor="#399de5"] ;
413 -> 415 ;
416 [label="gini = 0.0\nsamples = 114\nvalue = [0, 180]\nclass = Torque_max", fillcolor="#399de5"] ;
408 -> 416 ;
417 [label="Trabajador <= 0.42\ngini = 0.5\nsamples = 9\nvalue = [7, 6]\nclass = Torque_min", fillcolor="#fbede3"] ;
377 -> 417 ;
418 [label="gini = 0.48\nsamples = 2\nvalue = [2, 3]\nclass = Torque_max", fillcolor="#bddef6"] ;
417 -> 418 ;
419 [label="gini = 0.47\nsamples = 7\nvalue = [5, 3]\nclass = Torque_min", fillcolor="#f5cdb0"] ;
417 -> 419 ;
420 [label="Modelo <= 0.24\ngini = 0.01\nsamples = 2343\nvalue = [17, 3600]\nclass = Torque_max", fillcolor="#3a9de5"] ;
376 -> 420 ;
421 [label="Trabajador <= 0.66\ngini = 0.03\nsamples = 175\nvalue = [5, 279]\nclass = Torque_max", fillcolor="#3d9fe5"] ;
420 -> 421 ;
422 [label="Modelo <= 0.24\ngini = 0.05\nsamples = 127\nvalue = [5, 209]\nclass = Torque_max", fillcolor="#3e9fe6"] ;
421 -> 422 ;
423 [label="Modelo <= 0.23\ngini = 0.03\nsamples = 83\nvalue = [2, 146]\nclass = Torque_max", fillcolor="#3c9ee5"] ;
422 -> 423 ;
424 [label="gini = 0.0\nsamples = 29\nvalue = [0, 50]\nclass = Torque_max", fillcolor="#399de5"] ;
423 -> 424 ;
425 [label="Angle_max <= 0.33\ngini = 0.04\nsamples = 54\nvalue = [2, 96]\nclass = Torque_max", fillcolor="#3d9fe6"] ;
423 -> 425 ;
426 [label="gini = 0.0\nsamples = 4\nvalue = [0, 7]\nclass = Torque_max", fillcolor="#399de5"] ;
425 -> 426 ;
427 [label="Trabajador <= 0.56\ngini = 0.04\nsamples = 50\nvalue = [2, 89]\nclass = Torque_max", fillcolor="#3d9fe6"] ;
425 -> 427 ;
428 [label="gini = 0.0\nsamples = 29\nvalue = [0, 52]\nclass = Torque_max", fillcolor="#399de5"] ;
427 -> 428 ;
429 [label="gini = 0.1\nsamples = 21\nvalue = [2, 37]\nclass = Torque_max", fillcolor="#44a2e6"] ;
427 -> 429 ;
430 [label="Trabajador <= 0.38\ngini = 0.09\nsamples = 44\nvalue = [3, 63]\nclass = Torque_max", fillcolor="#42a2e6"] ;
422 -> 430 ;
431 [label="gini = 0.0\nsamples = 26\nvalue = [0, 41]\nclass = Torque_max", fillcolor="#399de5"] ;
430 -> 431 ;
432 [label="gini = 0.21\nsamples = 18\nvalue = [3, 22]\nclass = Torque_max", fillcolor="#54aae9"] ;
430 -> 432 ;
433 [label="gini = 0.0\nsamples = 48\nvalue = [0, 70]\nclass = Torque_max", fillcolor="#399de5"] ;
421 -> 433 ;
434 [label="Trabajador <= 0.64\ngini = 0.01\nsamples = 2168\nvalue = [12, 3321]\nclass = Torque_max", fillcolor="#3a9de5"] ;
420 -> 434 ;
435 [label="Trabajador <= 0.64\ngini = 0.01\nsamples = 1242\nvalue = [12, 1931]\nclass = Torque_max", fillcolor="#3a9ee5"] ;
434 -> 435 ;
436 [label="Modelo <= 0.33\ngini = 0.01\nsamples = 1034\nvalue = [7, 1624]\nclass = Torque_max", fillcolor="#3a9de5"] ;
435 -> 436 ;
437 [label="Angle_max <= 0.41\ngini = 0.0\nsamples = 857\nvalue = [2, 1323]\nclass = Torque_max", fillcolor="#399de5"] ;
436 -> 437 ;
438 [label="gini = 0.0\nsamples = 18\nvalue = [0, 28]\nclass = Torque_max", fillcolor="#399de5"] ;
437 -> 438 ;
439 [label="Trabajador <= 0.25\ngini = 0.0\nsamples = 839\nvalue = [2, 1295]\nclass = Torque_max", fillcolor="#399de5"] ;
437 -> 439 ;
440 [label="Modelo <= 0.29\ngini = 0.02\nsamples = 172\nvalue = [2, 261]\nclass = Torque_max", fillcolor="#3b9ee5"] ;
439 -> 440 ;
441 [label="gini = 0.0\nsamples = 77\nvalue = [0, 112]\nclass = Torque_max", fillcolor="#399de5"] ;
440 -> 441 ;
442 [label="Modelo <= 0.31\ngini = 0.03\nsamples = 95\nvalue = [2, 149]\nclass = Torque_max", fillcolor="#3c9ee5"] ;
440 -> 442 ;
443 [label="gini = 0.05\nsamples = 54\nvalue = [2, 81]\nclass = Torque_max", fillcolor="#3e9fe6"] ;
442 -> 443 ;
444 [label="gini = 0.0\nsamples = 41\nvalue = [0, 68]\nclass = Torque_max", fillcolor="#399de5"] ;
442 -> 444 ;
445 [label="gini = 0.0\nsamples = 667\nvalue = [0, 1034]\nclass = Torque_max", fillcolor="#399de5"] ;
439 -> 445 ;
446 [label="Angle_max <= 0.33\ngini = 0.03\nsamples = 177\nvalue = [5, 301]\nclass = Torque_max", fillcolor="#3c9fe5"] ;
436 -> 446 ;
447 [label="Trabajador <= 0.37\ngini = 0.05\nsamples = 23\nvalue = [1, 41]\nclass = Torque_max", fillcolor="#3e9fe6"] ;
446 -> 447 ;
448 [label="gini = 0.0\nsamples = 1\nvalue = [0, 2]\nclass = Torque_max", fillcolor="#399de5"] ;
447 -> 448 ;
449 [label="Modelo <= 0.35\ngini = 0.05\nsamples = 22\nvalue = [1, 39]\nclass = Torque_max", fillcolor="#3ea0e6"] ;
447 -> 449 ;
450 [label="gini = 0.14\nsamples = 9\nvalue = [1, 12]\nclass = Torque_max", fillcolor="#49a5e7"] ;
449 -> 450 ;
451 [label="gini = 0.0\nsamples = 13\nvalue = [0, 27]\nclass = Torque_max", fillcolor="#399de5"] ;
449 -> 451 ;
452 [label="Trabajador <= 0.47\ngini = 0.03\nsamples = 154\nvalue = [4, 260]\nclass = Torque_max", fillcolor="#3c9fe5"] ;
446 -> 452 ;
453 [label="Trabajador <= 0.33\ngini = 0.02\nsamples = 117\nvalue = [2, 204]\nclass = Torque_max", fillcolor="#3b9ee5"] ;
452 -> 453 ;
454 [label="Modelo <= 0.34\ngini = 0.04\nsamples = 56\nvalue = [2, 102]\nclass = Torque_max", fillcolor="#3d9fe6"] ;
453 -> 454 ;
455 [label="gini = 0.1\nsamples = 22\nvalue = [2, 37]\nclass = Torque_max", fillcolor="#44a2e6"] ;
454 -> 455 ;
456 [label="gini = 0.0\nsamples = 34\nvalue = [0, 65]\nclass = Torque_max", fillcolor="#399de5"] ;
454 -> 456 ;
457 [label="gini = 0.0\nsamples = 61\nvalue = [0, 102]\nclass = Torque_max", fillcolor="#399de5"] ;
453 -> 457 ;
458 [label="Modelo <= 0.34\ngini = 0.07\nsamples = 37\nvalue = [2, 56]\nclass = Torque_max", fillcolor="#40a0e6"] ;
452 -> 458 ;
459 [label="gini = 0.1\nsamples = 22\nvalue = [2, 34]\nclass = Torque_max", fillcolor="#45a3e7"] ;
458 -> 459 ;
460 [label="gini = 0.0\nsamples = 15\nvalue = [0, 22]\nclass = Torque_max", fillcolor="#399de5"] ;
458 -> 460 ;
461 [label="Modelo <= 0.27\ngini = 0.03\nsamples = 208\nvalue = [5, 307]\nclass = Torque_max", fillcolor="#3c9fe5"] ;
435 -> 461 ;
462 [label="Modelo <= 0.27\ngini = 0.07\nsamples = 71\nvalue = [4, 106]\nclass = Torque_max", fillcolor="#40a1e6"] ;
461 -> 462 ;
463 [label="gini = 0.0\nsamples = 54\nvalue = [0, 84]\nclass = Torque_max", fillcolor="#399de5"] ;
462 -> 463 ;
464 [label="gini = 0.26\nsamples = 17\nvalue = [4, 22]\nclass = Torque_max", fillcolor="#5dafea"] ;
462 -> 464 ;
465 [label="Modelo <= 0.32\ngini = 0.01\nsamples = 137\nvalue = [1, 201]\nclass = Torque_max", fillcolor="#3a9de5"] ;
461 -> 465 ;
466 [label="Modelo <= 0.31\ngini = 0.02\nsamples = 70\nvalue = [1, 103]\nclass = Torque_max", fillcolor="#3b9ee5"] ;
465 -> 466 ;
467 [label="gini = 0.0\nsamples = 48\nvalue = [0, 71]\nclass = Torque_max", fillcolor="#399de5"] ;
466 -> 467 ;
468 [label="gini = 0.06\nsamples = 22\nvalue = [1, 32]\nclass = Torque_max", fillcolor="#3fa0e6"] ;
466 -> 468 ;
469 [label="gini = 0.0\nsamples = 67\nvalue = [0, 98]\nclass = Torque_max", fillcolor="#399de5"] ;
465 -> 469 ;
470 [label="gini = 0.0\nsamples = 926\nvalue = [0, 1390]\nclass = Torque_max", fillcolor="#399de5"] ;
434 -> 470 ;
471 [label="Trabajador <= 0.18\ngini = 0.04\nsamples = 3244\nvalue = [95, 5021]\nclass = Torque_max", fillcolor="#3d9fe5"] ;
375 -> 471 ;
472 [label="Trabajador <= 0.11\ngini = 0.06\nsamples = 900\nvalue = [44, 1367]\nclass = Torque_max", fillcolor="#3fa0e6"] ;
471 -> 472 ;
473 [label="Modelo <= 0.3\ngini = 0.06\nsamples = 896\nvalue = [42, 1364]\nclass = Torque_max", fillcolor="#3fa0e6"] ;
472 -> 473 ;
474 [label="Modelo <= 0.25\ngini = 0.08\nsamples = 539\nvalue = [35, 814]\nclass = Torque_max", fillcolor="#42a1e6"] ;
473 -> 474 ;
475 [label="Angle_max <= 0.33\ngini = 0.02\nsamples = 157\nvalue = [3, 249]\nclass = Torque_max", fillcolor="#3b9ee5"] ;
474 -> 475 ;
476 [label="Modelo <= 0.23\ngini = 0.06\nsamples = 23\nvalue = [1, 33]\nclass = Torque_max", fillcolor="#3fa0e6"] ;
475 -> 476 ;
477 [label="gini = 0.11\nsamples = 11\nvalue = [1, 16]\nclass = Torque_max", fillcolor="#45a3e7"] ;
476 -> 477 ;
478 [label="gini = 0.0\nsamples = 12\nvalue = [0, 17]\nclass = Torque_max", fillcolor="#399de5"] ;
476 -> 478 ;
479 [label="Modelo <= 0.25\ngini = 0.02\nsamples = 134\nvalue = [2, 216]\nclass = Torque_max", fillcolor="#3b9ee5"] ;
475 -> 479 ;
480 [label="gini = 0.0\nsamples = 87\nvalue = [0, 144]\nclass = Torque_max", fillcolor="#399de5"] ;
479 -> 480 ;
481 [label="Modelo <= 0.25\ngini = 0.05\nsamples = 47\nvalue = [2, 72]\nclass = Torque_max", fillcolor="#3ea0e6"] ;
479 -> 481 ;
482 [label="gini = 0.06\nsamples = 45\nvalue = [2, 67]\nclass = Torque_max", fillcolor="#3fa0e6"] ;
481 -> 482 ;
483 [label="gini = 0.0\nsamples = 2\nvalue = [0, 5]\nclass = Torque_max", fillcolor="#399de5"] ;
481 -> 483 ;
484 [label="Trabajador <= 0.05\ngini = 0.1\nsamples = 382\nvalue = [32, 565]\nclass = Torque_max", fillcolor="#44a3e6"] ;
474 -> 484 ;
485 [label="gini = 0.0\nsamples = 24\nvalue = [0, 38]\nclass = Torque_max", fillcolor="#399de5"] ;
484 -> 485 ;
486 [label="Modelo <= 0.26\ngini = 0.11\nsamples = 358\nvalue = [32, 527]\nclass = Torque_max", fillcolor="#45a3e7"] ;
484 -> 486 ;
487 [label="Modelo <= 0.26\ngini = 0.19\nsamples = 88\nvalue = [14, 114]\nclass = Torque_max", fillcolor="#51a9e8"] ;
486 -> 487 ;
488 [label="Modelo <= 0.26\ngini = 0.13\nsamples = 43\nvalue = [4, 53]\nclass = Torque_max", fillcolor="#48a4e7"] ;
487 -> 488 ;
489 [label="gini = 0.19\nsamples = 29\nvalue = [4, 34]\nclass = Torque_max", fillcolor="#50a9e8"] ;
488 -> 489 ;
490 [label="gini = 0.0\nsamples = 14\nvalue = [0, 19]\nclass = Torque_max", fillcolor="#399de5"] ;
488 -> 490 ;
491 [label="Angle_max <= 0.33\ngini = 0.24\nsamples = 45\nvalue = [10, 61]\nclass = Torque_max", fillcolor="#59ade9"] ;
487 -> 491 ;
492 [label="gini = 0.0\nsamples = 30\nvalue = [0, 51]\nclass = Torque_max", fillcolor="#399de5"] ;
491 -> 492 ;
493 [label="gini = 0.5\nsamples = 15\nvalue = [10, 10]\nclass = Torque_min", fillcolor="#ffffff"] ;
491 -> 493 ;
494 [label="Angle_max <= 0.33\ngini = 0.08\nsamples = 270\nvalue = [18, 413]\nclass = Torque_max", fillcolor="#42a1e6"] ;
486 -> 494 ;
495 [label="Modelo <= 0.28\ngini = 0.1\nsamples = 47\nvalue = [4, 70]\nclass = Torque_max", fillcolor="#44a3e6"] ;
494 -> 495 ;
496 [label="Modelo <= 0.27\ngini = 0.12\nsamples = 37\nvalue = [4, 56]\nclass = Torque_max", fillcolor="#47a4e7"] ;
495 -> 496 ;
497 [label="gini = 0.07\nsamples = 21\nvalue = [1, 28]\nclass = Torque_max", fillcolor="#40a0e6"] ;
496 -> 497 ;
498 [label="gini = 0.17\nsamples = 16\nvalue = [3, 28]\nclass = Torque_max", fillcolor="#4ea8e8"] ;
496 -> 498 ;
499 [label="gini = 0.0\nsamples = 10\nvalue = [0, 14]\nclass = Torque_max", fillcolor="#399de5"] ;
495 -> 499 ;
500 [label="Pset_name_cat <= 0.1\ngini = 0.08\nsamples = 223\nvalue = [14, 343]\nclass = Torque_max", fillcolor="#41a1e6"] ;
494 -> 500 ;
501 [label="gini = 0.31\nsamples = 21\nvalue = [6, 25]\nclass = Torque_max", fillcolor="#69b5eb"] ;
500 -> 501 ;
502 [label="Modelo <= 0.29\ngini = 0.05\nsamples = 202\nvalue = [8, 318]\nclass = Torque_max", fillcolor="#3e9fe6"] ;
500 -> 502 ;
503 [label="gini = 0.0\nsamples = 103\nvalue = [0, 159]\nclass = Torque_max", fillcolor="#399de5"] ;
502 -> 503 ;
504 [label="gini = 0.09\nsamples = 99\nvalue = [8, 159]\nclass = Torque_max", fillcolor="#43a2e6"] ;
502 -> 504 ;
505 [label="Modelo <= 0.32\ngini = 0.02\nsamples = 357\nvalue = [7, 550]\nclass = Torque_max", fillcolor="#3c9ee5"] ;
473 -> 505 ;
506 [label="Angle_max <= 0.33\ngini = 0.01\nsamples = 148\nvalue = [1, 230]\nclass = Torque_max", fillcolor="#3a9de5"] ;
505 -> 506 ;
507 [label="gini = 0.0\nsamples = 12\nvalue = [0, 19]\nclass = Torque_max", fillcolor="#399de5"] ;
506 -> 507 ;
508 [label="Modelo <= 0.32\ngini = 0.01\nsamples = 136\nvalue = [1, 211]\nclass = Torque_max", fillcolor="#3a9de5"] ;
506 -> 508 ;
509 [label="gini = 0.0\nsamples = 62\nvalue = [0, 105]\nclass = Torque_max", fillcolor="#399de5"] ;
508 -> 509 ;
510 [label="Modelo <= 0.32\ngini = 0.02\nsamples = 74\nvalue = [1, 106]\nclass = Torque_max", fillcolor="#3b9ee5"] ;
508 -> 510 ;
511 [label="gini = 0.02\nsamples = 72\nvalue = [1, 102]\nclass = Torque_max", fillcolor="#3b9ee5"] ;
510 -> 511 ;
512 [label="gini = 0.0\nsamples = 2\nvalue = [0, 4]\nclass = Torque_max", fillcolor="#399de5"] ;
510 -> 512 ;
513 [label="Modelo <= 0.33\ngini = 0.04\nsamples = 209\nvalue = [6, 320]\nclass = Torque_max", fillcolor="#3d9fe5"] ;
505 -> 513 ;
514 [label="Angle_max <= 0.33\ngini = 0.09\nsamples = 43\nvalue = [3, 60]\nclass = Torque_max", fillcolor="#43a2e6"] ;
513 -> 514 ;
515 [label="gini = 0.17\nsamples = 21\nvalue = [3, 29]\nclass = Torque_max", fillcolor="#4da7e8"] ;
514 -> 515 ;
516 [label="gini = 0.0\nsamples = 22\nvalue = [0, 31]\nclass = Torque_max", fillcolor="#399de5"] ;
514 -> 516 ;
517 [label="Angle_max <= 0.33\ngini = 0.02\nsamples = 166\nvalue = [3, 260]\nclass = Torque_max", fillcolor="#3b9ee5"] ;
513 -> 517 ;
518 [label="gini = 0.0\nsamples = 38\nvalue = [0, 53]\nclass = Torque_max", fillcolor="#399de5"] ;
517 -> 518 ;
519 [label="Modelo <= 0.35\ngini = 0.03\nsamples = 128\nvalue = [3, 207]\nclass = Torque_max", fillcolor="#3c9ee5"] ;
517 -> 519 ;
520 [label="Modelo <= 0.35\ngini = 0.04\nsamples = 98\nvalue = [3, 152]\nclass = Torque_max", fillcolor="#3d9fe6"] ;
519 -> 520 ;
521 [label="Modelo <= 0.34\ngini = 0.02\nsamples = 64\nvalue = [1, 97]\nclass = Torque_max", fillcolor="#3b9ee5"] ;
520 -> 521 ;
522 [label="gini = 0.0\nsamples = 24\nvalue = [0, 37]\nclass = Torque_max", fillcolor="#399de5"] ;
521 -> 522 ;
523 [label="Modelo <= 0.34\ngini = 0.03\nsamples = 40\nvalue = [1, 60]\nclass = Torque_max", fillcolor="#3c9fe5"] ;
521 -> 523 ;
524 [label="gini = 0.06\nsamples = 25\nvalue = [1, 34]\nclass = Torque_max", fillcolor="#3fa0e6"] ;
523 -> 524 ;
525 [label="gini = 0.0\nsamples = 15\nvalue = [0, 26]\nclass = Torque_max", fillcolor="#399de5"] ;
523 -> 525 ;
526 [label="gini = 0.07\nsamples = 34\nvalue = [2, 55]\nclass = Torque_max", fillcolor="#40a1e6"] ;
520 -> 526 ;
527 [label="gini = 0.0\nsamples = 30\nvalue = [0, 55]\nclass = Torque_max", fillcolor="#399de5"] ;
519 -> 527 ;
528 [label="gini = 0.48\nsamples = 4\nvalue = [2, 3]\nclass = Torque_max", fillcolor="#bddef6"] ;
472 -> 528 ;
529 [label="Pset_name_cat <= 0.1\ngini = 0.03\nsamples = 2344\nvalue = [51, 3654]\nclass = Torque_max", fillcolor="#3c9ee5"] ;
471 -> 529 ;
530 [label="Trabajador <= 0.28\ngini = 0.1\nsamples = 189\nvalue = [17, 292]\nclass = Torque_max", fillcolor="#45a3e7"] ;
529 -> 530 ;
531 [label="gini = 0.0\nsamples = 79\nvalue = [0, 129]\nclass = Torque_max", fillcolor="#399de5"] ;
530 -> 531 ;
532 [label="Modelo <= 0.34\ngini = 0.17\nsamples = 110\nvalue = [17, 163]\nclass = Torque_max", fillcolor="#4ea7e8"] ;
530 -> 532 ;
533 [label="Modelo <= 0.26\ngini = 0.11\nsamples = 100\nvalue = [10, 158]\nclass = Torque_max", fillcolor="#46a3e7"] ;
532 -> 533 ;
534 [label="Trabajador <= 0.39\ngini = 0.27\nsamples = 25\nvalue = [6, 32]\nclass = Torque_max", fillcolor="#5eafea"] ;
533 -> 534 ;
535 [label="gini = 0.34\nsamples = 19\nvalue = [6, 22]\nclass = Torque_max", fillcolor="#6fb8ec"] ;
534 -> 535 ;
536 [label="gini = 0.0\nsamples = 6\nvalue = [0, 10]\nclass = Torque_max", fillcolor="#399de5"] ;
534 -> 536 ;
537 [label="Trabajador <= 0.56\ngini = 0.06\nsamples = 75\nvalue = [4, 126]\nclass = Torque_max", fillcolor="#3fa0e6"] ;
533 -> 537 ;
538 [label="Modelo <= 0.28\ngini = 0.18\nsamples = 29\nvalue = [4, 37]\nclass = Torque_max", fillcolor="#4ea8e8"] ;
537 -> 538 ;
539 [label="Trabajador <= 0.43\ngini = 0.08\nsamples = 16\nvalue = [1, 24]\nclass = Torque_max", fillcolor="#41a1e6"] ;
538 -> 539 ;
540 [label="gini = 0.0\nsamples = 5\nvalue = [0, 8]\nclass = Torque_max", fillcolor="#399de5"] ;
539 -> 540 ;
541 [label="gini = 0.11\nsamples = 11\nvalue = [1, 16]\nclass = Torque_max", fillcolor="#45a3e7"] ;
539 -> 541 ;
542 [label="Trabajador <= 0.43\ngini = 0.3\nsamples = 13\nvalue = [3, 13]\nclass = Torque_max", fillcolor="#67b4eb"] ;
538 -> 542 ;
543 [label="gini = 0.28\nsamples = 5\nvalue = [1, 5]\nclass = Torque_max", fillcolor="#61b1ea"] ;
542 -> 543 ;
544 [label="gini = 0.32\nsamples = 8\nvalue = [2, 8]\nclass = Torque_max", fillcolor="#6ab6ec"] ;
542 -> 544 ;
545 [label="gini = 0.0\nsamples = 46\nvalue = [0, 89]\nclass = Torque_max", fillcolor="#399de5"] ;
537 -> 545 ;
546 [label="gini = 0.49\nsamples = 10\nvalue = [7, 5]\nclass = Torque_min", fillcolor="#f8dbc6"] ;
532 -> 546 ;
547 [label="Trabajador <= 0.77\ngini = 0.02\nsamples = 2155\nvalue = [34, 3362]\nclass = Torque_max", fillcolor="#3b9ee5"] ;
529 -> 547 ;
548 [label="Angle_max <= 0.33\ngini = 0.01\nsamples = 1823\nvalue = [18, 2854]\nclass = Torque_max", fillcolor="#3a9ee5"] ;
547 -> 548 ;
549 [label="Trabajador <= 0.23\ngini = 0.03\nsamples = 409\nvalue = [9, 598]\nclass = Torque_max", fillcolor="#3c9ee5"] ;
548 -> 549 ;
550 [label="gini = 0.0\nsamples = 89\nvalue = [0, 133]\nclass = Torque_max", fillcolor="#399de5"] ;
549 -> 550 ;
551 [label="Modelo <= 0.28\ngini = 0.04\nsamples = 320\nvalue = [9, 465]\nclass = Torque_max", fillcolor="#3d9fe6"] ;
549 -> 551 ;
552 [label="gini = 0.0\nsamples = 82\nvalue = [0, 120]\nclass = Torque_max", fillcolor="#399de5"] ;
551 -> 552 ;
553 [label="Trabajador <= 0.26\ngini = 0.05\nsamples = 238\nvalue = [9, 345]\nclass = Torque_max", fillcolor="#3ea0e6"] ;
551 -> 553 ;
554 [label="Modelo <= 0.28\ngini = 0.09\nsamples = 83\nvalue = [6, 123]\nclass = Torque_max", fillcolor="#43a2e6"] ;
553 -> 554 ;
555 [label="gini = 0.14\nsamples = 48\nvalue = [6, 71]\nclass = Torque_max", fillcolor="#4aa5e7"] ;
554 -> 555 ;
556 [label="gini = 0.0\nsamples = 35\nvalue = [0, 52]\nclass = Torque_max", fillcolor="#399de5"] ;
554 -> 556 ;
557 [label="Trabajador <= 0.5\ngini = 0.03\nsamples = 155\nvalue = [3, 222]\nclass = Torque_max", fillcolor="#3c9ee5"] ;
553 -> 557 ;
558 [label="Modelo <= 0.34\ngini = 0.04\nsamples = 71\nvalue = [2, 98]\nclass = Torque_max", fillcolor="#3d9fe6"] ;
557 -> 558 ;
559 [label="gini = 0.0\nsamples = 65\nvalue = [0, 91]\nclass = Torque_max", fillcolor="#399de5"] ;
558 -> 559 ;
560 [label="gini = 0.35\nsamples = 6\nvalue = [2, 7]\nclass = Torque_max", fillcolor="#72b9ec"] ;
558 -> 560 ;
561 [label="Modelo <= 0.32\ngini = 0.02\nsamples = 84\nvalue = [1, 124]\nclass = Torque_max", fillcolor="#3b9ee5"] ;
557 -> 561 ;
562 [label="Modelo <= 0.3\ngini = 0.03\nsamples = 47\nvalue = [1, 71]\nclass = Torque_max", fillcolor="#3c9ee5"] ;
561 -> 562 ;
563 [label="gini = 0.0\nsamples = 13\nvalue = [0, 21]\nclass = Torque_max", fillcolor="#399de5"] ;
562 -> 563 ;
564 [label="gini = 0.04\nsamples = 34\nvalue = [1, 50]\nclass = Torque_max", fillcolor="#3d9fe6"] ;
562 -> 564 ;
565 [label="gini = 0.0\nsamples = 37\nvalue = [0, 53]\nclass = Torque_max", fillcolor="#399de5"] ;
561 -> 565 ;
566 [label="Modelo <= 0.24\ngini = 0.01\nsamples = 1414\nvalue = [9, 2256]\nclass = Torque_max", fillcolor="#3a9de5"] ;
548 -> 566 ;
567 [label="Modelo <= 0.24\ngini = 0.05\nsamples = 77\nvalue = [3, 105]\nclass = Torque_max", fillcolor="#3fa0e6"] ;
566 -> 567 ;
568 [label="gini = 0.0\nsamples = 56\nvalue = [0, 82]\nclass = Torque_max", fillcolor="#399de5"] ;
567 -> 568 ;
569 [label="Trabajador <= 0.68\ngini = 0.2\nsamples = 21\nvalue = [3, 23]\nclass = Torque_max", fillcolor="#53aae8"] ;
567 -> 569 ;
570 [label="gini = 0.28\nsamples = 15\nvalue = [3, 15]\nclass = Torque_max", fillcolor="#61b1ea"] ;
569 -> 570 ;
571 [label="gini = 0.0\nsamples = 6\nvalue = [0, 8]\nclass = Torque_max", fillcolor="#399de5"] ;
569 -> 571 ;
572 [label="Modelo <= 0.28\ngini = 0.01\nsamples = 1337\nvalue = [6, 2151]\nclass = Torque_max", fillcolor="#3a9de5"] ;
566 -> 572 ;
573 [label="gini = 0.0\nsamples = 411\nvalue = [0, 673]\nclass = Torque_max", fillcolor="#399de5"] ;
572 -> 573 ;
574 [label="Trabajador <= 0.25\ngini = 0.01\nsamples = 926\nvalue = [6, 1478]\nclass = Torque_max", fillcolor="#3a9de5"] ;
572 -> 574 ;
575 [label="gini = 0.0\nsamples = 144\nvalue = [0, 220]\nclass = Torque_max", fillcolor="#399de5"] ;
574 -> 575 ;
576 [label="Trabajador <= 0.71\ngini = 0.01\nsamples = 782\nvalue = [6, 1258]\nclass = Torque_max", fillcolor="#3a9de5"] ;
574 -> 576 ;
577 [label="Trabajador <= 0.38\ngini = 0.01\nsamples = 604\nvalue = [4, 990]\nclass = Torque_max", fillcolor="#3a9de5"] ;
576 -> 577 ;
578 [label="Trabajador <= 0.32\ngini = 0.01\nsamples = 395\nvalue = [4, 659]\nclass = Torque_max", fillcolor="#3a9ee5"] ;
577 -> 578 ;
579 [label="Trabajador <= 0.26\ngini = 0.01\nsamples = 310\nvalue = [2, 518]\nclass = Torque_max", fillcolor="#3a9de5"] ;
578 -> 579 ;
580 [label="Modelo <= 0.3\ngini = 0.01\nsamples = 213\nvalue = [2, 356]\nclass = Torque_max", fillcolor="#3a9ee5"] ;
579 -> 580 ;
581 [label="gini = 0.0\nsamples = 86\nvalue = [0, 145]\nclass = Torque_max", fillcolor="#399de5"] ;
580 -> 581 ;
582 [label="Modelo <= 0.34\ngini = 0.02\nsamples = 127\nvalue = [2, 211]\nclass = Torque_max", fillcolor="#3b9ee5"] ;
580 -> 582 ;
583 [label="Modelo <= 0.32\ngini = 0.01\nsamples = 87\nvalue = [1, 145]\nclass = Torque_max", fillcolor="#3a9ee5"] ;
582 -> 583 ;
584 [label="gini = 0.02\nsamples = 61\nvalue = [1, 102]\nclass = Torque_max", fillcolor="#3b9ee5"] ;
583 -> 584 ;
585 [label="gini = 0.0\nsamples = 26\nvalue = [0, 43]\nclass = Torque_max", fillcolor="#399de5"] ;
583 -> 585 ;
586 [label="Modelo <= 0.35\ngini = 0.03\nsamples = 40\nvalue = [1, 66]\nclass = Torque_max", fillcolor="#3c9ee5"] ;
582 -> 586 ;
587 [label="gini = 0.03\nsamples = 39\nvalue = [1, 65]\nclass = Torque_max", fillcolor="#3c9fe5"] ;
586 -> 587 ;
588 [label="gini = 0.0\nsamples = 1\nvalue = [0, 1]\nclass = Torque_max", fillcolor="#399de5"] ;
586 -> 588 ;
589 [label="gini = 0.0\nsamples = 97\nvalue = [0, 162]\nclass = Torque_max", fillcolor="#399de5"] ;
579 -> 589 ;
590 [label="Modelo <= 0.28\ngini = 0.03\nsamples = 85\nvalue = [2, 141]\nclass = Torque_max", fillcolor="#3c9ee5"] ;
578 -> 590 ;
591 [label="gini = 0.08\nsamples = 27\nvalue = [2, 43]\nclass = Torque_max", fillcolor="#42a2e6"] ;
590 -> 591 ;
592 [label="gini = 0.0\nsamples = 58\nvalue = [0, 98]\nclass = Torque_max", fillcolor="#399de5"] ;
590 -> 592 ;
593 [label="gini = 0.0\nsamples = 209\nvalue = [0, 331]\nclass = Torque_max", fillcolor="#399de5"] ;
577 -> 593 ;
594 [label="Trabajador <= 0.74\ngini = 0.01\nsamples = 178\nvalue = [2, 268]\nclass = Torque_max", fillcolor="#3a9ee5"] ;
576 -> 594 ;
595 [label="Modelo <= 0.3\ngini = 0.02\nsamples = 124\nvalue = [2, 181]\nclass = Torque_max", fillcolor="#3b9ee5"] ;
594 -> 595 ;
596 [label="Modelo <= 0.29\ngini = 0.05\nsamples = 52\nvalue = [2, 76]\nclass = Torque_max", fillcolor="#3ea0e6"] ;
595 -> 596 ;
597 [label="gini = 0.0\nsamples = 5\nvalue = [0, 8]\nclass = Torque_max", fillcolor="#399de5"] ;
596 -> 597 ;
598 [label="gini = 0.06\nsamples = 47\nvalue = [2, 68]\nclass = Torque_max", fillcolor="#3fa0e6"] ;
596 -> 598 ;
599 [label="gini = 0.0\nsamples = 72\nvalue = [0, 105]\nclass = Torque_max", fillcolor="#399de5"] ;
595 -> 599 ;
600 [label="gini = 0.0\nsamples = 54\nvalue = [0, 87]\nclass = Torque_max", fillcolor="#399de5"] ;
594 -> 600 ;
601 [label="Modelo <= 0.33\ngini = 0.06\nsamples = 332\nvalue = [16, 508]\nclass = Torque_max", fillcolor="#3fa0e6"] ;
547 -> 601 ;
602 [label="Modelo <= 0.28\ngini = 0.07\nsamples = 290\nvalue = [16, 436]\nclass = Torque_max", fillcolor="#40a1e6"] ;
601 -> 602 ;
603 [label="Trabajador <= 0.85\ngini = 0.04\nsamples = 179\nvalue = [6, 279]\nclass = Torque_max", fillcolor="#3d9fe6"] ;
602 -> 603 ;
604 [label="gini = 0.0\nsamples = 82\nvalue = [0, 129]\nclass = Torque_max", fillcolor="#399de5"] ;
603 -> 604 ;
605 [label="Modelo <= 0.26\ngini = 0.07\nsamples = 97\nvalue = [6, 150]\nclass = Torque_max", fillcolor="#41a1e6"] ;
603 -> 605 ;
606 [label="Modelo <= 0.25\ngini = 0.11\nsamples = 27\nvalue = [3, 48]\nclass = Torque_max", fillcolor="#45a3e7"] ;
605 -> 606 ;
607 [label="gini = 0.0\nsamples = 3\nvalue = [0, 5]\nclass = Torque_max", fillcolor="#399de5"] ;
606 -> 607 ;
608 [label="gini = 0.12\nsamples = 24\nvalue = [3, 43]\nclass = Torque_max", fillcolor="#47a4e7"] ;
606 -> 608 ;
609 [label="Modelo <= 0.26\ngini = 0.06\nsamples = 70\nvalue = [3, 102]\nclass = Torque_max", fillcolor="#3fa0e6"] ;
605 -> 609 ;
610 [label="gini = 0.0\nsamples = 13\nvalue = [0, 18]\nclass = Torque_max", fillcolor="#399de5"] ;
609 -> 610 ;
611 [label="Modelo <= 0.27\ngini = 0.07\nsamples = 57\nvalue = [3, 84]\nclass = Torque_max", fillcolor="#40a0e6"] ;
609 -> 611 ;
612 [label="gini = 0.07\nsamples = 52\nvalue = [3, 78]\nclass = Torque_max", fillcolor="#41a1e6"] ;
611 -> 612 ;
613 [label="gini = 0.0\nsamples = 5\nvalue = [0, 6]\nclass = Torque_max", fillcolor="#399de5"] ;
611 -> 613 ;
614 [label="Modelo <= 0.3\ngini = 0.11\nsamples = 111\nvalue = [10, 157]\nclass = Torque_max", fillcolor="#46a3e7"] ;
602 -> 614 ;
615 [label="Trabajador <= 0.85\ngini = 0.18\nsamples = 50\nvalue = [8, 70]\nclass = Torque_max", fillcolor="#50a8e8"] ;
614 -> 615 ;
616 [label="Modelo <= 0.29\ngini = 0.14\nsamples = 23\nvalue = [3, 36]\nclass = Torque_max", fillcolor="#49a5e7"] ;
615 -> 616 ;
617 [label="gini = 0.15\nsamples = 22\nvalue = [3, 35]\nclass = Torque_max", fillcolor="#4aa5e7"] ;
616 -> 617 ;
618 [label="gini = 0.0\nsamples = 1\nvalue = [0, 1]\nclass = Torque_max", fillcolor="#399de5"] ;
616 -> 618 ;
619 [label="gini = 0.22\nsamples = 27\nvalue = [5, 34]\nclass = Torque_max", fillcolor="#56abe9"] ;
615 -> 619 ;
620 [label="Angle_max <= 0.33\ngini = 0.04\nsamples = 61\nvalue = [2, 87]\nclass = Torque_max", fillcolor="#3e9fe6"] ;
614 -> 620 ;
621 [label="gini = 0.0\nsamples = 9\nvalue = [0, 14]\nclass = Torque_max", fillcolor="#399de5"] ;
620 -> 621 ;
622 [label="Trabajador <= 0.8\ngini = 0.05\nsamples = 52\nvalue = [2, 73]\nclass = Torque_max", fillcolor="#3ea0e6"] ;
620 -> 622 ;
623 [label="Modelo <= 0.31\ngini = 0.13\nsamples = 21\nvalue = [2, 26]\nclass = Torque_max", fillcolor="#48a5e7"] ;
622 -> 623 ;
624 [label="gini = 0.17\nsamples = 9\nvalue = [1, 10]\nclass = Torque_max", fillcolor="#4da7e8"] ;
623 -> 624 ;
625 [label="gini = 0.11\nsamples = 12\nvalue = [1, 16]\nclass = Torque_max", fillcolor="#45a3e7"] ;
623 -> 625 ;
626 [label="gini = 0.0\nsamples = 31\nvalue = [0, 47]\nclass = Torque_max", fillcolor="#399de5"] ;
622 -> 626 ;
627 [label="gini = 0.0\nsamples = 42\nvalue = [0, 72]\nclass = Torque_max", fillcolor="#399de5"] ;
601 -> 627 ;
628 [label="Angle_max <= 0.51\ngini = 0.06\nsamples = 41859\nvalue = [2135, 64048]\nclass = Torque_max", fillcolor="#40a0e6"] ;
204 -> 628 ;
629 [label="Torque_min <= 0.47\ngini = 0.08\nsamples = 8223\nvalue = [551, 12452]\nclass = Torque_max", fillcolor="#42a1e6"] ;
628 -> 629 ;
630 [label="Trabajador <= 0.75\ngini = 0.1\nsamples = 1853\nvalue = [152, 2746]\nclass = Torque_max", fillcolor="#44a2e6"] ;
629 -> 630 ;
631 [label="Torque_min <= 0.4\ngini = 0.07\nsamples = 1268\nvalue = [73, 1907]\nclass = Torque_max", fillcolor="#41a1e6"] ;
630 -> 631 ;
632 [label="Modelo <= 0.35\ngini = 0.07\nsamples = 75\nvalue = [4, 113]\nclass = Torque_max", fillcolor="#40a0e6"] ;
631 -> 632 ;
633 [label="Trabajador <= 0.36\ngini = 0.03\nsamples = 51\nvalue = [1, 77]\nclass = Torque_max", fillcolor="#3c9ee5"] ;
632 -> 633 ;
634 [label="gini = 0.0\nsamples = 43\nvalue = [0, 67]\nclass = Torque_max", fillcolor="#399de5"] ;
633 -> 634 ;
635 [label="gini = 0.17\nsamples = 8\nvalue = [1, 10]\nclass = Torque_max", fillcolor="#4da7e8"] ;
633 -> 635 ;
636 [label="Trabajador <= 0.05\ngini = 0.14\nsamples = 24\nvalue = [3, 36]\nclass = Torque_max", fillcolor="#49a5e7"] ;
632 -> 636 ;
637 [label="gini = 0.15\nsamples = 22\nvalue = [3, 33]\nclass = Torque_max", fillcolor="#4ba6e7"] ;
636 -> 637 ;
638 [label="gini = 0.0\nsamples = 2\nvalue = [0, 3]\nclass = Torque_max", fillcolor="#399de5"] ;
636 -> 638 ;
639 [label="Modelo <= 0.21\ngini = 0.07\nsamples = 1193\nvalue = [69, 1794]\nclass = Torque_max", fillcolor="#41a1e6"] ;
631 -> 639 ;
640 [label="Modelo <= 0.12\ngini = 0.04\nsamples = 405\nvalue = [13, 627]\nclass = Torque_max", fillcolor="#3d9fe6"] ;
639 -> 640 ;
641 [label="Trabajador <= 0.25\ngini = 0.05\nsamples = 250\nvalue = [11, 389]\nclass = Torque_max", fillcolor="#3fa0e6"] ;
640 -> 641 ;
642 [label="Trabajador <= 0.21\ngini = 0.02\nsamples = 76\nvalue = [1, 118]\nclass = Torque_max", fillcolor="#3b9ee5"] ;
641 -> 642 ;
643 [label="Modelo <= 0.12\ngini = 0.05\nsamples = 22\nvalue = [1, 36]\nclass = Torque_max", fillcolor="#3ea0e6"] ;
642 -> 643 ;
644 [label="gini = 0.12\nsamples = 10\nvalue = [1, 15]\nclass = Torque_max", fillcolor="#46a4e7"] ;
643 -> 644 ;
645 [label="gini = 0.0\nsamples = 12\nvalue = [0, 21]\nclass = Torque_max", fillcolor="#399de5"] ;
643 -> 645 ;
646 [label="gini = 0.0\nsamples = 54\nvalue = [0, 82]\nclass = Torque_max", fillcolor="#399de5"] ;
642 -> 646 ;
647 [label="Trabajador <= 0.43\ngini = 0.07\nsamples = 174\nvalue = [10, 271]\nclass = Torque_max", fillcolor="#40a1e6"] ;
641 -> 647 ;
648 [label="Trabajador <= 0.38\ngini = 0.1\nsamples = 81\nvalue = [7, 123]\nclass = Torque_max", fillcolor="#44a3e6"] ;
647 -> 648 ;
649 [label="Modelo <= 0.11\ngini = 0.06\nsamples = 42\nvalue = [2, 65]\nclass = Torque_max", fillcolor="#3fa0e6"] ;
648 -> 649 ;
650 [label="gini = 0.0\nsamples = 20\nvalue = [0, 36]\nclass = Torque_max", fillcolor="#399de5"] ;
649 -> 650 ;
651 [label="gini = 0.12\nsamples = 22\nvalue = [2, 29]\nclass = Torque_max", fillcolor="#47a4e7"] ;
649 -> 651 ;
652 [label="Modelo <= 0.11\ngini = 0.15\nsamples = 39\nvalue = [5, 58]\nclass = Torque_max", fillcolor="#4aa5e7"] ;
648 -> 652 ;
653 [label="gini = 0.49\nsamples = 3\nvalue = [3, 4]\nclass = Torque_max", fillcolor="#cee6f8"] ;
652 -> 653 ;
654 [label="Modelo <= 0.12\ngini = 0.07\nsamples = 36\nvalue = [2, 54]\nclass = Torque_max", fillcolor="#40a1e6"] ;
652 -> 654 ;
655 [label="gini = 0.0\nsamples = 19\nvalue = [0, 29]\nclass = Torque_max", fillcolor="#399de5"] ;
654 -> 655 ;
656 [label="gini = 0.14\nsamples = 17\nvalue = [2, 25]\nclass = Torque_max", fillcolor="#49a5e7"] ;
654 -> 656 ;
657 [label="Trabajador <= 0.56\ngini = 0.04\nsamples = 93\nvalue = [3, 148]\nclass = Torque_max", fillcolor="#3d9fe6"] ;
647 -> 657 ;
658 [label="Modelo <= 0.11\ngini = 0.03\nsamples = 45\nvalue = [1, 73]\nclass = Torque_max", fillcolor="#3c9ee5"] ;
657 -> 658 ;
659 [label="gini = 0.0\nsamples = 13\nvalue = [0, 23]\nclass = Torque_max", fillcolor="#399de5"] ;
658 -> 659 ;
660 [label="gini = 0.04\nsamples = 32\nvalue = [1, 50]\nclass = Torque_max", fillcolor="#3d9fe6"] ;
658 -> 660 ;
661 [label="Modelo <= 0.12\ngini = 0.05\nsamples = 48\nvalue = [2, 75]\nclass = Torque_max", fillcolor="#3ea0e6"] ;
657 -> 661 ;
662 [label="gini = 0.0\nsamples = 30\nvalue = [0, 51]\nclass = Torque_max", fillcolor="#399de5"] ;
661 -> 662 ;
663 [label="gini = 0.14\nsamples = 18\nvalue = [2, 24]\nclass = Torque_max", fillcolor="#49a5e7"] ;
661 -> 663 ;
664 [label="Trabajador <= 0.64\ngini = 0.02\nsamples = 155\nvalue = [2, 238]\nclass = Torque_max", fillcolor="#3b9ee5"] ;
640 -> 664 ;
665 [label="gini = 0.0\nsamples = 97\nvalue = [0, 141]\nclass = Torque_max", fillcolor="#399de5"] ;
664 -> 665 ;
666 [label="Modelo <= 0.16\ngini = 0.04\nsamples = 58\nvalue = [2, 97]\nclass = Torque_max", fillcolor="#3d9fe6"] ;
664 -> 666 ;
667 [label="gini = 0.0\nsamples = 29\nvalue = [0, 42]\nclass = Torque_max", fillcolor="#399de5"] ;
666 -> 667 ;
668 [label="Trabajador <= 0.67\ngini = 0.07\nsamples = 29\nvalue = [2, 55]\nclass = Torque_max", fillcolor="#40a1e6"] ;
666 -> 668 ;
669 [label="Modelo <= 0.18\ngini = 0.09\nsamples = 22\nvalue = [2, 42]\nclass = Torque_max", fillcolor="#42a2e6"] ;
668 -> 669 ;
670 [label="gini = 0.1\nsamples = 19\nvalue = [2, 37]\nclass = Torque_max", fillcolor="#44a2e6"] ;
669 -> 670 ;
671 [label="gini = 0.0\nsamples = 3\nvalue = [0, 5]\nclass = Torque_max", fillcolor="#399de5"] ;
669 -> 671 ;
672 [label="gini = 0.0\nsamples = 7\nvalue = [0, 13]\nclass = Torque_max", fillcolor="#399de5"] ;
668 -> 672 ;
673 [label="Modelo <= 0.25\ngini = 0.09\nsamples = 788\nvalue = [56, 1167]\nclass = Torque_max", fillcolor="#43a2e6"] ;
639 -> 673 ;
674 [label="Modelo <= 0.23\ngini = 0.17\nsamples = 197\nvalue = [28, 280]\nclass = Torque_max", fillcolor="#4da7e8"] ;
673 -> 674 ;
675 [label="Trabajador <= 0.43\ngini = 0.27\nsamples = 36\nvalue = [8, 42]\nclass = Torque_max", fillcolor="#5fb0ea"] ;
674 -> 675 ;
676 [label="gini = 0.42\nsamples = 19\nvalue = [8, 19]\nclass = Torque_max", fillcolor="#8cc6f0"] ;
675 -> 676 ;
677 [label="gini = 0.0\nsamples = 17\nvalue = [0, 23]\nclass = Torque_max", fillcolor="#399de5"] ;
675 -> 677 ;
678 [label="Trabajador <= 0.67\ngini = 0.14\nsamples = 161\nvalue = [20, 238]\nclass = Torque_max", fillcolor="#4aa5e7"] ;
674 -> 678 ;
679 [label="Modelo <= 0.25\ngini = 0.15\nsamples = 151\nvalue = [20, 223]\nclass = Torque_max", fillcolor="#4ba6e7"] ;
678 -> 679 ;
680 [label="Modelo <= 0.25\ngini = 0.13\nsamples = 128\nvalue = [14, 189]\nclass = Torque_max", fillcolor="#48a4e7"] ;
679 -> 680 ;
681 [label="Modelo <= 0.24\ngini = 0.16\nsamples = 101\nvalue = [14, 147]\nclass = Torque_max", fillcolor="#4ca6e7"] ;
680 -> 681 ;
682 [label="Trabajador <= 0.25\ngini = 0.17\nsamples = 64\nvalue = [10, 97]\nclass = Torque_max", fillcolor="#4da7e8"] ;
681 -> 682 ;
683 [label="Modelo <= 0.23\ngini = 0.26\nsamples = 22\nvalue = [5, 28]\nclass = Torque_max", fillcolor="#5caeea"] ;
682 -> 683 ;
684 [label="gini = 0.24\nsamples = 6\nvalue = [1, 6]\nclass = Torque_max", fillcolor="#5aade9"] ;
683 -> 684 ;
685 [label="gini = 0.26\nsamples = 16\nvalue = [4, 22]\nclass = Torque_max", fillcolor="#5dafea"] ;
683 -> 685 ;
686 [label="Trabajador <= 0.52\ngini = 0.13\nsamples = 42\nvalue = [5, 69]\nclass = Torque_max", fillcolor="#47a4e7"] ;
682 -> 686 ;
687 [label="Trabajador <= 0.36\ngini = 0.17\nsamples = 19\nvalue = [3, 28]\nclass = Torque_max", fillcolor="#4ea8e8"] ;
686 -> 687 ;
688 [label="gini = 0.0\nsamples = 4\nvalue = [0, 5]\nclass = Torque_max", fillcolor="#399de5"] ;
687 -> 688 ;
689 [label="gini = 0.2\nsamples = 15\nvalue = [3, 23]\nclass = Torque_max", fillcolor="#53aae8"] ;
687 -> 689 ;
690 [label="Modelo <= 0.23\ngini = 0.09\nsamples = 23\nvalue = [2, 41]\nclass = Torque_max", fillcolor="#43a2e6"] ;
686 -> 690 ;
691 [label="gini = 0.0\nsamples = 8\nvalue = [0, 13]\nclass = Torque_max", fillcolor="#399de5"] ;
690 -> 691 ;
692 [label="gini = 0.12\nsamples = 15\nvalue = [2, 28]\nclass = Torque_max", fillcolor="#47a4e7"] ;
690 -> 692 ;
693 [label="Trabajador <= 0.32\ngini = 0.14\nsamples = 37\nvalue = [4, 50]\nclass = Torque_max", fillcolor="#49a5e7"] ;
681 -> 693 ;
694 [label="gini = 0.0\nsamples = 3\nvalue = [0, 4]\nclass = Torque_max", fillcolor="#399de5"] ;
693 -> 694 ;
695 [label="Trabajador <= 0.43\ngini = 0.15\nsamples = 34\nvalue = [4, 46]\nclass = Torque_max", fillcolor="#4aa6e7"] ;
693 -> 695 ;
696 [label="gini = 0.12\nsamples = 20\nvalue = [2, 28]\nclass = Torque_max", fillcolor="#47a4e7"] ;
695 -> 696 ;
697 [label="Modelo <= 0.24\ngini = 0.18\nsamples = 14\nvalue = [2, 18]\nclass = Torque_max", fillcolor="#4fa8e8"] ;
695 -> 697 ;
698 [label="gini = 0.0\nsamples = 1\nvalue = [0, 1]\nclass = Torque_max", fillcolor="#399de5"] ;
697 -> 698 ;
699 [label="gini = 0.19\nsamples = 13\nvalue = [2, 17]\nclass = Torque_max", fillcolor="#50a9e8"] ;
697 -> 699 ;
700 [label="gini = 0.0\nsamples = 27\nvalue = [0, 42]\nclass = Torque_max", fillcolor="#399de5"] ;
680 -> 700 ;
701 [label="Trabajador <= 0.51\ngini = 0.26\nsamples = 23\nvalue = [6, 34]\nclass = Torque_max", fillcolor="#5caeea"] ;
679 -> 701 ;
702 [label="gini = 0.38\nsamples = 10\nvalue = [3, 9]\nclass = Torque_max", fillcolor="#7bbeee"] ;
701 -> 702 ;
703 [label="gini = 0.19\nsamples = 13\nvalue = [3, 25]\nclass = Torque_max", fillcolor="#51a9e8"] ;
701 -> 703 ;
704 [label="gini = 0.0\nsamples = 10\nvalue = [0, 15]\nclass = Torque_max", fillcolor="#399de5"] ;
678 -> 704 ;
705 [label="Modelo <= 0.35\ngini = 0.06\nsamples = 591\nvalue = [28, 887]\nclass = Torque_max", fillcolor="#3fa0e6"] ;
673 -> 705 ;
706 [label="Modelo <= 0.33\ngini = 0.05\nsamples = 507\nvalue = [22, 766]\nclass = Torque_max", fillcolor="#3fa0e6"] ;
705 -> 706 ;
707 [label="Modelo <= 0.3\ngini = 0.06\nsamples = 430\nvalue = [22, 650]\nclass = Torque_max", fillcolor="#40a0e6"] ;
706 -> 707 ;
708 [label="Trabajador <= 0.43\ngini = 0.04\nsamples = 187\nvalue = [6, 274]\nclass = Torque_max", fillcolor="#3d9fe6"] ;
707 -> 708 ;
709 [label="Trabajador <= 0.39\ngini = 0.06\nsamples = 123\nvalue = [6, 176]\nclass = Torque_max", fillcolor="#40a0e6"] ;
708 -> 709 ;
710 [label="Trabajador <= 0.25\ngini = 0.05\nsamples = 119\nvalue = [5, 173]\nclass = Torque_max", fillcolor="#3fa0e6"] ;
709 -> 710 ;
711 [label="Trabajador <= 0.21\ngini = 0.07\nsamples = 68\nvalue = [4, 100]\nclass = Torque_max", fillcolor="#41a1e6"] ;
710 -> 711 ;
712 [label="gini = 0.0\nsamples = 4\nvalue = [0, 9]\nclass = Torque_max", fillcolor="#399de5"] ;
711 -> 712 ;
713 [label="Modelo <= 0.27\ngini = 0.08\nsamples = 64\nvalue = [4, 91]\nclass = Torque_max", fillcolor="#42a1e6"] ;
711 -> 713 ;
714 [label="Modelo <= 0.26\ngini = 0.28\nsamples = 8\nvalue = [2, 10]\nclass = Torque_max", fillcolor="#61b1ea"] ;
713 -> 714 ;
715 [label="gini = 0.0\nsamples = 6\nvalue = [0, 8]\nclass = Torque_max", fillcolor="#399de5"] ;
714 -> 715 ;
716 [label="gini = 0.5\nsamples = 2\nvalue = [2, 2]\nclass = Torque_min", fillcolor="#ffffff"] ;
714 -> 716 ;
717 [label="gini = 0.05\nsamples = 56\nvalue = [2, 81]\nclass = Torque_max", fillcolor="#3e9fe6"] ;
713 -> 717 ;
718 [label="Trabajador <= 0.32\ngini = 0.03\nsamples = 51\nvalue = [1, 73]\nclass = Torque_max", fillcolor="#3c9ee5"] ;
710 -> 718 ;
719 [label="gini = 0.0\nsamples = 11\nvalue = [0, 17]\nclass = Torque_max", fillcolor="#399de5"] ;
718 -> 719 ;
720 [label="Modelo <= 0.26\ngini = 0.03\nsamples = 40\nvalue = [1, 56]\nclass = Torque_max", fillcolor="#3d9fe5"] ;
718 -> 720 ;
721 [label="gini = 0.08\nsamples = 18\nvalue = [1, 24]\nclass = Torque_max", fillcolor="#41a1e6"] ;
720 -> 721 ;
722 [label="gini = 0.0\nsamples = 22\nvalue = [0, 32]\nclass = Torque_max", fillcolor="#399de5"] ;
720 -> 722 ;
723 [label="gini = 0.38\nsamples = 4\nvalue = [1, 3]\nclass = Torque_max", fillcolor="#7bbeee"] ;
709 -> 723 ;
724 [label="gini = 0.0\nsamples = 64\nvalue = [0, 98]\nclass = Torque_max", fillcolor="#399de5"] ;
708 -> 724 ;
725 [label="Trabajador <= 0.39\ngini = 0.08\nsamples = 243\nvalue = [16, 376]\nclass = Torque_max", fillcolor="#41a1e6"] ;
707 -> 725 ;
726 [label="Trabajador <= 0.25\ngini = 0.02\nsamples = 100\nvalue = [2, 173]\nclass = Torque_max", fillcolor="#3b9ee5"] ;
725 -> 726 ;
727 [label="Modelo <= 0.32\ngini = 0.09\nsamples = 26\nvalue = [2, 40]\nclass = Torque_max", fillcolor="#43a2e6"] ;
726 -> 727 ;
728 [label="gini = 0.0\nsamples = 6\nvalue = [0, 11]\nclass = Torque_max", fillcolor="#399de5"] ;
727 -> 728 ;
729 [label="gini = 0.12\nsamples = 20\nvalue = [2, 29]\nclass = Torque_max", fillcolor="#47a4e7"] ;
727 -> 729 ;
730 [label="gini = 0.0\nsamples = 74\nvalue = [0, 133]\nclass = Torque_max", fillcolor="#399de5"] ;
726 -> 730 ;
731 [label="Trabajador <= 0.66\ngini = 0.12\nsamples = 143\nvalue = [14, 203]\nclass = Torque_max", fillcolor="#47a4e7"] ;
725 -> 731 ;
732 [label="Modelo <= 0.32\ngini = 0.17\nsamples = 90\nvalue = [13, 124]\nclass = Torque_max", fillcolor="#4ea7e8"] ;
731 -> 732 ;
733 [label="Trabajador <= 0.61\ngini = 0.21\nsamples = 74\nvalue = [13, 99]\nclass = Torque_max", fillcolor="#53aae8"] ;
732 -> 733 ;
734 [label="Trabajador <= 0.43\ngini = 0.13\nsamples = 55\nvalue = [6, 77]\nclass = Torque_max", fillcolor="#48a5e7"] ;
733 -> 734 ;
735 [label="gini = 0.21\nsamples = 18\nvalue = [3, 22]\nclass = Torque_max", fillcolor="#54aae9"] ;
734 -> 735 ;
736 [label="Trabajador <= 0.55\ngini = 0.1\nsamples = 37\nvalue = [3, 55]\nclass = Torque_max", fillcolor="#44a2e6"] ;
734 -> 736 ;
737 [label="gini = 0.0\nsamples = 8\nvalue = [0, 14]\nclass = Torque_max", fillcolor="#399de5"] ;
736 -> 737 ;
738 [label="gini = 0.13\nsamples = 29\nvalue = [3, 41]\nclass = Torque_max", fillcolor="#47a4e7"] ;
736 -> 738 ;
739 [label="gini = 0.37\nsamples = 19\nvalue = [7, 22]\nclass = Torque_max", fillcolor="#78bced"] ;
733 -> 739 ;
740 [label="gini = 0.0\nsamples = 16\nvalue = [0, 25]\nclass = Torque_max", fillcolor="#399de5"] ;
732 -> 740 ;
741 [label="Trabajador <= 0.69\ngini = 0.02\nsamples = 53\nvalue = [1, 79]\nclass = Torque_max", fillcolor="#3c9ee5"] ;
731 -> 741 ;
742 [label="gini = 0.0\nsamples = 3\nvalue = [0, 4]\nclass = Torque_max", fillcolor="#399de5"] ;
741 -> 742 ;
743 [label="Modelo <= 0.32\ngini = 0.03\nsamples = 50\nvalue = [1, 75]\nclass = Torque_max", fillcolor="#3c9ee5"] ;
741 -> 743 ;
744 [label="gini = 0.03\nsamples = 45\nvalue = [1, 69]\nclass = Torque_max", fillcolor="#3c9ee5"] ;
743 -> 744 ;
745 [label="gini = 0.0\nsamples = 5\nvalue = [0, 6]\nclass = Torque_max", fillcolor="#399de5"] ;
743 -> 745 ;
746 [label="gini = 0.0\nsamples = 77\nvalue = [0, 116]\nclass = Torque_max", fillcolor="#399de5"] ;
706 -> 746 ;
747 [label="Trabajador <= 0.29\ngini = 0.09\nsamples = 84\nvalue = [6, 121]\nclass = Torque_max", fillcolor="#43a2e6"] ;
705 -> 747 ;
748 [label="gini = 0.14\nsamples = 15\nvalue = [2, 24]\nclass = Torque_max", fillcolor="#49a5e7"] ;
747 -> 748 ;
749 [label="Trabajador <= 0.57\ngini = 0.08\nsamples = 69\nvalue = [4, 97]\nclass = Torque_max", fillcolor="#41a1e6"] ;
747 -> 749 ;
750 [label="Trabajador <= 0.43\ngini = 0.04\nsamples = 37\nvalue = [1, 55]\nclass = Torque_max", fillcolor="#3d9fe5"] ;
749 -> 750 ;
751 [label="gini = 0.07\nsamples = 19\nvalue = [1, 28]\nclass = Torque_max", fillcolor="#40a0e6"] ;
750 -> 751 ;
752 [label="gini = 0.0\nsamples = 18\nvalue = [0, 27]\nclass = Torque_max", fillcolor="#399de5"] ;
750 -> 752 ;
753 [label="Trabajador <= 0.64\ngini = 0.12\nsamples = 32\nvalue = [3, 42]\nclass = Torque_max", fillcolor="#47a4e7"] ;
749 -> 753 ;
754 [label="gini = 0.17\nsamples = 14\nvalue = [2, 20]\nclass = Torque_max", fillcolor="#4da7e8"] ;
753 -> 754 ;
755 [label="gini = 0.08\nsamples = 18\nvalue = [1, 22]\nclass = Torque_max", fillcolor="#42a1e6"] ;
753 -> 755 ;
756 [label="Modelo <= 0.33\ngini = 0.16\nsamples = 585\nvalue = [79, 839]\nclass = Torque_max", fillcolor="#4ca6e7"] ;
630 -> 756 ;
757 [label="Modelo <= 0.23\ngini = 0.13\nsamples = 503\nvalue = [55, 723]\nclass = Torque_max", fillcolor="#48a4e7"] ;
756 -> 757 ;
758 [label="Modelo <= 0.21\ngini = 0.16\nsamples = 218\nvalue = [31, 319]\nclass = Torque_max", fillcolor="#4ca7e8"] ;
757 -> 758 ;
759 [label="Modelo <= 0.11\ngini = 0.13\nsamples = 193\nvalue = [22, 287]\nclass = Torque_max", fillcolor="#48a5e7"] ;
758 -> 759 ;
760 [label="gini = 0.22\nsamples = 15\nvalue = [3, 21]\nclass = Torque_max", fillcolor="#55abe9"] ;
759 -> 760 ;
761 [label="Modelo <= 0.16\ngini = 0.12\nsamples = 178\nvalue = [19, 266]\nclass = Torque_max", fillcolor="#47a4e7"] ;
759 -> 761 ;
762 [label="Trabajador <= 0.83\ngini = 0.09\nsamples = 98\nvalue = [7, 138]\nclass = Torque_max", fillcolor="#43a2e6"] ;
761 -> 762 ;
763 [label="gini = 0.0\nsamples = 19\nvalue = [0, 26]\nclass = Torque_max", fillcolor="#399de5"] ;
762 -> 763 ;
764 [label="Modelo <= 0.12\ngini = 0.11\nsamples = 79\nvalue = [7, 112]\nclass = Torque_max", fillcolor="#45a3e7"] ;
762 -> 764 ;
765 [label="Modelo <= 0.11\ngini = 0.12\nsamples = 71\nvalue = [7, 100]\nclass = Torque_max", fillcolor="#47a4e7"] ;
764 -> 765 ;
766 [label="gini = 0.0\nsamples = 1\nvalue = [0, 3]\nclass = Torque_max", fillcolor="#399de5"] ;
765 -> 766 ;
767 [label="Modelo <= 0.12\ngini = 0.13\nsamples = 70\nvalue = [7, 97]\nclass = Torque_max", fillcolor="#47a4e7"] ;
765 -> 767 ;
768 [label="gini = 0.13\nsamples = 51\nvalue = [5, 67]\nclass = Torque_max", fillcolor="#48a4e7"] ;
767 -> 768 ;
769 [label="gini = 0.12\nsamples = 19\nvalue = [2, 30]\nclass = Torque_max", fillcolor="#46a4e7"] ;
767 -> 769 ;
770 [label="gini = 0.0\nsamples = 8\nvalue = [0, 12]\nclass = Torque_max", fillcolor="#399de5"] ;
764 -> 770 ;
771 [label="Trabajador <= 0.89\ngini = 0.16\nsamples = 80\nvalue = [12, 128]\nclass = Torque_max", fillcolor="#4ca6e7"] ;
761 -> 771 ;
772 [label="Trabajador <= 0.86\ngini = 0.16\nsamples = 78\nvalue = [12, 124]\nclass = Torque_max", fillcolor="#4ca6e8"] ;
771 -> 772 ;
773 [label="gini = 0.12\nsamples = 9\nvalue = [1, 15]\nclass = Torque_max", fillcolor="#46a4e7"] ;
772 -> 773 ;
774 [label="Modelo <= 0.18\ngini = 0.17\nsamples = 69\nvalue = [11, 109]\nclass = Torque_max", fillcolor="#4da7e8"] ;
772 -> 774 ;
775 [label="gini = 0.2\nsamples = 33\nvalue = [6, 47]\nclass = Torque_max", fillcolor="#52aae8"] ;
774 -> 775 ;
776 [label="gini = 0.14\nsamples = 36\nvalue = [5, 62]\nclass = Torque_max", fillcolor="#49a5e7"] ;
774 -> 776 ;
777 [label="gini = 0.0\nsamples = 2\nvalue = [0, 4]\nclass = Torque_max", fillcolor="#399de5"] ;
771 -> 777 ;
778 [label="Trabajador <= 0.83\ngini = 0.34\nsamples = 25\nvalue = [9, 32]\nclass = Torque_max", fillcolor="#71b9ec"] ;
758 -> 778 ;
779 [label="gini = 0.36\nsamples = 16\nvalue = [7, 23]\nclass = Torque_max", fillcolor="#75bbed"] ;
778 -> 779 ;
780 [label="gini = 0.3\nsamples = 9\nvalue = [2, 9]\nclass = Torque_max", fillcolor="#65b3eb"] ;
778 -> 780 ;
781 [label="Modelo <= 0.26\ngini = 0.11\nsamples = 285\nvalue = [24, 404]\nclass = Torque_max", fillcolor="#45a3e7"] ;
757 -> 781 ;
782 [label="Trabajador <= 0.83\ngini = 0.08\nsamples = 142\nvalue = [9, 203]\nclass = Torque_max", fillcolor="#42a1e6"] ;
781 -> 782 ;
783 [label="Modelo <= 0.24\ngini = 0.1\nsamples = 29\nvalue = [2, 35]\nclass = Torque_max", fillcolor="#44a3e6"] ;
782 -> 783 ;
784 [label="gini = 0.2\nsamples = 8\nvalue = [1, 8]\nclass = Torque_max", fillcolor="#52a9e8"] ;
783 -> 784 ;
785 [label="Modelo <= 0.26\ngini = 0.07\nsamples = 21\nvalue = [1, 27]\nclass = Torque_max", fillcolor="#40a1e6"] ;
783 -> 785 ;
786 [label="gini = 0.0\nsamples = 3\nvalue = [0, 5]\nclass = Torque_max", fillcolor="#399de5"] ;
785 -> 786 ;
787 [label="gini = 0.08\nsamples = 18\nvalue = [1, 22]\nclass = Torque_max", fillcolor="#42a1e6"] ;
785 -> 787 ;
788 [label="Modelo <= 0.24\ngini = 0.08\nsamples = 113\nvalue = [7, 168]\nclass = Torque_max", fillcolor="#41a1e6"] ;
782 -> 788 ;
789 [label="Modelo <= 0.24\ngini = 0.05\nsamples = 50\nvalue = [2, 76]\nclass = Torque_max", fillcolor="#3ea0e6"] ;
788 -> 789 ;
790 [label="gini = 0.09\nsamples = 26\nvalue = [2, 39]\nclass = Torque_max", fillcolor="#43a2e6"] ;
789 -> 790 ;
791 [label="gini = 0.0\nsamples = 24\nvalue = [0, 37]\nclass = Torque_max", fillcolor="#399de5"] ;
789 -> 791 ;
792 [label="Modelo <= 0.25\ngini = 0.1\nsamples = 63\nvalue = [5, 92]\nclass = Torque_max", fillcolor="#44a2e6"] ;
788 -> 792 ;
793 [label="Modelo <= 0.24\ngini = 0.12\nsamples = 40\nvalue = [4, 56]\nclass = Torque_max", fillcolor="#47a4e7"] ;
792 -> 793 ;
794 [label="gini = 0.11\nsamples = 24\nvalue = [2, 33]\nclass = Torque_max", fillcolor="#45a3e7"] ;
793 -> 794 ;
795 [label="gini = 0.15\nsamples = 16\nvalue = [2, 23]\nclass = Torque_max", fillcolor="#4aa6e7"] ;
793 -> 795 ;
796 [label="Modelo <= 0.25\ngini = 0.05\nsamples = 23\nvalue = [1, 36]\nclass = Torque_max", fillcolor="#3ea0e6"] ;
792 -> 796 ;
797 [label="gini = 0.0\nsamples = 5\nvalue = [0, 6]\nclass = Torque_max", fillcolor="#399de5"] ;
796 -> 797 ;
798 [label="gini = 0.06\nsamples = 18\nvalue = [1, 30]\nclass = Torque_max", fillcolor="#40a0e6"] ;
796 -> 798 ;
799 [label="Trabajador <= 0.85\ngini = 0.13\nsamples = 143\nvalue = [15, 201]\nclass = Torque_max", fillcolor="#48a4e7"] ;
781 -> 799 ;
800 [label="Trabajador <= 0.82\ngini = 0.1\nsamples = 47\nvalue = [4, 74]\nclass = Torque_max", fillcolor="#44a2e6"] ;
799 -> 800 ;
801 [label="Modelo <= 0.3\ngini = 0.1\nsamples = 46\nvalue = [4, 72]\nclass = Torque_max", fillcolor="#44a2e6"] ;
800 -> 801 ;
802 [label="gini = 0.2\nsamples = 7\nvalue = [1, 8]\nclass = Torque_max", fillcolor="#52a9e8"] ;
801 -> 802 ;
803 [label="gini = 0.09\nsamples = 39\nvalue = [3, 64]\nclass = Torque_max", fillcolor="#42a2e6"] ;
801 -> 803 ;
804 [label="gini = 0.0\nsamples = 1\nvalue = [0, 2]\nclass = Torque_max", fillcolor="#399de5"] ;
800 -> 804 ;
805 [label="Modelo <= 0.3\ngini = 0.15\nsamples = 96\nvalue = [11, 127]\nclass = Torque_max", fillcolor="#4aa5e7"] ;
799 -> 805 ;
806 [label="Modelo <= 0.27\ngini = 0.23\nsamples = 46\nvalue = [9, 60]\nclass = Torque_max", fillcolor="#57ace9"] ;
805 -> 806 ;
807 [label="gini = 0.25\nsamples = 23\nvalue = [5, 29]\nclass = Torque_max", fillcolor="#5baee9"] ;
806 -> 807 ;
808 [label="gini = 0.2\nsamples = 23\nvalue = [4, 31]\nclass = Torque_max", fillcolor="#53aae8"] ;
806 -> 808 ;
809 [label="Modelo <= 0.32\ngini = 0.06\nsamples = 50\nvalue = [2, 67]\nclass = Torque_max", fillcolor="#3fa0e6"] ;
805 -> 809 ;
810 [label="gini = 0.0\nsamples = 26\nvalue = [0, 37]\nclass = Torque_max", fillcolor="#399de5"] ;
809 -> 810 ;
811 [label="gini = 0.12\nsamples = 24\nvalue = [2, 30]\nclass = Torque_max", fillcolor="#46a4e7"] ;
809 -> 811 ;
812 [label="Trabajador <= 0.86\ngini = 0.28\nsamples = 82\nvalue = [24, 116]\nclass = Torque_max", fillcolor="#62b1ea"] ;
756 -> 812 ;
813 [label="gini = 0.0\nsamples = 8\nvalue = [0, 18]\nclass = Torque_max", fillcolor="#399de5"] ;
812 -> 813 ;
814 [label="Modelo <= 0.34\ngini = 0.32\nsamples = 74\nvalue = [24, 98]\nclass = Torque_max", fillcolor="#69b5eb"] ;
812 -> 814 ;
815 [label="gini = 0.34\nsamples = 59\nvalue = [22, 78]\nclass = Torque_max", fillcolor="#71b9ec"] ;
814 -> 815 ;
816 [label="gini = 0.17\nsamples = 15\nvalue = [2, 20]\nclass = Torque_max", fillcolor="#4da7e8"] ;
814 -> 816 ;
