digraph Tree {
node [shape=box, style="filled, rounded", color="black", fontname=helvetica] ;
edge [fontname=helvetica] ;
0 [label="Angle_max <= 0.26\ngini = 0.11\nsamples = 86407\nvalue = [8310, 128618]\nclass = Torque_max", fillcolor="#46a3e7"] ;
1 [label="Pset_name_cat <= 0.08\ngini = 0.21\nsamples = 25939\nvalue = [4887, 36079]\nclass = Torque_max", fillcolor="#54aae9"] ;
0 -> 1 [labeldistance=2.5, labelangle=45, headlabel="True"] ;
2 [label="Trabajador <= 0.64\ngini = 0.4\nsamples = 4771\nvalue = [2044, 5475]\nclass = Torque_max", fillcolor="#83c2ef"] ;
1 -> 2 ;
3 [label="Trabajador <= 0.08\ngini = 0.42\nsamples = 3959\nvalue = [1834, 4401]\nclass = Torque_max", fillcolor="#8cc6f0"] ;
2 -> 3 ;
4 [label="Torque_max <= 0.56\ngini = 0.47\nsamples = 555\nvalue = [338, 542]\nclass = Torque_max", fillcolor="#b4daf5"] ;
3 -> 4 ;
5 [label="Modelo <= 0.54\ngini = 0.48\nsamples = 510\nvalue = [319, 494]\nclass = Torque_max", fillcolor="#b9dcf6"] ;
4 -> 5 ;
6 [label="Modelo <= 0.53\ngini = 0.46\nsamples = 299\nvalue = [171, 308]\nclass = Torque_max", fillcolor="#a7d3f3"] ;
5 -> 6 ;
7 [label="Modelo <= 0.25\ngini = 0.46\nsamples = 282\nvalue = [164, 288]\nclass = Torque_max", fillcolor="#aad5f4"] ;
6 -> 7 ;
8 [label="gini = 0.43\nsamples = 17\nvalue = [9, 20]\nclass = Torque_max", fillcolor="#92c9f1"] ;
7 -> 8 ;
9 [label="Modelo <= 0.36\ngini = 0.46\nsamples = 265\nvalue = [155, 268]\nclass = Torque_max", fillcolor="#acd6f4"] ;
7 -> 9 ;
10 [label="Trabajador <= 0.07\ngini = 0.48\nsamples = 24\nvalue = [17, 26]\nclass = Torque_max", fillcolor="#baddf6"] ;
9 -> 10 ;
11 [label="gini = 0.43\nsamples = 12\nvalue = [6, 13]\nclass = Torque_max", fillcolor="#94caf1"] ;
10 -> 11 ;
12 [label="gini = 0.5\nsamples = 12\nvalue = [11, 13]\nclass = Torque_max", fillcolor="#e1f0fb"] ;
10 -> 12 ;
13 [label="Modelo <= 0.45\ngini = 0.46\nsamples = 241\nvalue = [138, 242]\nclass = Torque_max", fillcolor="#aad5f4"] ;
9 -> 13 ;
14 [label="gini = 0.46\nsamples = 210\nvalue = [120, 208]\nclass = Torque_max", fillcolor="#abd6f4"] ;
13 -> 14 ;
15 [label="gini = 0.45\nsamples = 31\nvalue = [18, 34]\nclass = Torque_max", fillcolor="#a2d1f3"] ;
13 -> 15 ;
16 [label="gini = 0.38\nsamples = 17\nvalue = [7, 20]\nclass = Torque_max", fillcolor="#7ebfee"] ;
6 -> 16 ;
17 [label="Modelo <= 0.55\ngini = 0.49\nsamples = 211\nvalue = [148, 186]\nclass = Torque_max", fillcolor="#d7ebfa"] ;
5 -> 17 ;
18 [label="gini = 0.49\nsamples = 172\nvalue = [114, 155]\nclass = Torque_max", fillcolor="#cbe5f8"] ;
17 -> 18 ;
19 [label="gini = 0.5\nsamples = 39\nvalue = [34, 31]\nclass = Torque_min", fillcolor="#fdf4ee"] ;
17 -> 19 ;
20 [label="Modelo <= 0.4\ngini = 0.41\nsamples = 45\nvalue = [19, 48]\nclass = Torque_max", fillcolor="#87c4ef"] ;
4 -> 20 ;
21 [label="gini = 0.33\nsamples = 28\nvalue = [9, 34]\nclass = Torque_max", fillcolor="#6db7ec"] ;
20 -> 21 ;
22 [label="gini = 0.49\nsamples = 17\nvalue = [10, 14]\nclass = Torque_max", fillcolor="#c6e3f8"] ;
20 -> 22 ;
23 [label="Trabajador <= 0.36\ngini = 0.4\nsamples = 3404\nvalue = [1496, 3859]\nclass = Torque_max", fillcolor="#86c3ef"] ;
3 -> 23 ;
24 [label="Trabajador <= 0.29\ngini = 0.35\nsamples = 1203\nvalue = [428, 1441]\nclass = Torque_max", fillcolor="#74baed"] ;
23 -> 24 ;
25 [label="Angle_min <= 0.0\ngini = 0.41\nsamples = 721\nvalue = [323, 801]\nclass = Torque_max", fillcolor="#89c5ef"] ;
24 -> 25 ;
26 [label="Modelo <= 0.6\ngini = 0.47\nsamples = 216\nvalue = [130, 213]\nclass = Torque_max", fillcolor="#b2d9f5"] ;
25 -> 26 ;
27 [label="Trabajador <= 0.16\ngini = 0.5\nsamples = 80\nvalue = [62, 63]\nclass = Torque_max", fillcolor="#fcfdff"] ;
26 -> 27 ;
28 [label="Modelo <= 0.46\ngini = 0.27\nsamples = 14\nvalue = [21, 4]\nclass = Torque_min", fillcolor="#ea995f"] ;
27 -> 28 ;
29 [label="gini = 0.0\nsamples = 1\nvalue = [0, 2]\nclass = Torque_max", fillcolor="#399de5"] ;
28 -> 29 ;
30 [label="gini = 0.16\nsamples = 13\nvalue = [21, 2]\nclass = Torque_min", fillcolor="#e78d4c"] ;
28 -> 30 ;
31 [label="Modelo <= 0.26\ngini = 0.48\nsamples = 66\nvalue = [41, 59]\nclass = Torque_max", fillcolor="#c3e1f7"] ;
27 -> 31 ;
32 [label="gini = 0.5\nsamples = 10\nvalue = [7, 7]\nclass = Torque_min", fillcolor="#ffffff"] ;
31 -> 32 ;
33 [label="gini = 0.48\nsamples = 56\nvalue = [34, 52]\nclass = Torque_max", fillcolor="#baddf6"] ;
31 -> 33 ;
34 [label="Modelo <= 0.66\ngini = 0.43\nsamples = 136\nvalue = [68, 150]\nclass = Torque_max", fillcolor="#93c9f1"] ;
26 -> 34 ;
35 [label="gini = 0.46\nsamples = 61\nvalue = [33, 59]\nclass = Torque_max", fillcolor="#a8d4f4"] ;
34 -> 35 ;
36 [label="Trabajador <= 0.13\ngini = 0.4\nsamples = 75\nvalue = [35, 91]\nclass = Torque_max", fillcolor="#85c3ef"] ;
34 -> 36 ;
37 [label="Modelo <= 0.71\ngini = 0.41\nsamples = 60\nvalue = [30, 75]\nclass = Torque_max", fillcolor="#88c4ef"] ;
36 -> 37 ;
38 [label="Modelo <= 0.69\ngini = 0.42\nsamples = 57\nvalue = [30, 69]\nclass = Torque_max", fillcolor="#8fc8f0"] ;
37 -> 38 ;
39 [label="gini = 0.42\nsamples = 55\nvalue = [29, 67]\nclass = Torque_max", fillcolor="#8fc7f0"] ;
38 -> 39 ;
40 [label="gini = 0.44\nsamples = 2\nvalue = [1, 2]\nclass = Torque_max", fillcolor="#9ccef2"] ;
38 -> 40 ;
41 [label="gini = 0.0\nsamples = 3\nvalue = [0, 6]\nclass = Torque_max", fillcolor="#399de5"] ;
37 -> 41 ;
42 [label="Modelo <= 0.7\ngini = 0.36\nsamples = 15\nvalue = [5, 16]\nclass = Torque_max", fillcolor="#77bced"] ;
36 -> 42 ;
43 [label="gini = 0.15\nsamples = 7\nvalue = [1, 11]\nclass = Torque_max", fillcolor="#4ba6e7"] ;
42 -> 43 ;
44 [label="gini = 0.49\nsamples = 8\nvalue = [4, 5]\nclass = Torque_max", fillcolor="#d7ebfa"] ;
42 -> 44 ;
45 [label="Trabajador <= 0.14\ngini = 0.37\nsamples = 505\nvalue = [193, 588]\nclass = Torque_max", fillcolor="#7abdee"] ;
25 -> 45 ;
46 [label="Modelo <= 0.79\ngini = 0.09\nsamples = 28\nvalue = [2, 41]\nclass = Torque_max", fillcolor="#43a2e6"] ;
45 -> 46 ;
47 [label="gini = 0.0\nsamples = 22\nvalue = [0, 35]\nclass = Torque_max", fillcolor="#399de5"] ;
46 -> 47 ;
48 [label="gini = 0.38\nsamples = 6\nvalue = [2, 6]\nclass = Torque_max", fillcolor="#7bbeee"] ;
46 -> 48 ;
49 [label="Modelo <= 0.5\ngini = 0.38\nsamples = 477\nvalue = [191, 547]\nclass = Torque_max", fillcolor="#7ebfee"] ;
45 -> 49 ;
50 [label="Modelo <= 0.41\ngini = 0.43\nsamples = 288\nvalue = [138, 306]\nclass = Torque_max", fillcolor="#92c9f1"] ;
49 -> 50 ;
51 [label="Pset_name_cat <= 0.02\ngini = 0.42\nsamples = 273\nvalue = [127, 295]\nclass = Torque_max", fillcolor="#8ec7f0"] ;
50 -> 51 ;
52 [label="gini = 0.0\nsamples = 1\nvalue = [0, 1]\nclass = Torque_max", fillcolor="#399de5"] ;
51 -> 52 ;
53 [label="Torque_max <= 0.57\ngini = 0.42\nsamples = 272\nvalue = [127, 294]\nclass = Torque_max", fillcolor="#8fc7f0"] ;
51 -> 53 ;
54 [label="Modelo <= 0.08\ngini = 0.41\nsamples = 44\nvalue = [19, 48]\nclass = Torque_max", fillcolor="#87c4ef"] ;
53 -> 54 ;
55 [label="Modelo <= 0.04\ngini = 0.46\nsamples = 33\nvalue = [19, 33]\nclass = Torque_max", fillcolor="#abd5f4"] ;
54 -> 55 ;
56 [label="Modelo <= 0.03\ngini = 0.33\nsamples = 14\nvalue = [4, 15]\nclass = Torque_max", fillcolor="#6eb7ec"] ;
55 -> 56 ;
57 [label="gini = 0.4\nsamples = 8\nvalue = [3, 8]\nclass = Torque_max", fillcolor="#83c2ef"] ;
56 -> 57 ;
58 [label="gini = 0.22\nsamples = 6\nvalue = [1, 7]\nclass = Torque_max", fillcolor="#55abe9"] ;
56 -> 58 ;
59 [label="Modelo <= 0.06\ngini = 0.5\nsamples = 19\nvalue = [15, 18]\nclass = Torque_max", fillcolor="#deeffb"] ;
55 -> 59 ;
60 [label="gini = 0.5\nsamples = 14\nvalue = [12, 10]\nclass = Torque_min", fillcolor="#fbeade"] ;
59 -> 60 ;
61 [label="gini = 0.4\nsamples = 5\nvalue = [3, 8]\nclass = Torque_max", fillcolor="#83c2ef"] ;
59 -> 61 ;
62 [label="gini = 0.0\nsamples = 11\nvalue = [0, 15]\nclass = Torque_max", fillcolor="#399de5"] ;
54 -> 62 ;
63 [label="gini = 0.42\nsamples = 228\nvalue = [108, 246]\nclass = Torque_max", fillcolor="#90c8f0"] ;
53 -> 63 ;
64 [label="gini = 0.5\nsamples = 15\nvalue = [11, 11]\nclass = Torque_min", fillcolor="#ffffff"] ;
50 -> 64 ;
65 [label="Modelo <= 0.81\ngini = 0.3\nsamples = 189\nvalue = [53, 241]\nclass = Torque_max", fillcolor="#65b3eb"] ;
49 -> 65 ;
66 [label="Modelo <= 0.6\ngini = 0.19\nsamples = 70\nvalue = [11, 94]\nclass = Torque_max", fillcolor="#50a8e8"] ;
65 -> 66 ;
67 [label="Modelo <= 0.59\ngini = 0.06\nsamples = 23\nvalue = [1, 30]\nclass = Torque_max", fillcolor="#40a0e6"] ;
66 -> 67 ;
68 [label="Modelo <= 0.59\ngini = 0.08\nsamples = 19\nvalue = [1, 24]\nclass = Torque_max", fillcolor="#41a1e6"] ;
67 -> 68 ;
69 [label="gini = 0.0\nsamples = 1\nvalue = [0, 1]\nclass = Torque_max", fillcolor="#399de5"] ;
68 -> 69 ;
70 [label="gini = 0.08\nsamples = 18\nvalue = [1, 23]\nclass = Torque_max", fillcolor="#42a1e6"] ;
68 -> 70 ;
71 [label="gini = 0.0\nsamples = 4\nvalue = [0, 6]\nclass = Torque_max", fillcolor="#399de5"] ;
67 -> 71 ;
72 [label="Modelo <= 0.62\ngini = 0.23\nsamples = 47\nvalue = [10, 64]\nclass = Torque_max", fillcolor="#58ace9"] ;
66 -> 72 ;
73 [label="Modelo <= 0.6\ngini = 0.25\nsamples = 42\nvalue = [10, 59]\nclass = Torque_max", fillcolor="#5baee9"] ;
72 -> 73 ;
74 [label="gini = 0.29\nsamples = 18\nvalue = [5, 24]\nclass = Torque_max", fillcolor="#62b1ea"] ;
73 -> 74 ;
75 [label="Modelo <= 0.62\ngini = 0.22\nsamples = 24\nvalue = [5, 35]\nclass = Torque_max", fillcolor="#55abe9"] ;
73 -> 75 ;
76 [label="Modelo <= 0.61\ngini = 0.2\nsamples = 20\nvalue = [4, 31]\nclass = Torque_max", fillcolor="#53aae8"] ;
75 -> 76 ;
77 [label="gini = 0.18\nsamples = 11\nvalue = [2, 18]\nclass = Torque_max", fillcolor="#4fa8e8"] ;
76 -> 77 ;
78 [label="gini = 0.23\nsamples = 9\nvalue = [2, 13]\nclass = Torque_max", fillcolor="#57ace9"] ;
76 -> 78 ;
79 [label="gini = 0.32\nsamples = 4\nvalue = [1, 4]\nclass = Torque_max", fillcolor="#6ab6ec"] ;
75 -> 79 ;
80 [label="gini = 0.0\nsamples = 5\nvalue = [0, 5]\nclass = Torque_max", fillcolor="#399de5"] ;
72 -> 80 ;
81 [label="Modelo <= 0.99\ngini = 0.35\nsamples = 119\nvalue = [42, 147]\nclass = Torque_max", fillcolor="#72b9ec"] ;
65 -> 81 ;
82 [label="gini = 0.37\nsamples = 96\nvalue = [37, 115]\nclass = Torque_max", fillcolor="#79bded"] ;
81 -> 82 ;
83 [label="gini = 0.23\nsamples = 23\nvalue = [5, 32]\nclass = Torque_max", fillcolor="#58ace9"] ;
81 -> 83 ;
84 [label="Angle_max <= 0.08\ngini = 0.24\nsamples = 482\nvalue = [105, 640]\nclass = Torque_max", fillcolor="#59ade9"] ;
24 -> 84 ;
85 [label="gini = 0.44\nsamples = 117\nvalue = [57, 119]\nclass = Torque_max", fillcolor="#98ccf1"] ;
84 -> 85 ;
86 [label="Modelo <= 0.09\ngini = 0.15\nsamples = 365\nvalue = [48, 521]\nclass = Torque_max", fillcolor="#4ba6e7"] ;
84 -> 86 ;
87 [label="Pset_name_cat <= 0.07\ngini = 0.4\nsamples = 42\nvalue = [19, 50]\nclass = Torque_max", fillcolor="#84c2ef"] ;
86 -> 87 ;
88 [label="gini = 0.0\nsamples = 2\nvalue = [0, 3]\nclass = Torque_max", fillcolor="#399de5"] ;
87 -> 88 ;
89 [label="Trabajador <= 0.34\ngini = 0.41\nsamples = 40\nvalue = [19, 47]\nclass = Torque_max", fillcolor="#89c5f0"] ;
87 -> 89 ;
90 [label="gini = 0.0\nsamples = 1\nvalue = [0, 2]\nclass = Torque_max", fillcolor="#399de5"] ;
89 -> 90 ;
91 [label="gini = 0.42\nsamples = 39\nvalue = [19, 45]\nclass = Torque_max", fillcolor="#8dc6f0"] ;
89 -> 91 ;
92 [label="Modelo <= 0.38\ngini = 0.11\nsamples = 323\nvalue = [29, 471]\nclass = Torque_max", fillcolor="#45a3e7"] ;
86 -> 92 ;
93 [label="Modelo <= 0.26\ngini = 0.16\nsamples = 112\nvalue = [15, 157]\nclass = Torque_max", fillcolor="#4ca6e7"] ;
92 -> 93 ;
94 [label="Modelo <= 0.09\ngini = 0.05\nsamples = 25\nvalue = [1, 38]\nclass = Torque_max", fillcolor="#3ea0e6"] ;
93 -> 94 ;
95 [label="gini = 0.0\nsamples = 6\nvalue = [0, 13]\nclass = Torque_max", fillcolor="#399de5"] ;
94 -> 95 ;
96 [label="Modelo <= 0.12\ngini = 0.07\nsamples = 19\nvalue = [1, 25]\nclass = Torque_max", fillcolor="#41a1e6"] ;
94 -> 96 ;
97 [label="gini = 0.1\nsamples = 13\nvalue = [1, 17]\nclass = Torque_max", fillcolor="#45a3e7"] ;
96 -> 97 ;
98 [label="gini = 0.0\nsamples = 6\nvalue = [0, 8]\nclass = Torque_max", fillcolor="#399de5"] ;
96 -> 98 ;
99 [label="gini = 0.19\nsamples = 87\nvalue = [14, 119]\nclass = Torque_max", fillcolor="#50a9e8"] ;
93 -> 99 ;
100 [label="Trabajador <= 0.31\ngini = 0.08\nsamples = 211\nvalue = [14, 314]\nclass = Torque_max", fillcolor="#42a1e6"] ;
92 -> 100 ;
101 [label="gini = 0.1\nsamples = 63\nvalue = [5, 86]\nclass = Torque_max", fillcolor="#45a3e7"] ;
100 -> 101 ;
102 [label="Modelo <= 0.39\ngini = 0.07\nsamples = 148\nvalue = [9, 228]\nclass = Torque_max", fillcolor="#41a1e6"] ;
100 -> 102 ;
103 [label="Modelo <= 0.39\ngini = 0.1\nsamples = 50\nvalue = [4, 75]\nclass = Torque_max", fillcolor="#44a2e6"] ;
102 -> 103 ;
104 [label="Modelo <= 0.39\ngini = 0.09\nsamples = 43\nvalue = [3, 64]\nclass = Torque_max", fillcolor="#42a2e6"] ;
103 -> 104 ;
105 [label="Trabajador <= 0.34\ngini = 0.08\nsamples = 29\nvalue = [2, 45]\nclass = Torque_max", fillcolor="#42a1e6"] ;
104 -> 105 ;
106 [label="gini = 0.0\nsamples = 1\nvalue = [0, 1]\nclass = Torque_max", fillcolor="#399de5"] ;
105 -> 106 ;
107 [label="gini = 0.08\nsamples = 28\nvalue = [2, 44]\nclass = Torque_max", fillcolor="#42a1e6"] ;
105 -> 107 ;
108 [label="gini = 0.09\nsamples = 14\nvalue = [1, 19]\nclass = Torque_max", fillcolor="#43a2e6"] ;
104 -> 108 ;
109 [label="gini = 0.15\nsamples = 7\nvalue = [1, 11]\nclass = Torque_max", fillcolor="#4ba6e7"] ;
103 -> 109 ;
110 [label="Modelo <= 0.53\ngini = 0.06\nsamples = 98\nvalue = [5, 153]\nclass = Torque_max", fillcolor="#3fa0e6"] ;
102 -> 110 ;
111 [label="gini = 0.0\nsamples = 22\nvalue = [0, 39]\nclass = Torque_max", fillcolor="#399de5"] ;
110 -> 111 ;
112 [label="Modelo <= 0.54\ngini = 0.08\nsamples = 76\nvalue = [5, 114]\nclass = Torque_max", fillcolor="#42a1e6"] ;
110 -> 112 ;
113 [label="gini = 0.08\nsamples = 31\nvalue = [2, 48]\nclass = Torque_max", fillcolor="#41a1e6"] ;
112 -> 113 ;
114 [label="gini = 0.08\nsamples = 45\nvalue = [3, 66]\nclass = Torque_max", fillcolor="#42a1e6"] ;
112 -> 114 ;
115 [label="Pset_name_cat <= 0.04\ngini = 0.43\nsamples = 2201\nvalue = [1068, 2418]\nclass = Torque_max", fillcolor="#90c8f0"] ;
23 -> 115 ;
116 [label="Trabajador <= 0.43\ngini = 0.45\nsamples = 1398\nvalue = [736, 1461]\nclass = Torque_max", fillcolor="#9dcef2"] ;
115 -> 116 ;
117 [label="Modelo <= 0.59\ngini = 0.5\nsamples = 68\nvalue = [58, 57]\nclass = Torque_min", fillcolor="#fffdfc"] ;
116 -> 117 ;
118 [label="Modelo <= 0.4\ngini = 0.5\nsamples = 57\nvalue = [45, 53]\nclass = Torque_max", fillcolor="#e1f0fb"] ;
117 -> 118 ;
119 [label="gini = 0.5\nsamples = 53\nvalue = [44, 46]\nclass = Torque_max", fillcolor="#f6fbfe"] ;
118 -> 119 ;
120 [label="Modelo <= 0.51\ngini = 0.22\nsamples = 4\nvalue = [1, 7]\nclass = Torque_max", fillcolor="#55abe9"] ;
118 -> 120 ;
121 [label="gini = 0.32\nsamples = 3\nvalue = [1, 4]\nclass = Torque_max", fillcolor="#6ab6ec"] ;
120 -> 121 ;
122 [label="gini = 0.0\nsamples = 1\nvalue = [0, 3]\nclass = Torque_max", fillcolor="#399de5"] ;
120 -> 122 ;
123 [label="Trabajador <= 0.4\ngini = 0.36\nsamples = 11\nvalue = [13, 4]\nclass = Torque_min", fillcolor="#eda876"] ;
117 -> 123 ;
124 [label="Modelo <= 0.6\ngini = 0.39\nsamples = 10\nvalue = [11, 4]\nclass = Torque_min", fillcolor="#eeaf81"] ;
123 -> 124 ;
125 [label="gini = 0.35\nsamples = 7\nvalue = [7, 2]\nclass = Torque_min", fillcolor="#eca572"] ;
124 -> 125 ;
126 [label="gini = 0.44\nsamples = 3\nvalue = [4, 2]\nclass = Torque_min", fillcolor="#f2c09c"] ;
124 -> 126 ;
127 [label="gini = 0.0\nsamples = 1\nvalue = [2, 0]\nclass = Torque_min", fillcolor="#e58139"] ;
123 -> 127 ;
128 [label="Pset_name_cat <= 0.03\ngini = 0.44\nsamples = 1330\nvalue = [678, 1404]\nclass = Torque_max", fillcolor="#99ccf2"] ;
116 -> 128 ;
129 [label="gini = 0.0\nsamples = 10\nvalue = [0, 17]\nclass = Torque_max", fillcolor="#399de5"] ;
128 -> 129 ;
130 [label="Trabajador <= 0.44\ngini = 0.44\nsamples = 1320\nvalue = [678, 1387]\nclass = Torque_max", fillcolor="#9acdf2"] ;
128 -> 130 ;
131 [label="Modelo <= 0.59\ngini = 0.42\nsamples = 619\nvalue = [291, 680]\nclass = Torque_max", fillcolor="#8ec7f0"] ;
130 -> 131 ;
132 [label="Modelo <= 0.57\ngini = 0.4\nsamples = 397\nvalue = [169, 441]\nclass = Torque_max", fillcolor="#85c3ef"] ;
131 -> 132 ;
133 [label="Modelo <= 0.49\ngini = 0.4\nsamples = 387\nvalue = [168, 430]\nclass = Torque_max", fillcolor="#86c3ef"] ;
132 -> 133 ;
134 [label="Modelo <= 0.4\ngini = 0.4\nsamples = 375\nvalue = [157, 413]\nclass = Torque_max", fillcolor="#84c2ef"] ;
133 -> 134 ;
135 [label="gini = 0.4\nsamples = 358\nvalue = [154, 393]\nclass = Torque_max", fillcolor="#87c3ef"] ;
134 -> 135 ;
136 [label="gini = 0.23\nsamples = 17\nvalue = [3, 20]\nclass = Torque_max", fillcolor="#57ace9"] ;
134 -> 136 ;
137 [label="gini = 0.48\nsamples = 12\nvalue = [11, 17]\nclass = Torque_max", fillcolor="#b9dcf6"] ;
133 -> 137 ;
138 [label="gini = 0.15\nsamples = 10\nvalue = [1, 11]\nclass = Torque_max", fillcolor="#4ba6e7"] ;
132 -> 138 ;
139 [label="Modelo <= 0.62\ngini = 0.45\nsamples = 222\nvalue = [122, 239]\nclass = Torque_max", fillcolor="#9ecff2"] ;
131 -> 139 ;
140 [label="Modelo <= 0.61\ngini = 0.46\nsamples = 123\nvalue = [72, 129]\nclass = Torque_max", fillcolor="#a8d4f4"] ;
139 -> 140 ;
141 [label="Modelo <= 0.6\ngini = 0.44\nsamples = 116\nvalue = [62, 126]\nclass = Torque_max", fillcolor="#9acdf2"] ;
140 -> 141 ;
142 [label="Modelo <= 0.59\ngini = 0.46\nsamples = 72\nvalue = [44, 79]\nclass = Torque_max", fillcolor="#a7d4f3"] ;
141 -> 142 ;
143 [label="gini = 0.44\nsamples = 67\nvalue = [37, 76]\nclass = Torque_max", fillcolor="#99cdf2"] ;
142 -> 143 ;
144 [label="gini = 0.42\nsamples = 5\nvalue = [7, 3]\nclass = Torque_min", fillcolor="#f0b78e"] ;
142 -> 144 ;
145 [label="Modelo <= 0.6\ngini = 0.4\nsamples = 44\nvalue = [18, 47]\nclass = Torque_max", fillcolor="#85c3ef"] ;
141 -> 145 ;
146 [label="gini = 0.4\nsamples = 37\nvalue = [15, 40]\nclass = Torque_max", fillcolor="#83c2ef"] ;
145 -> 146 ;
147 [label="gini = 0.42\nsamples = 7\nvalue = [3, 7]\nclass = Torque_max", fillcolor="#8ec7f0"] ;
145 -> 147 ;
148 [label="Modelo <= 0.62\ngini = 0.36\nsamples = 7\nvalue = [10, 3]\nclass = Torque_min", fillcolor="#eda774"] ;
140 -> 148 ;
149 [label="gini = 0.38\nsamples = 5\nvalue = [6, 2]\nclass = Torque_min", fillcolor="#eeab7b"] ;
148 -> 149 ;
150 [label="gini = 0.32\nsamples = 2\nvalue = [4, 1]\nclass = Torque_min", fillcolor="#eca06a"] ;
148 -> 150 ;
151 [label="Modelo <= 0.81\ngini = 0.43\nsamples = 99\nvalue = [50, 110]\nclass = Torque_max", fillcolor="#93caf1"] ;
139 -> 151 ;
152 [label="Modelo <= 0.63\ngini = 0.14\nsamples = 8\nvalue = [1, 12]\nclass = Torque_max", fillcolor="#49a5e7"] ;
151 -> 152 ;
153 [label="gini = 0.0\nsamples = 4\nvalue = [0, 7]\nclass = Torque_max", fillcolor="#399de5"] ;
152 -> 153 ;
154 [label="gini = 0.28\nsamples = 4\nvalue = [1, 5]\nclass = Torque_max", fillcolor="#61b1ea"] ;
152 -> 154 ;
155 [label="Modelo <= 1.0\ngini = 0.44\nsamples = 91\nvalue = [49, 98]\nclass = Torque_max", fillcolor="#9ccef2"] ;
151 -> 155 ;
156 [label="gini = 0.43\nsamples = 35\nvalue = [15, 32]\nclass = Torque_max", fillcolor="#96cbf1"] ;
155 -> 156 ;
157 [label="gini = 0.45\nsamples = 56\nvalue = [34, 66]\nclass = Torque_max", fillcolor="#9fcff2"] ;
155 -> 157 ;
158 [label="Angle_min <= 0.0\ngini = 0.46\nsamples = 701\nvalue = [387, 707]\nclass = Torque_max", fillcolor="#a5d3f3"] ;
130 -> 158 ;
159 [label="Modelo <= 0.46\ngini = 0.44\nsamples = 235\nvalue = [115, 238]\nclass = Torque_max", fillcolor="#99ccf2"] ;
158 -> 159 ;
160 [label="Modelo <= 0.36\ngini = 0.46\nsamples = 142\nvalue = [79, 136]\nclass = Torque_max", fillcolor="#acd6f4"] ;
159 -> 160 ;
161 [label="Trabajador <= 0.5\ngini = 0.38\nsamples = 28\nvalue = [11, 33]\nclass = Torque_max", fillcolor="#7bbeee"] ;
160 -> 161 ;
162 [label="gini = 0.38\nsamples = 25\nvalue = [10, 30]\nclass = Torque_max", fillcolor="#7bbeee"] ;
161 -> 162 ;
163 [label="gini = 0.38\nsamples = 3\nvalue = [1, 3]\nclass = Torque_max", fillcolor="#7bbeee"] ;
161 -> 163 ;
164 [label="Trabajador <= 0.54\ngini = 0.48\nsamples = 114\nvalue = [68, 103]\nclass = Torque_max", fillcolor="#bcdef6"] ;
160 -> 164 ;
165 [label="gini = 0.49\nsamples = 81\nvalue = [51, 72]\nclass = Torque_max", fillcolor="#c5e2f7"] ;
164 -> 165 ;
166 [label="gini = 0.46\nsamples = 33\nvalue = [17, 31]\nclass = Torque_max", fillcolor="#a6d3f3"] ;
164 -> 166 ;
167 [label="Modelo <= 0.54\ngini = 0.39\nsamples = 93\nvalue = [36, 102]\nclass = Torque_max", fillcolor="#7fc0ee"] ;
159 -> 167 ;
168 [label="gini = 0.0\nsamples = 2\nvalue = [0, 2]\nclass = Torque_max", fillcolor="#399de5"] ;
167 -> 168 ;
169 [label="Trabajador <= 0.6\ngini = 0.39\nsamples = 91\nvalue = [36, 100]\nclass = Torque_max", fillcolor="#80c0ee"] ;
167 -> 169 ;
170 [label="Trabajador <= 0.5\ngini = 0.46\nsamples = 68\nvalue = [36, 63]\nclass = Torque_max", fillcolor="#aad5f4"] ;
169 -> 170 ;
171 [label="gini = 0.48\nsamples = 53\nvalue = [30, 45]\nclass = Torque_max", fillcolor="#bddef6"] ;
170 -> 171 ;
172 [label="Modelo <= 0.63\ngini = 0.38\nsamples = 15\nvalue = [6, 18]\nclass = Torque_max", fillcolor="#7bbeee"] ;
170 -> 172 ;
173 [label="gini = 0.33\nsamples = 11\nvalue = [4, 15]\nclass = Torque_max", fillcolor="#6eb7ec"] ;
172 -> 173 ;
174 [label="gini = 0.48\nsamples = 4\nvalue = [2, 3]\nclass = Torque_max", fillcolor="#bddef6"] ;
172 -> 174 ;
175 [label="gini = 0.0\nsamples = 23\nvalue = [0, 37]\nclass = Torque_max", fillcolor="#399de5"] ;
169 -> 175 ;
176 [label="Trabajador <= 0.54\ngini = 0.46\nsamples = 466\nvalue = [272, 469]\nclass = Torque_max", fillcolor="#acd6f4"] ;
158 -> 176 ;
177 [label="Modelo <= 0.69\ngini = 0.41\nsamples = 56\nvalue = [24, 58]\nclass = Torque_max", fillcolor="#8bc6f0"] ;
176 -> 177 ;
178 [label="Modelo <= 0.38\ngini = 0.44\nsamples = 34\nvalue = [16, 34]\nclass = Torque_max", fillcolor="#96cbf1"] ;
177 -> 178 ;
179 [label="gini = 0.43\nsamples = 31\nvalue = [14, 30]\nclass = Torque_max", fillcolor="#95cbf1"] ;
178 -> 179 ;
180 [label="gini = 0.44\nsamples = 3\nvalue = [2, 4]\nclass = Torque_max", fillcolor="#9ccef2"] ;
178 -> 180 ;
181 [label="gini = 0.38\nsamples = 22\nvalue = [8, 24]\nclass = Torque_max", fillcolor="#7bbeee"] ;
177 -> 181 ;
182 [label="Trabajador <= 0.61\ngini = 0.47\nsamples = 410\nvalue = [248, 411]\nclass = Torque_max", fillcolor="#b0d8f5"] ;
176 -> 182 ;
183 [label="Modelo <= 0.57\ngini = 0.46\nsamples = 212\nvalue = [129, 222]\nclass = Torque_max", fillcolor="#acd6f4"] ;
182 -> 183 ;
184 [label="Modelo <= 0.47\ngini = 0.48\nsamples = 177\nvalue = [119, 170]\nclass = Torque_max", fillcolor="#c4e2f7"] ;
183 -> 184 ;
185 [label="gini = 0.48\nsamples = 175\nvalue = [118, 169]\nclass = Torque_max", fillcolor="#c3e1f7"] ;
184 -> 185 ;
186 [label="gini = 0.5\nsamples = 2\nvalue = [1, 1]\nclass = Torque_min", fillcolor="#ffffff"] ;
184 -> 186 ;
187 [label="Modelo <= 0.6\ngini = 0.27\nsamples = 35\nvalue = [10, 52]\nclass = Torque_max", fillcolor="#5fb0ea"] ;
183 -> 187 ;
188 [label="Modelo <= 0.59\ngini = 0.37\nsamples = 18\nvalue = [7, 22]\nclass = Torque_max", fillcolor="#78bced"] ;
187 -> 188 ;
189 [label="gini = 0.28\nsamples = 8\nvalue = [2, 10]\nclass = Torque_max", fillcolor="#61b1ea"] ;
188 -> 189 ;
190 [label="gini = 0.42\nsamples = 10\nvalue = [5, 12]\nclass = Torque_max", fillcolor="#8bc6f0"] ;
188 -> 190 ;
191 [label="Modelo <= 0.62\ngini = 0.17\nsamples = 17\nvalue = [3, 30]\nclass = Torque_max", fillcolor="#4da7e8"] ;
187 -> 191 ;
192 [label="Modelo <= 0.61\ngini = 0.21\nsamples = 13\nvalue = [3, 22]\nclass = Torque_max", fillcolor="#54aae9"] ;
191 -> 192 ;
193 [label="gini = 0.0\nsamples = 1\nvalue = [0, 1]\nclass = Torque_max", fillcolor="#399de5"] ;
192 -> 193 ;
194 [label="gini = 0.22\nsamples = 12\nvalue = [3, 21]\nclass = Torque_max", fillcolor="#55abe9"] ;
192 -> 194 ;
195 [label="gini = 0.0\nsamples = 4\nvalue = [0, 8]\nclass = Torque_max", fillcolor="#399de5"] ;
191 -> 195 ;
196 [label="Modelo <= 0.51\ngini = 0.47\nsamples = 198\nvalue = [119, 189]\nclass = Torque_max", fillcolor="#b6dbf5"] ;
182 -> 196 ;
197 [label="Modelo <= 0.4\ngini = 0.48\nsamples = 188\nvalue = [116, 172]\nclass = Torque_max", fillcolor="#bfdff7"] ;
196 -> 197 ;
198 [label="gini = 0.47\nsamples = 142\nvalue = [79, 129]\nclass = Torque_max", fillcolor="#b2d9f5"] ;
197 -> 198 ;
199 [label="Modelo <= 0.42\ngini = 0.5\nsamples = 46\nvalue = [37, 43]\nclass = Torque_max", fillcolor="#e3f1fb"] ;
197 -> 199 ;
200 [label="gini = 0.5\nsamples = 10\nvalue = [9, 9]\nclass = Torque_min", fillcolor="#ffffff"] ;
199 -> 200 ;
201 [label="gini = 0.5\nsamples = 36\nvalue = [28, 34]\nclass = Torque_max", fillcolor="#dceefa"] ;
199 -> 201 ;
202 [label="Modelo <= 0.59\ngini = 0.26\nsamples = 10\nvalue = [3, 17]\nclass = Torque_max", fillcolor="#5caeea"] ;
196 -> 202 ;
203 [label="gini = 0.0\nsamples = 3\nvalue = [0, 10]\nclass = Torque_max", fillcolor="#399de5"] ;
202 -> 203 ;
204 [label="Modelo <= 0.8\ngini = 0.42\nsamples = 7\nvalue = [3, 7]\nclass = Torque_max", fillcolor="#8ec7f0"] ;
202 -> 204 ;
205 [label="Modelo <= 0.6\ngini = 0.5\nsamples = 5\nvalue = [3, 3]\nclass = Torque_min", fillcolor="#ffffff"] ;
204 -> 205 ;
206 [label="Modelo <= 0.6\ngini = 0.48\nsamples = 4\nvalue = [2, 3]\nclass = Torque_max", fillcolor="#bddef6"] ;
205 -> 206 ;
207 [label="gini = 0.44\nsamples = 3\nvalue = [2, 1]\nclass = Torque_min", fillcolor="#f2c09c"] ;
206 -> 207 ;
208 [label="gini = 0.0\nsamples = 1\nvalue = [0, 2]\nclass = Torque_max", fillcolor="#399de5"] ;
206 -> 208 ;
209 [label="gini = 0.0\nsamples = 1\nvalue = [1, 0]\nclass = Torque_min", fillcolor="#e58139"] ;
205 -> 209 ;
210 [label="gini = 0.0\nsamples = 2\nvalue = [0, 4]\nclass = Torque_max", fillcolor="#399de5"] ;
204 -> 210 ;
211 [label="Modelo <= 0.1\ngini = 0.38\nsamples = 803\nvalue = [332, 957]\nclass = Torque_max", fillcolor="#7ebfee"] ;
115 -> 211 ;
212 [label="Modelo <= 0.01\ngini = 0.4\nsamples = 687\nvalue = [300, 799]\nclass = Torque_max", fillcolor="#83c2ef"] ;
211 -> 212 ;
213 [label="Modelo <= 0.0\ngini = 0.19\nsamples = 31\nvalue = [5, 43]\nclass = Torque_max", fillcolor="#50a8e8"] ;
212 -> 213 ;
214 [label="gini = 0.24\nsamples = 23\nvalue = [5, 31]\nclass = Torque_max", fillcolor="#59ade9"] ;
213 -> 214 ;
215 [label="gini = 0.0\nsamples = 8\nvalue = [0, 12]\nclass = Torque_max", fillcolor="#399de5"] ;
213 -> 215 ;
216 [label="Trabajador <= 0.53\ngini = 0.4\nsamples = 656\nvalue = [295, 756]\nclass = Torque_max", fillcolor="#86c3ef"] ;
212 -> 216 ;
217 [label="Trabajador <= 0.51\ngini = 0.39\nsamples = 584\nvalue = [250, 677]\nclass = Torque_max", fillcolor="#82c1ef"] ;
216 -> 217 ;
218 [label="Trabajador <= 0.46\ngini = 0.37\nsamples = 181\nvalue = [71, 218]\nclass = Torque_max", fillcolor="#79bded"] ;
217 -> 218 ;
219 [label="Modelo <= 0.05\ngini = 0.38\nsamples = 161\nvalue = [67, 191]\nclass = Torque_max", fillcolor="#7ebfee"] ;
218 -> 219 ;
220 [label="Modelo <= 0.03\ngini = 0.44\nsamples = 80\nvalue = [43, 87]\nclass = Torque_max", fillcolor="#9bcdf2"] ;
219 -> 220 ;
221 [label="Modelo <= 0.03\ngini = 0.35\nsamples = 55\nvalue = [20, 67]\nclass = Torque_max", fillcolor="#74baed"] ;
220 -> 221 ;
222 [label="gini = 0.5\nsamples = 6\nvalue = [5, 6]\nclass = Torque_max", fillcolor="#deeffb"] ;
221 -> 222 ;
223 [label="gini = 0.32\nsamples = 49\nvalue = [15, 61]\nclass = Torque_max", fillcolor="#6ab5eb"] ;
221 -> 223 ;
224 [label="Modelo <= 0.04\ngini = 0.5\nsamples = 25\nvalue = [23, 20]\nclass = Torque_min", fillcolor="#fcefe5"] ;
220 -> 224 ;
225 [label="gini = 0.44\nsamples = 15\nvalue = [16, 8]\nclass = Torque_min", fillcolor="#f2c09c"] ;
224 -> 225 ;
226 [label="gini = 0.47\nsamples = 10\nvalue = [7, 12]\nclass = Torque_max", fillcolor="#acd6f4"] ;
224 -> 226 ;
227 [label="Modelo <= 0.09\ngini = 0.3\nsamples = 81\nvalue = [24, 104]\nclass = Torque_max", fillcolor="#67b4eb"] ;
219 -> 227 ;
228 [label="Modelo <= 0.05\ngini = 0.34\nsamples = 60\nvalue = [20, 73]\nclass = Torque_max", fillcolor="#6fb8ec"] ;
227 -> 228 ;
229 [label="gini = 0.28\nsamples = 27\nvalue = [7, 35]\nclass = Torque_max", fillcolor="#61b1ea"] ;
228 -> 229 ;
230 [label="Modelo <= 0.08\ngini = 0.38\nsamples = 33\nvalue = [13, 38]\nclass = Torque_max", fillcolor="#7dbfee"] ;
228 -> 230 ;
231 [label="Modelo <= 0.06\ngini = 0.41\nsamples = 18\nvalue = [9, 22]\nclass = Torque_max", fillcolor="#8ac5f0"] ;
230 -> 231 ;
232 [label="gini = 0.43\nsamples = 9\nvalue = [5, 11]\nclass = Torque_max", fillcolor="#93caf1"] ;
231 -> 232 ;
233 [label="gini = 0.39\nsamples = 9\nvalue = [4, 11]\nclass = Torque_max", fillcolor="#81c1ee"] ;
231 -> 233 ;
234 [label="gini = 0.32\nsamples = 15\nvalue = [4, 16]\nclass = Torque_max", fillcolor="#6ab6ec"] ;
230 -> 234 ;
235 [label="Modelo <= 0.09\ngini = 0.2\nsamples = 21\nvalue = [4, 31]\nclass = Torque_max", fillcolor="#53aae8"] ;
227 -> 235 ;
236 [label="gini = 0.0\nsamples = 4\nvalue = [0, 10]\nclass = Torque_max", fillcolor="#399de5"] ;
235 -> 236 ;
237 [label="gini = 0.27\nsamples = 17\nvalue = [4, 21]\nclass = Torque_max", fillcolor="#5fb0ea"] ;
235 -> 237 ;
238 [label="Modelo <= 0.07\ngini = 0.22\nsamples = 20\nvalue = [4, 27]\nclass = Torque_max", fillcolor="#56ace9"] ;
218 -> 238 ;
239 [label="gini = 0.0\nsamples = 5\nvalue = [0, 6]\nclass = Torque_max", fillcolor="#399de5"] ;
238 -> 239 ;
240 [label="Modelo <= 0.08\ngini = 0.27\nsamples = 15\nvalue = [4, 21]\nclass = Torque_max", fillcolor="#5fb0ea"] ;
238 -> 240 ;
241 [label="gini = 0.28\nsamples = 9\nvalue = [2, 10]\nclass = Torque_max", fillcolor="#61b1ea"] ;
240 -> 241 ;
242 [label="gini = 0.26\nsamples = 6\nvalue = [2, 11]\nclass = Torque_max", fillcolor="#5dafea"] ;
240 -> 242 ;
243 [label="Modelo <= 0.08\ngini = 0.4\nsamples = 403\nvalue = [179, 459]\nclass = Torque_max", fillcolor="#86c3ef"] ;
217 -> 243 ;
244 [label="Modelo <= 0.04\ngini = 0.37\nsamples = 277\nvalue = [109, 329]\nclass = Torque_max", fillcolor="#7bbdee"] ;
243 -> 244 ;
245 [label="Modelo <= 0.02\ngini = 0.43\nsamples = 161\nvalue = [83, 179]\nclass = Torque_max", fillcolor="#95caf1"] ;
244 -> 245 ;
246 [label="Modelo <= 0.02\ngini = 0.3\nsamples = 43\nvalue = [13, 59]\nclass = Torque_max", fillcolor="#65b3eb"] ;
245 -> 246 ;
247 [label="Modelo <= 0.01\ngini = 0.26\nsamples = 30\nvalue = [8, 45]\nclass = Torque_max", fillcolor="#5caeea"] ;
246 -> 247 ;
248 [label="gini = 0.38\nsamples = 14\nvalue = [5, 15]\nclass = Torque_max", fillcolor="#7bbeee"] ;
247 -> 248 ;
249 [label="gini = 0.17\nsamples = 16\nvalue = [3, 30]\nclass = Torque_max", fillcolor="#4da7e8"] ;
247 -> 249 ;
250 [label="gini = 0.39\nsamples = 13\nvalue = [5, 14]\nclass = Torque_max", fillcolor="#80c0ee"] ;
246 -> 250 ;
251 [label="Modelo <= 0.03\ngini = 0.47\nsamples = 118\nvalue = [70, 120]\nclass = Torque_max", fillcolor="#acd6f4"] ;
245 -> 251 ;
252 [label="gini = 0.5\nsamples = 14\nvalue = [12, 13]\nclass = Torque_max", fillcolor="#f0f7fd"] ;
251 -> 252 ;
253 [label="Modelo <= 0.03\ngini = 0.46\nsamples = 104\nvalue = [58, 107]\nclass = Torque_max", fillcolor="#a4d2f3"] ;
251 -> 253 ;
254 [label="gini = 0.31\nsamples = 15\nvalue = [4, 17]\nclass = Torque_max", fillcolor="#68b4eb"] ;
253 -> 254 ;
255 [label="gini = 0.47\nsamples = 89\nvalue = [54, 90]\nclass = Torque_max", fillcolor="#b0d8f5"] ;
253 -> 255 ;
256 [label="Modelo <= 0.05\ngini = 0.25\nsamples = 116\nvalue = [26, 150]\nclass = Torque_max", fillcolor="#5baeea"] ;
244 -> 256 ;
257 [label="Modelo <= 0.05\ngini = 0.34\nsamples = 30\nvalue = [10, 36]\nclass = Torque_max", fillcolor="#70b8ec"] ;
256 -> 257 ;
258 [label="gini = 0.31\nsamples = 25\nvalue = [8, 33]\nclass = Torque_max", fillcolor="#69b5eb"] ;
257 -> 258 ;
259 [label="gini = 0.48\nsamples = 5\nvalue = [2, 3]\nclass = Torque_max", fillcolor="#bddef6"] ;
257 -> 259 ;
260 [label="Modelo <= 0.06\ngini = 0.22\nsamples = 86\nvalue = [16, 114]\nclass = Torque_max", fillcolor="#55abe9"] ;
256 -> 260 ;
261 [label="Modelo <= 0.06\ngini = 0.16\nsamples = 38\nvalue = [5, 54]\nclass = Torque_max", fillcolor="#4ba6e7"] ;
260 -> 261 ;
262 [label="gini = 0.26\nsamples = 13\nvalue = [4, 22]\nclass = Torque_max", fillcolor="#5dafea"] ;
261 -> 262 ;
263 [label="Modelo <= 0.06\ngini = 0.06\nsamples = 25\nvalue = [1, 32]\nclass = Torque_max", fillcolor="#3fa0e6"] ;
261 -> 263 ;
264 [label="gini = 0.13\nsamples = 10\nvalue = [1, 13]\nclass = Torque_max", fillcolor="#48a5e7"] ;
263 -> 264 ;
265 [label="gini = 0.0\nsamples = 15\nvalue = [0, 19]\nclass = Torque_max", fillcolor="#399de5"] ;
263 -> 265 ;
266 [label="Modelo <= 0.07\ngini = 0.26\nsamples = 48\nvalue = [11, 60]\nclass = Torque_max", fillcolor="#5dafea"] ;
260 -> 266 ;
267 [label="gini = 0.31\nsamples = 25\nvalue = [7, 29]\nclass = Torque_max", fillcolor="#69b5eb"] ;
266 -> 267 ;
268 [label="gini = 0.2\nsamples = 23\nvalue = [4, 31]\nclass = Torque_max", fillcolor="#53aae8"] ;
266 -> 268 ;
269 [label="Modelo <= 0.09\ngini = 0.45\nsamples = 126\nvalue = [70, 130]\nclass = Torque_max", fillcolor="#a4d2f3"] ;
243 -> 269 ;
270 [label="Modelo <= 0.08\ngini = 0.47\nsamples = 78\nvalue = [46, 73]\nclass = Torque_max", fillcolor="#b6dbf5"] ;
269 -> 270 ;
271 [label="gini = 0.47\nsamples = 72\nvalue = [43, 69]\nclass = Torque_max", fillcolor="#b4daf5"] ;
270 -> 271 ;
272 [label="gini = 0.49\nsamples = 6\nvalue = [3, 4]\nclass = Torque_max", fillcolor="#cee6f8"] ;
270 -> 272 ;
273 [label="Modelo <= 0.09\ngini = 0.42\nsamples = 48\nvalue = [24, 57]\nclass = Torque_max", fillcolor="#8cc6f0"] ;
269 -> 273 ;
274 [label="gini = 0.0\nsamples = 12\nvalue = [0, 17]\nclass = Torque_max", fillcolor="#399de5"] ;
273 -> 274 ;
275 [label="gini = 0.47\nsamples = 36\nvalue = [24, 40]\nclass = Torque_max", fillcolor="#b0d8f5"] ;
273 -> 275 ;
276 [label="Modelo <= 0.09\ngini = 0.46\nsamples = 72\nvalue = [45, 79]\nclass = Torque_max", fillcolor="#aad5f4"] ;
216 -> 276 ;
277 [label="Modelo <= 0.05\ngini = 0.42\nsamples = 58\nvalue = [29, 67]\nclass = Torque_max", fillcolor="#8fc7f0"] ;
276 -> 277 ;
278 [label="Modelo <= 0.05\ngini = 0.47\nsamples = 43\nvalue = [28, 46]\nclass = Torque_max", fillcolor="#b2d9f5"] ;
277 -> 278 ;
279 [label="Trabajador <= 0.57\ngini = 0.45\nsamples = 39\nvalue = [22, 43]\nclass = Torque_max", fillcolor="#9ecff2"] ;
278 -> 279 ;
280 [label="Modelo <= 0.01\ngini = 0.46\nsamples = 18\nvalue = [12, 22]\nclass = Torque_max", fillcolor="#a5d2f3"] ;
279 -> 280 ;
281 [label="gini = 0.49\nsamples = 12\nvalue = [8, 11]\nclass = Torque_max", fillcolor="#c9e4f8"] ;
280 -> 281 ;
282 [label="gini = 0.39\nsamples = 6\nvalue = [4, 11]\nclass = Torque_max", fillcolor="#81c1ee"] ;
280 -> 282 ;
283 [label="Modelo <= 0.03\ngini = 0.44\nsamples = 21\nvalue = [10, 21]\nclass = Torque_max", fillcolor="#97ccf1"] ;
279 -> 283 ;
284 [label="gini = 0.5\nsamples = 11\nvalue = [7, 7]\nclass = Torque_min", fillcolor="#ffffff"] ;
283 -> 284 ;
285 [label="gini = 0.29\nsamples = 10\nvalue = [3, 14]\nclass = Torque_max", fillcolor="#63b2eb"] ;
283 -> 285 ;
286 [label="gini = 0.44\nsamples = 4\nvalue = [6, 3]\nclass = Torque_min", fillcolor="#f2c09c"] ;
278 -> 286 ;
287 [label="Torque_max <= 0.59\ngini = 0.09\nsamples = 15\nvalue = [1, 21]\nclass = Torque_max", fillcolor="#42a2e6"] ;
277 -> 287 ;
288 [label="gini = 0.0\nsamples = 5\nvalue = [0, 11]\nclass = Torque_max", fillcolor="#399de5"] ;
287 -> 288 ;
289 [label="gini = 0.17\nsamples = 10\nvalue = [1, 10]\nclass = Torque_max", fillcolor="#4da7e8"] ;
287 -> 289 ;
290 [label="gini = 0.49\nsamples = 14\nvalue = [16, 12]\nclass = Torque_min", fillcolor="#f8e0ce"] ;
276 -> 290 ;
291 [label="Modelo <= 0.27\ngini = 0.28\nsamples = 116\nvalue = [32, 158]\nclass = Torque_max", fillcolor="#61b1ea"] ;
211 -> 291 ;
292 [label="Trabajador <= 0.46\ngini = 0.29\nsamples = 112\nvalue = [32, 150]\nclass = Torque_max", fillcolor="#63b2eb"] ;
291 -> 292 ;
293 [label="Modelo <= 0.12\ngini = 0.36\nsamples = 39\nvalue = [17, 54]\nclass = Torque_max", fillcolor="#77bced"] ;
292 -> 293 ;
294 [label="gini = 0.43\nsamples = 21\nvalue = [12, 26]\nclass = Torque_max", fillcolor="#94caf1"] ;
293 -> 294 ;
295 [label="gini = 0.26\nsamples = 18\nvalue = [5, 28]\nclass = Torque_max", fillcolor="#5caeea"] ;
293 -> 295 ;
296 [label="Modelo <= 0.1\ngini = 0.23\nsamples = 73\nvalue = [15, 96]\nclass = Torque_max", fillcolor="#58ace9"] ;
292 -> 296 ;
297 [label="gini = 0.0\nsamples = 11\nvalue = [0, 22]\nclass = Torque_max", fillcolor="#399de5"] ;
296 -> 297 ;
298 [label="Trabajador <= 0.56\ngini = 0.28\nsamples = 62\nvalue = [15, 74]\nclass = Torque_max", fillcolor="#61b1ea"] ;
296 -> 298 ;
299 [label="Modelo <= 0.12\ngini = 0.29\nsamples = 60\nvalue = [15, 70]\nclass = Torque_max", fillcolor="#63b2eb"] ;
298 -> 299 ;
300 [label="Trabajador <= 0.51\ngini = 0.26\nsamples = 39\nvalue = [9, 51]\nclass = Torque_max", fillcolor="#5caeea"] ;
299 -> 300 ;
301 [label="gini = 0.28\nsamples = 15\nvalue = [4, 20]\nclass = Torque_max", fillcolor="#61b1ea"] ;
300 -> 301 ;
302 [label="Modelo <= 0.1\ngini = 0.24\nsamples = 24\nvalue = [5, 31]\nclass = Torque_max", fillcolor="#59ade9"] ;
300 -> 302 ;
303 [label="gini = 0.25\nsamples = 23\nvalue = [5, 29]\nclass = Torque_max", fillcolor="#5baee9"] ;
302 -> 303 ;
304 [label="gini = 0.0\nsamples = 1\nvalue = [0, 2]\nclass = Torque_max", fillcolor="#399de5"] ;
302 -> 304 ;
305 [label="gini = 0.36\nsamples = 21\nvalue = [6, 19]\nclass = Torque_max", fillcolor="#78bced"] ;
299 -> 305 ;
306 [label="gini = 0.0\nsamples = 2\nvalue = [0, 4]\nclass = Torque_max", fillcolor="#399de5"] ;
298 -> 306 ;
307 [label="gini = 0.0\nsamples = 4\nvalue = [0, 8]\nclass = Torque_max", fillcolor="#399de5"] ;
291 -> 307 ;
308 [label="Modelo <= 0.09\ngini = 0.27\nsamples = 812\nvalue = [210, 1074]\nclass = Torque_max", fillcolor="#60b0ea"] ;
2 -> 308 ;
309 [label="Trabajador <= 0.7\ngini = 0.37\nsamples = 317\nvalue = [118, 372]\nclass = Torque_max", fillcolor="#78bced"] ;
308 -> 309 ;
310 [label="Modelo <= 0.01\ngini = 0.22\nsamples = 32\nvalue = [6, 42]\nclass = Torque_max", fillcolor="#55abe9"] ;
309 -> 310 ;
311 [label="gini = 0.0\nsamples = 14\nvalue = [0, 23]\nclass = Torque_max", fillcolor="#399de5"] ;
310 -> 311 ;
312 [label="Modelo <= 0.07\ngini = 0.36\nsamples = 18\nvalue = [6, 19]\nclass = Torque_max", fillcolor="#78bced"] ;
310 -> 312 ;
313 [label="Modelo <= 0.03\ngini = 0.46\nsamples = 12\nvalue = [6, 11]\nclass = Torque_max", fillcolor="#a5d2f3"] ;
312 -> 313 ;
314 [label="gini = 0.47\nsamples = 7\nvalue = [3, 5]\nclass = Torque_max", fillcolor="#b0d8f5"] ;
313 -> 314 ;
315 [label="gini = 0.44\nsamples = 5\nvalue = [3, 6]\nclass = Torque_max", fillcolor="#9ccef2"] ;
313 -> 315 ;
316 [label="gini = 0.0\nsamples = 6\nvalue = [0, 8]\nclass = Torque_max", fillcolor="#399de5"] ;
312 -> 316 ;
317 [label="Modelo <= 0.05\ngini = 0.38\nsamples = 285\nvalue = [112, 330]\nclass = Torque_max", fillcolor="#7cbeee"] ;
309 -> 317 ;
318 [label="Modelo <= 0.03\ngini = 0.4\nsamples = 142\nvalue = [61, 161]\nclass = Torque_max", fillcolor="#84c2ef"] ;
317 -> 318 ;
319 [label="Trabajador <= 0.84\ngini = 0.38\nsamples = 124\nvalue = [47, 141]\nclass = Torque_max", fillcolor="#7bbeee"] ;
318 -> 319 ;
320 [label="gini = 0.2\nsamples = 20\nvalue = [3, 23]\nclass = Torque_max", fillcolor="#53aae8"] ;
319 -> 320 ;
321 [label="Torque_max <= 0.27\ngini = 0.4\nsamples = 104\nvalue = [44, 118]\nclass = Torque_max", fillcolor="#83c2ef"] ;
319 -> 321 ;
322 [label="gini = 0.39\nsamples = 80\nvalue = [34, 93]\nclass = Torque_max", fillcolor="#81c1ef"] ;
321 -> 322 ;
323 [label="Modelo <= 0.01\ngini = 0.41\nsamples = 24\nvalue = [10, 25]\nclass = Torque_max", fillcolor="#88c4ef"] ;
321 -> 323 ;
324 [label="gini = 0.0\nsamples = 3\nvalue = [0, 3]\nclass = Torque_max", fillcolor="#399de5"] ;
323 -> 324 ;
325 [label="Modelo <= 0.01\ngini = 0.43\nsamples = 21\nvalue = [10, 22]\nclass = Torque_max", fillcolor="#93caf1"] ;
323 -> 325 ;
326 [label="gini = 0.5\nsamples = 2\nvalue = [2, 2]\nclass = Torque_min", fillcolor="#ffffff"] ;
325 -> 326 ;
327 [label="Modelo <= 0.02\ngini = 0.41\nsamples = 19\nvalue = [8, 20]\nclass = Torque_max", fillcolor="#88c4ef"] ;
325 -> 327 ;
328 [label="gini = 0.34\nsamples = 10\nvalue = [3, 11]\nclass = Torque_max", fillcolor="#6fb8ec"] ;
327 -> 328 ;
329 [label="gini = 0.46\nsamples = 9\nvalue = [5, 9]\nclass = Torque_max", fillcolor="#a7d3f3"] ;
327 -> 329 ;
330 [label="gini = 0.48\nsamples = 18\nvalue = [14, 20]\nclass = Torque_max", fillcolor="#c4e2f7"] ;
318 -> 330 ;
331 [label="Modelo <= 0.08\ngini = 0.36\nsamples = 143\nvalue = [51, 169]\nclass = Torque_max", fillcolor="#75bbed"] ;
317 -> 331 ;
332 [label="Modelo <= 0.07\ngini = 0.29\nsamples = 37\nvalue = [11, 51]\nclass = Torque_max", fillcolor="#64b2eb"] ;
331 -> 332 ;
333 [label="gini = 0.35\nsamples = 24\nvalue = [10, 34]\nclass = Torque_max", fillcolor="#73baed"] ;
332 -> 333 ;
334 [label="gini = 0.1\nsamples = 13\nvalue = [1, 17]\nclass = Torque_max", fillcolor="#45a3e7"] ;
332 -> 334 ;
335 [label="gini = 0.38\nsamples = 106\nvalue = [40, 118]\nclass = Torque_max", fillcolor="#7cbeee"] ;
331 -> 335 ;
336 [label="Trabajador <= 0.96\ngini = 0.2\nsamples = 495\nvalue = [92, 702]\nclass = Torque_max", fillcolor="#53aae8"] ;
308 -> 336 ;
337 [label="Trabajador <= 0.83\ngini = 0.2\nsamples = 493\nvalue = [89, 702]\nclass = Torque_max", fillcolor="#52a9e8"] ;
336 -> 337 ;
338 [label="Torque_max <= 0.04\ngini = 0.12\nsamples = 110\nvalue = [11, 165]\nclass = Torque_max", fillcolor="#46a4e7"] ;
337 -> 338 ;
339 [label="Modelo <= 0.27\ngini = 0.19\nsamples = 40\nvalue = [7, 57]\nclass = Torque_max", fillcolor="#51a9e8"] ;
338 -> 339 ;
340 [label="gini = 0.07\nsamples = 20\nvalue = [1, 28]\nclass = Torque_max", fillcolor="#40a0e6"] ;
339 -> 340 ;
341 [label="gini = 0.28\nsamples = 20\nvalue = [6, 29]\nclass = Torque_max", fillcolor="#62b1ea"] ;
339 -> 341 ;
342 [label="Angle_max <= 0.12\ngini = 0.07\nsamples = 70\nvalue = [4, 108]\nclass = Torque_max", fillcolor="#40a1e6"] ;
338 -> 342 ;
343 [label="Modelo <= 0.39\ngini = 0.11\nsamples = 29\nvalue = [3, 46]\nclass = Torque_max", fillcolor="#46a3e7"] ;
342 -> 343 ;
344 [label="gini = 0.44\nsamples = 2\nvalue = [1, 2]\nclass = Torque_max", fillcolor="#9ccef2"] ;
343 -> 344 ;
345 [label="Modelo <= 0.39\ngini = 0.08\nsamples = 27\nvalue = [2, 44]\nclass = Torque_max", fillcolor="#42a1e6"] ;
343 -> 345 ;
346 [label="gini = 0.0\nsamples = 14\nvalue = [0, 26]\nclass = Torque_max", fillcolor="#399de5"] ;
345 -> 346 ;
347 [label="gini = 0.18\nsamples = 13\nvalue = [2, 18]\nclass = Torque_max", fillcolor="#4fa8e8"] ;
345 -> 347 ;
348 [label="Modelo <= 0.51\ngini = 0.03\nsamples = 41\nvalue = [1, 62]\nclass = Torque_max", fillcolor="#3c9fe5"] ;
342 -> 348 ;
349 [label="gini = 0.0\nsamples = 8\nvalue = [0, 12]\nclass = Torque_max", fillcolor="#399de5"] ;
348 -> 349 ;
350 [label="Modelo <= 0.63\ngini = 0.04\nsamples = 33\nvalue = [1, 50]\nclass = Torque_max", fillcolor="#3d9fe6"] ;
348 -> 350 ;
351 [label="gini = 0.04\nsamples = 32\nvalue = [1, 49]\nclass = Torque_max", fillcolor="#3d9fe6"] ;
350 -> 351 ;
352 [label="gini = 0.0\nsamples = 1\nvalue = [0, 1]\nclass = Torque_max", fillcolor="#399de5"] ;
350 -> 352 ;
353 [label="Modelo <= 0.5\ngini = 0.22\nsamples = 383\nvalue = [78, 537]\nclass = Torque_max", fillcolor="#56abe9"] ;
337 -> 353 ;
354 [label="Modelo <= 0.44\ngini = 0.25\nsamples = 321\nvalue = [76, 452]\nclass = Torque_max", fillcolor="#5aade9"] ;
353 -> 354 ;
355 [label="Modelo <= 0.36\ngini = 0.24\nsamples = 311\nvalue = [71, 443]\nclass = Torque_max", fillcolor="#59ade9"] ;
354 -> 355 ;
356 [label="gini = 0.0\nsamples = 16\nvalue = [0, 25]\nclass = Torque_max", fillcolor="#399de5"] ;
355 -> 356 ;
357 [label="Torque_min <= 0.62\ngini = 0.25\nsamples = 295\nvalue = [71, 418]\nclass = Torque_max", fillcolor="#5baee9"] ;
355 -> 357 ;
358 [label="Trabajador <= 0.86\ngini = 0.24\nsamples = 276\nvalue = [64, 395]\nclass = Torque_max", fillcolor="#59ade9"] ;
357 -> 358 ;
359 [label="gini = 0.25\nsamples = 222\nvalue = [56, 318]\nclass = Torque_max", fillcolor="#5caeea"] ;
358 -> 359 ;
360 [label="Pset_name_cat <= 0.04\ngini = 0.17\nsamples = 54\nvalue = [8, 77]\nclass = Torque_max", fillcolor="#4ea7e8"] ;
358 -> 360 ;
361 [label="Angle_min <= 0.0\ngini = 0.14\nsamples = 41\nvalue = [5, 61]\nclass = Torque_max", fillcolor="#49a5e7"] ;
360 -> 361 ;
362 [label="gini = 0.12\nsamples = 19\nvalue = [2, 29]\nclass = Torque_max", fillcolor="#47a4e7"] ;
361 -> 362 ;
363 [label="gini = 0.16\nsamples = 22\nvalue = [3, 32]\nclass = Torque_max", fillcolor="#4ca6e7"] ;
361 -> 363 ;
364 [label="gini = 0.27\nsamples = 13\nvalue = [3, 16]\nclass = Torque_max", fillcolor="#5eafea"] ;
360 -> 364 ;
365 [label="Modelo <= 0.39\ngini = 0.36\nsamples = 19\nvalue = [7, 23]\nclass = Torque_max", fillcolor="#75bbed"] ;
357 -> 365 ;
366 [label="gini = 0.34\nsamples = 9\nvalue = [3, 11]\nclass = Torque_max", fillcolor="#6fb8ec"] ;
365 -> 366 ;
367 [label="gini = 0.38\nsamples = 10\nvalue = [4, 12]\nclass = Torque_max", fillcolor="#7bbeee"] ;
365 -> 367 ;
368 [label="gini = 0.46\nsamples = 10\nvalue = [5, 9]\nclass = Torque_max", fillcolor="#a7d3f3"] ;
354 -> 368 ;
369 [label="Trabajador <= 0.86\ngini = 0.04\nsamples = 62\nvalue = [2, 85]\nclass = Torque_max", fillcolor="#3e9fe6"] ;
353 -> 369 ;
370 [label="Modelo <= 0.54\ngini = 0.08\nsamples = 35\nvalue = [2, 49]\nclass = Torque_max", fillcolor="#41a1e6"] ;
369 -> 370 ;
371 [label="gini = 0.17\nsamples = 10\nvalue = [1, 10]\nclass = Torque_max", fillcolor="#4da7e8"] ;
370 -> 371 ;
372 [label="Modelo <= 0.55\ngini = 0.05\nsamples = 25\nvalue = [1, 39]\nclass = Torque_max", fillcolor="#3ea0e6"] ;
370 -> 372 ;
373 [label="gini = 0.0\nsamples = 11\nvalue = [0, 16]\nclass = Torque_max", fillcolor="#399de5"] ;
372 -> 373 ;
374 [label="gini = 0.08\nsamples = 14\nvalue = [1, 23]\nclass = Torque_max", fillcolor="#42a1e6"] ;
372 -> 374 ;
375 [label="gini = 0.0\nsamples = 27\nvalue = [0, 36]\nclass = Torque_max", fillcolor="#399de5"] ;
369 -> 375 ;
376 [label="gini = 0.0\nsamples = 2\nvalue = [3, 0]\nclass = Torque_min", fillcolor="#e58139"] ;
336 -> 376 ;
377 [label="Angle_max <= 0.15\ngini = 0.16\nsamples = 21168\nvalue = [2843, 30604]\nclass = Torque_max", fillcolor="#4ba6e7"] ;
1 -> 377 ;
378 [label="Torque_min <= 0.14\ngini = 0.1\nsamples = 15835\nvalue = [1349, 23694]\nclass = Torque_max", fillcolor="#44a3e6"] ;
377 -> 378 ;
379 [label="Modelo <= 0.11\ngini = 0.45\nsamples = 663\nvalue = [363, 682]\nclass = Torque_max", fillcolor="#a2d1f3"] ;
378 -> 379 ;
380 [label="Modelo <= 0.04\ngini = 0.09\nsamples = 448\nvalue = [34, 678]\nclass = Torque_max", fillcolor="#43a2e6"] ;
379 -> 380 ;
381 [label="gini = 0.0\nsamples = 14\nvalue = [23, 0]\nclass = Torque_min", fillcolor="#e58139"] ;
380 -> 381 ;
382 [label="Trabajador <= 0.4\ngini = 0.03\nsamples = 434\nvalue = [11, 678]\nclass = Torque_max", fillcolor="#3c9fe5"] ;
380 -> 382 ;
383 [label="Modelo <= 0.08\ngini = 0.43\nsamples = 7\nvalue = [4, 9]\nclass = Torque_max", fillcolor="#91c9f1"] ;
382 -> 383 ;
384 [label="gini = 0.5\nsamples = 4\nvalue = [4, 4]\nclass = Torque_min", fillcolor="#ffffff"] ;
383 -> 384 ;
385 [label="gini = 0.0\nsamples = 3\nvalue = [0, 5]\nclass = Torque_max", fillcolor="#399de5"] ;
383 -> 385 ;
386 [label="Trabajador <= 0.57\ngini = 0.02\nsamples = 427\nvalue = [7, 669]\nclass = Torque_max", fillcolor="#3b9ee5"] ;
382 -> 386 ;
387 [label="Trabajador <= 0.53\ngini = 0.04\nsamples = 206\nvalue = [7, 313]\nclass = Torque_max", fillcolor="#3d9fe6"] ;
386 -> 387 ;
388 [label="gini = 0.0\nsamples = 62\nvalue = [0, 93]\nclass = Torque_max", fillcolor="#399de5"] ;
387 -> 388 ;
389 [label="Modelo <= 0.08\ngini = 0.06\nsamples = 144\nvalue = [7, 220]\nclass = Torque_max", fillcolor="#3fa0e6"] ;
387 -> 389 ;
390 [label="gini = 0.0\nsamples = 32\nvalue = [0, 66]\nclass = Torque_max", fillcolor="#399de5"] ;
389 -> 390 ;
391 [label="gini = 0.08\nsamples = 112\nvalue = [7, 154]\nclass = Torque_max", fillcolor="#42a1e6"] ;
389 -> 391 ;
392 [label="gini = 0.0\nsamples = 221\nvalue = [0, 356]\nclass = Torque_max", fillcolor="#399de5"] ;
386 -> 392 ;
393 [label="Torque_min <= 0.05\ngini = 0.02\nsamples = 215\nvalue = [329, 4]\nclass = Torque_min", fillcolor="#e5833b"] ;
379 -> 393 ;
394 [label="gini = 0.0\nsamples = 211\nvalue = [326, 0]\nclass = Torque_min", fillcolor="#e58139"] ;
393 -> 394 ;
395 [label="gini = 0.49\nsamples = 4\nvalue = [3, 4]\nclass = Torque_max", fillcolor="#cee6f8"] ;
393 -> 395 ;
396 [label="Torque_max <= 0.15\ngini = 0.08\nsamples = 15172\nvalue = [986, 23012]\nclass = Torque_max", fillcolor="#41a1e6"] ;
378 -> 396 ;
397 [label="Trabajador <= 0.52\ngini = 0.36\nsamples = 99\nvalue = [38, 126]\nclass = Torque_max", fillcolor="#75bbed"] ;
396 -> 397 ;
398 [label="Modelo <= 0.18\ngini = 0.08\nsamples = 28\nvalue = [2, 49]\nclass = Torque_max", fillcolor="#41a1e6"] ;
397 -> 398 ;
399 [label="gini = 0.0\nsamples = 19\nvalue = [0, 33]\nclass = Torque_max", fillcolor="#399de5"] ;
398 -> 399 ;
400 [label="gini = 0.2\nsamples = 9\nvalue = [2, 16]\nclass = Torque_max", fillcolor="#52a9e8"] ;
398 -> 400 ;
401 [label="Modelo <= 0.18\ngini = 0.43\nsamples = 71\nvalue = [36, 77]\nclass = Torque_max", fillcolor="#96cbf1"] ;
397 -> 401 ;
402 [label="Modelo <= 0.18\ngini = 0.31\nsamples = 41\nvalue = [12, 50]\nclass = Torque_max", fillcolor="#69b5eb"] ;
401 -> 402 ;
403 [label="gini = 0.31\nsamples = 30\nvalue = [9, 37]\nclass = Torque_max", fillcolor="#69b5eb"] ;
402 -> 403 ;
404 [label="gini = 0.3\nsamples = 11\nvalue = [3, 13]\nclass = Torque_max", fillcolor="#67b4eb"] ;
402 -> 404 ;
405 [label="Trabajador <= 0.75\ngini = 0.5\nsamples = 30\nvalue = [24, 27]\nclass = Torque_max", fillcolor="#e9f4fc"] ;
401 -> 405 ;
406 [label="gini = 0.5\nsamples = 23\nvalue = [20, 19]\nclass = Torque_min", fillcolor="#fef9f5"] ;
405 -> 406 ;
407 [label="gini = 0.44\nsamples = 7\nvalue = [4, 8]\nclass = Torque_max", fillcolor="#9ccef2"] ;
405 -> 407 ;
408 [label="Trabajador <= 0.9\ngini = 0.08\nsamples = 15073\nvalue = [948, 22886]\nclass = Torque_max", fillcolor="#41a1e6"] ;
396 -> 408 ;
409 [label="Pset_name_cat <= 0.09\ngini = 0.07\nsamples = 13278\nvalue = [744, 20270]\nclass = Torque_max", fillcolor="#40a1e6"] ;
408 -> 409 ;
410 [label="Modelo <= 0.39\ngini = 0.22\nsamples = 123\nvalue = [25, 169]\nclass = Torque_max", fillcolor="#56abe9"] ;
409 -> 410 ;
411 [label="Modelo <= 0.39\ngini = 0.25\nsamples = 107\nvalue = [25, 148]\nclass = Torque_max", fillcolor="#5aaee9"] ;
410 -> 411 ;
412 [label="Trabajador <= 0.34\ngini = 0.2\nsamples = 51\nvalue = [9, 73]\nclass = Torque_max", fillcolor="#51a9e8"] ;
411 -> 412 ;
413 [label="gini = 0.0\nsamples = 2\nvalue = [0, 3]\nclass = Torque_max", fillcolor="#399de5"] ;
412 -> 413 ;
414 [label="gini = 0.2\nsamples = 49\nvalue = [9, 70]\nclass = Torque_max", fillcolor="#52aae8"] ;
412 -> 414 ;
415 [label="Modelo <= 0.39\ngini = 0.29\nsamples = 56\nvalue = [16, 75]\nclass = Torque_max", fillcolor="#63b2eb"] ;
411 -> 415 ;
416 [label="gini = 0.29\nsamples = 41\nvalue = [12, 55]\nclass = Torque_max", fillcolor="#64b2eb"] ;
415 -> 416 ;
417 [label="gini = 0.28\nsamples = 15\nvalue = [4, 20]\nclass = Torque_max", fillcolor="#61b1ea"] ;
415 -> 417 ;
418 [label="gini = 0.0\nsamples = 16\nvalue = [0, 21]\nclass = Torque_max", fillcolor="#399de5"] ;
410 -> 418 ;
419 [label="Torque_min <= 0.38\ngini = 0.07\nsamples = 13155\nvalue = [719, 20101]\nclass = Torque_max", fillcolor="#40a1e6"] ;
409 -> 419 ;
420 [label="Torque_max <= 0.29\ngini = 0.02\nsamples = 915\nvalue = [11, 1387]\nclass = Torque_max", fillcolor="#3b9ee5"] ;
419 -> 420 ;
421 [label="gini = 0.0\nsamples = 299\nvalue = [0, 457]\nclass = Torque_max", fillcolor="#399de5"] ;
420 -> 421 ;
422 [label="Trabajador <= 0.62\ngini = 0.02\nsamples = 616\nvalue = [11, 930]\nclass = Torque_max", fillcolor="#3b9ee5"] ;
420 -> 422 ;
423 [label="gini = 0.36\nsamples = 10\nvalue = [3, 10]\nclass = Torque_max", fillcolor="#74baed"] ;
422 -> 423 ;
424 [label="Modelo <= 0.11\ngini = 0.02\nsamples = 606\nvalue = [8, 920]\nclass = Torque_max", fillcolor="#3b9ee5"] ;
422 -> 424 ;
425 [label="Modelo <= 0.08\ngini = 0.01\nsamples = 512\nvalue = [4, 774]\nclass = Torque_max", fillcolor="#3a9ee5"] ;
424 -> 425 ;
426 [label="gini = 0.0\nsamples = 224\nvalue = [0, 341]\nclass = Torque_max", fillcolor="#399de5"] ;
425 -> 426 ;
427 [label="Modelo <= 0.08\ngini = 0.02\nsamples = 288\nvalue = [4, 433]\nclass = Torque_max", fillcolor="#3b9ee5"] ;
425 -> 427 ;
428 [label="gini = 0.01\nsamples = 94\nvalue = [1, 145]\nclass = Torque_max", fillcolor="#3a9ee5"] ;
427 -> 428 ;
429 [label="gini = 0.02\nsamples = 194\nvalue = [3, 288]\nclass = Torque_max", fillcolor="#3b9ee5"] ;
427 -> 429 ;
430 [label="Modelo <= 0.39\ngini = 0.05\nsamples = 94\nvalue = [4, 146]\nclass = Torque_max", fillcolor="#3ea0e6"] ;
424 -> 430 ;
431 [label="Modelo <= 0.26\ngini = 0.06\nsamples = 75\nvalue = [4, 115]\nclass = Torque_max", fillcolor="#40a0e6"] ;
430 -> 431 ;
432 [label="gini = 0.05\nsamples = 46\nvalue = [2, 72]\nclass = Torque_max", fillcolor="#3ea0e6"] ;
431 -> 432 ;
433 [label="gini = 0.08\nsamples = 29\nvalue = [2, 43]\nclass = Torque_max", fillcolor="#42a2e6"] ;
431 -> 433 ;
434 [label="gini = 0.0\nsamples = 19\nvalue = [0, 31]\nclass = Torque_max", fillcolor="#399de5"] ;
430 -> 434 ;
435 [label="Pset_name_cat <= 0.17\ngini = 0.07\nsamples = 12240\nvalue = [708, 18714]\nclass = Torque_max", fillcolor="#40a1e6"] ;
419 -> 435 ;
436 [label="Modelo <= 0.15\ngini = 0.03\nsamples = 1323\nvalue = [36, 2056]\nclass = Torque_max", fillcolor="#3c9fe5"] ;
435 -> 436 ;
437 [label="Trabajador <= 0.31\ngini = 0.11\nsamples = 82\nvalue = [8, 130]\nclass = Torque_max", fillcolor="#45a3e7"] ;
436 -> 437 ;
438 [label="Trabajador <= 0.15\ngini = 0.22\nsamples = 37\nvalue = [8, 57]\nclass = Torque_max", fillcolor="#55abe9"] ;
437 -> 438 ;
439 [label="gini = 0.28\nsamples = 6\nvalue = [2, 10]\nclass = Torque_max", fillcolor="#61b1ea"] ;
438 -> 439 ;
440 [label="gini = 0.2\nsamples = 31\nvalue = [6, 47]\nclass = Torque_max", fillcolor="#52aae8"] ;
438 -> 440 ;
441 [label="gini = 0.0\nsamples = 45\nvalue = [0, 73]\nclass = Torque_max", fillcolor="#399de5"] ;
437 -> 441 ;
442 [label="Trabajador <= 0.12\ngini = 0.03\nsamples = 1241\nvalue = [28, 1926]\nclass = Torque_max", fillcolor="#3c9ee5"] ;
436 -> 442 ;
443 [label="Modelo <= 0.26\ngini = 0.06\nsamples = 288\nvalue = [14, 443]\nclass = Torque_max", fillcolor="#3fa0e6"] ;
442 -> 443 ;
444 [label="Modelo <= 0.21\ngini = 0.03\nsamples = 122\nvalue = [3, 195]\nclass = Torque_max", fillcolor="#3c9fe5"] ;
443 -> 444 ;
445 [label="gini = 0.0\nsamples = 49\nvalue = [0, 71]\nclass = Torque_max", fillcolor="#399de5"] ;
444 -> 445 ;
446 [label="Modelo <= 0.23\ngini = 0.05\nsamples = 73\nvalue = [3, 124]\nclass = Torque_max", fillcolor="#3e9fe6"] ;
444 -> 446 ;
447 [label="Modelo <= 0.22\ngini = 0.09\nsamples = 38\nvalue = [3, 62]\nclass = Torque_max", fillcolor="#43a2e6"] ;
446 -> 447 ;
448 [label="gini = 0.1\nsamples = 22\nvalue = [2, 34]\nclass = Torque_max", fillcolor="#45a3e7"] ;
447 -> 448 ;
449 [label="gini = 0.07\nsamples = 16\nvalue = [1, 28]\nclass = Torque_max", fillcolor="#40a0e6"] ;
447 -> 449 ;
450 [label="gini = 0.0\nsamples = 35\nvalue = [0, 62]\nclass = Torque_max", fillcolor="#399de5"] ;
446 -> 450 ;
451 [label="Modelo <= 0.33\ngini = 0.08\nsamples = 166\nvalue = [11, 248]\nclass = Torque_max", fillcolor="#42a1e6"] ;
443 -> 451 ;
452 [label="Modelo <= 0.26\ngini = 0.11\nsamples = 122\nvalue = [11, 174]\nclass = Torque_max", fillcolor="#46a3e7"] ;
451 -> 452 ;
453 [label="gini = 0.07\nsamples = 34\nvalue = [2, 53]\nclass = Torque_max", fillcolor="#40a1e6"] ;
452 -> 453 ;
454 [label="Modelo <= 0.27\ngini = 0.13\nsamples = 88\nvalue = [9, 121]\nclass = Torque_max", fillcolor="#48a4e7"] ;
452 -> 454 ;
455 [label="gini = 0.21\nsamples = 24\nvalue = [4, 29]\nclass = Torque_max", fillcolor="#54abe9"] ;
454 -> 455 ;
456 [label="Modelo <= 0.28\ngini = 0.1\nsamples = 64\nvalue = [5, 92]\nclass = Torque_max", fillcolor="#44a2e6"] ;
454 -> 456 ;
457 [label="gini = 0.0\nsamples = 15\nvalue = [0, 26]\nclass = Torque_max", fillcolor="#399de5"] ;
456 -> 457 ;
458 [label="Modelo <= 0.3\ngini = 0.13\nsamples = 49\nvalue = [5, 66]\nclass = Torque_max", fillcolor="#48a4e7"] ;
456 -> 458 ;
459 [label="gini = 0.23\nsamples = 10\nvalue = [2, 13]\nclass = Torque_max", fillcolor="#57ace9"] ;
458 -> 459 ;
460 [label="Modelo <= 0.32\ngini = 0.1\nsamples = 39\nvalue = [3, 53]\nclass = Torque_max", fillcolor="#44a3e6"] ;
458 -> 460 ;
461 [label="gini = 0.0\nsamples = 15\nvalue = [0, 22]\nclass = Torque_max", fillcolor="#399de5"] ;
460 -> 461 ;
462 [label="gini = 0.16\nsamples = 24\nvalue = [3, 31]\nclass = Torque_max", fillcolor="#4ca6e8"] ;
460 -> 462 ;
463 [label="gini = 0.0\nsamples = 44\nvalue = [0, 74]\nclass = Torque_max", fillcolor="#399de5"] ;
451 -> 463 ;
464 [label="Modelo <= 0.33\ngini = 0.02\nsamples = 953\nvalue = [14, 1483]\nclass = Torque_max", fillcolor="#3b9ee5"] ;
442 -> 464 ;
465 [label="Modelo <= 0.28\ngini = 0.0\nsamples = 625\nvalue = [2, 980]\nclass = Torque_max", fillcolor="#399de5"] ;
464 -> 465 ;
466 [label="gini = 0.0\nsamples = 418\nvalue = [0, 653]\nclass = Torque_max", fillcolor="#399de5"] ;
465 -> 466 ;
467 [label="Modelo <= 0.28\ngini = 0.01\nsamples = 207\nvalue = [2, 327]\nclass = Torque_max", fillcolor="#3a9ee5"] ;
465 -> 467 ;
468 [label="gini = 0.05\nsamples = 50\nvalue = [2, 74]\nclass = Torque_max", fillcolor="#3ea0e6"] ;
467 -> 468 ;
469 [label="gini = 0.0\nsamples = 157\nvalue = [0, 253]\nclass = Torque_max", fillcolor="#399de5"] ;
467 -> 469 ;
470 [label="Trabajador <= 0.45\ngini = 0.05\nsamples = 328\nvalue = [12, 503]\nclass = Torque_max", fillcolor="#3e9fe6"] ;
464 -> 470 ;
471 [label="Modelo <= 0.34\ngini = 0.08\nsamples = 106\nvalue = [7, 161]\nclass = Torque_max", fillcolor="#42a1e6"] ;
470 -> 471 ;
472 [label="Trabajador <= 0.24\ngini = 0.19\nsamples = 21\nvalue = [3, 25]\nclass = Torque_max", fillcolor="#51a9e8"] ;
471 -> 472 ;
473 [label="gini = 0.0\nsamples = 8\nvalue = [0, 10]\nclass = Torque_max", fillcolor="#399de5"] ;
472 -> 473 ;
474 [label="gini = 0.28\nsamples = 13\nvalue = [3, 15]\nclass = Torque_max", fillcolor="#61b1ea"] ;
472 -> 474 ;
475 [label="Modelo <= 0.36\ngini = 0.06\nsamples = 85\nvalue = [4, 136]\nclass = Torque_max", fillcolor="#3fa0e6"] ;
471 -> 475 ;
476 [label="Trabajador <= 0.26\ngini = 0.07\nsamples = 69\nvalue = [4, 112]\nclass = Torque_max", fillcolor="#40a0e6"] ;
475 -> 476 ;
477 [label="Modelo <= 0.35\ngini = 0.04\nsamples = 55\nvalue = [2, 93]\nclass = Torque_max", fillcolor="#3d9fe6"] ;
476 -> 477 ;
478 [label="gini = 0.0\nsamples = 21\nvalue = [0, 39]\nclass = Torque_max", fillcolor="#399de5"] ;
477 -> 478 ;
479 [label="Trabajador <= 0.19\ngini = 0.07\nsamples = 34\nvalue = [2, 54]\nclass = Torque_max", fillcolor="#40a1e6"] ;
477 -> 479 ;
480 [label="gini = 0.0\nsamples = 12\nvalue = [0, 17]\nclass = Torque_max", fillcolor="#399de5"] ;
479 -> 480 ;
481 [label="gini = 0.1\nsamples = 22\nvalue = [2, 37]\nclass = Torque_max", fillcolor="#44a2e6"] ;
479 -> 481 ;
482 [label="Modelo <= 0.35\ngini = 0.17\nsamples = 14\nvalue = [2, 19]\nclass = Torque_max", fillcolor="#4ea7e8"] ;
476 -> 482 ;
483 [label="gini = 0.32\nsamples = 3\nvalue = [1, 4]\nclass = Torque_max", fillcolor="#6ab6ec"] ;
482 -> 483 ;
484 [label="Torque_max <= 0.67\ngini = 0.12\nsamples = 11\nvalue = [1, 15]\nclass = Torque_max", fillcolor="#46a4e7"] ;
482 -> 484 ;
485 [label="gini = 0.0\nsamples = 7\nvalue = [0, 11]\nclass = Torque_max", fillcolor="#399de5"] ;
484 -> 485 ;
486 [label="gini = 0.32\nsamples = 4\nvalue = [1, 4]\nclass = Torque_max", fillcolor="#6ab6ec"] ;
484 -> 486 ;
487 [label="gini = 0.0\nsamples = 16\nvalue = [0, 24]\nclass = Torque_max", fillcolor="#399de5"] ;
475 -> 487 ;
488 [label="Modelo <= 0.35\ngini = 0.03\nsamples = 222\nvalue = [5, 342]\nclass = Torque_max", fillcolor="#3c9ee5"] ;
470 -> 488 ;
489 [label="gini = 0.0\nsamples = 61\nvalue = [0, 104]\nclass = Torque_max", fillcolor="#399de5"] ;
488 -> 489 ;
490 [label="Trabajador <= 0.57\ngini = 0.04\nsamples = 161\nvalue = [5, 238]\nclass = Torque_max", fillcolor="#3d9fe6"] ;
488 -> 490 ;
491 [label="gini = 0.0\nsamples = 20\nvalue = [0, 31]\nclass = Torque_max", fillcolor="#399de5"] ;
490 -> 491 ;
492 [label="Pset_name_cat <= 0.13\ngini = 0.05\nsamples = 141\nvalue = [5, 207]\nclass = Torque_max", fillcolor="#3e9fe6"] ;
490 -> 492 ;
493 [label="Torque_min <= 0.62\ngini = 0.03\nsamples = 82\nvalue = [2, 128]\nclass = Torque_max", fillcolor="#3c9fe5"] ;
492 -> 493 ;
494 [label="gini = 0.0\nsamples = 22\nvalue = [0, 34]\nclass = Torque_max", fillcolor="#399de5"] ;
493 -> 494 ;
495 [label="Modelo <= 0.36\ngini = 0.04\nsamples = 60\nvalue = [2, 94]\nclass = Torque_max", fillcolor="#3d9fe6"] ;
493 -> 495 ;
496 [label="gini = 0.04\nsamples = 28\nvalue = [1, 45]\nclass = Torque_max", fillcolor="#3d9fe6"] ;
495 -> 496 ;
497 [label="Trabajador <= 0.75\ngini = 0.04\nsamples = 32\nvalue = [1, 49]\nclass = Torque_max", fillcolor="#3d9fe6"] ;
495 -> 497 ;
498 [label="Trabajador <= 0.71\ngini = 0.06\nsamples = 23\nvalue = [1, 32]\nclass = Torque_max", fillcolor="#3fa0e6"] ;
497 -> 498 ;
499 [label="gini = 0.0\nsamples = 2\nvalue = [0, 2]\nclass = Torque_max", fillcolor="#399de5"] ;
498 -> 499 ;
500 [label="gini = 0.06\nsamples = 21\nvalue = [1, 30]\nclass = Torque_max", fillcolor="#40a0e6"] ;
498 -> 500 ;
501 [label="gini = 0.0\nsamples = 9\nvalue = [0, 17]\nclass = Torque_max", fillcolor="#399de5"] ;
497 -> 501 ;
502 [label="Angle_max <= 0.04\ngini = 0.07\nsamples = 59\nvalue = [3, 79]\nclass = Torque_max", fillcolor="#41a1e6"] ;
492 -> 502 ;
503 [label="gini = 0.08\nsamples = 33\nvalue = [2, 44]\nclass = Torque_max", fillcolor="#42a1e6"] ;
502 -> 503 ;
504 [label="gini = 0.05\nsamples = 26\nvalue = [1, 35]\nclass = Torque_max", fillcolor="#3fa0e6"] ;
502 -> 504 ;
505 [label="Pset_name_cat <= 0.21\ngini = 0.07\nsamples = 10917\nvalue = [672, 16658]\nclass = Torque_max", fillcolor="#41a1e6"] ;
435 -> 505 ;
506 [label="Modelo <= 0.1\ngini = 0.19\nsamples = 592\nvalue = [102, 860]\nclass = Torque_max", fillcolor="#50a9e8"] ;
505 -> 506 ;
507 [label="Trabajador <= 0.64\ngini = 0.44\nsamples = 33\nvalue = [19, 38]\nclass = Torque_max", fillcolor="#9ccef2"] ;
506 -> 507 ;
508 [label="Trabajador <= 0.56\ngini = 0.5\nsamples = 19\nvalue = [15, 16]\nclass = Torque_max", fillcolor="#f3f9fd"] ;
507 -> 508 ;
509 [label="gini = 0.49\nsamples = 18\nvalue = [13, 16]\nclass = Torque_max", fillcolor="#daedfa"] ;
508 -> 509 ;
510 [label="gini = 0.0\nsamples = 1\nvalue = [2, 0]\nclass = Torque_min", fillcolor="#e58139"] ;
508 -> 510 ;
511 [label="gini = 0.26\nsamples = 14\nvalue = [4, 22]\nclass = Torque_max", fillcolor="#5dafea"] ;
507 -> 511 ;
512 [label="Modelo <= 0.39\ngini = 0.17\nsamples = 559\nvalue = [83, 822]\nclass = Torque_max", fillcolor="#4da7e8"] ;
506 -> 512 ;
513 [label="Modelo <= 0.15\ngini = 0.16\nsamples = 551\nvalue = [79, 815]\nclass = Torque_max", fillcolor="#4ca6e8"] ;
512 -> 513 ;
514 [label="Trabajador <= 0.32\ngini = 0.27\nsamples = 71\nvalue = [20, 106]\nclass = Torque_max", fillcolor="#5eafea"] ;
513 -> 514 ;
515 [label="Trabajador <= 0.29\ngini = 0.46\nsamples = 28\nvalue = [18, 33]\nclass = Torque_max", fillcolor="#a5d2f3"] ;
514 -> 515 ;
516 [label="Modelo <= 0.13\ngini = 0.42\nsamples = 23\nvalue = [13, 30]\nclass = Torque_max", fillcolor="#8fc7f0"] ;
515 -> 516 ;
517 [label="gini = 0.0\nsamples = 2\nvalue = [0, 5]\nclass = Torque_max", fillcolor="#399de5"] ;
516 -> 517 ;
518 [label="Angle_min <= 0.0\ngini = 0.45\nsamples = 21\nvalue = [13, 25]\nclass = Torque_max", fillcolor="#a0d0f3"] ;
516 -> 518 ;
519 [label="gini = 0.46\nsamples = 20\nvalue = [13, 24]\nclass = Torque_max", fillcolor="#a4d2f3"] ;
518 -> 519 ;
520 [label="gini = 0.0\nsamples = 1\nvalue = [0, 1]\nclass = Torque_max", fillcolor="#399de5"] ;
518 -> 520 ;
521 [label="gini = 0.47\nsamples = 5\nvalue = [5, 3]\nclass = Torque_min", fillcolor="#f5cdb0"] ;
515 -> 521 ;
522 [label="Trabajador <= 0.47\ngini = 0.05\nsamples = 43\nvalue = [2, 73]\nclass = Torque_max", fillcolor="#3ea0e6"] ;
514 -> 522 ;
523 [label="Trabajador <= 0.34\ngini = 0.22\nsamples = 11\nvalue = [2, 14]\nclass = Torque_max", fillcolor="#55abe9"] ;
522 -> 523 ;
524 [label="gini = 0.0\nsamples = 3\nvalue = [0, 3]\nclass = Torque_max", fillcolor="#399de5"] ;
523 -> 524 ;
525 [label="gini = 0.26\nsamples = 8\nvalue = [2, 11]\nclass = Torque_max", fillcolor="#5dafea"] ;
523 -> 525 ;
526 [label="gini = 0.0\nsamples = 32\nvalue = [0, 59]\nclass = Torque_max", fillcolor="#399de5"] ;
522 -> 526 ;
527 [label="Trabajador <= 0.26\ngini = 0.14\nsamples = 480\nvalue = [59, 709]\nclass = Torque_max", fillcolor="#49a5e7"] ;
513 -> 527 ;
528 [label="Modelo <= 0.17\ngini = 0.08\nsamples = 148\nvalue = [10, 236]\nclass = Torque_max", fillcolor="#41a1e6"] ;
527 -> 528 ;
529 [label="Modelo <= 0.16\ngini = 0.16\nsamples = 36\nvalue = [5, 54]\nclass = Torque_max", fillcolor="#4ba6e7"] ;
528 -> 529 ;
530 [label="gini = 0.0\nsamples = 23\nvalue = [0, 38]\nclass = Torque_max", fillcolor="#399de5"] ;
529 -> 530 ;
531 [label="gini = 0.36\nsamples = 13\nvalue = [5, 16]\nclass = Torque_max", fillcolor="#77bced"] ;
529 -> 531 ;
532 [label="Modelo <= 0.34\ngini = 0.05\nsamples = 112\nvalue = [5, 182]\nclass = Torque_max", fillcolor="#3ea0e6"] ;
528 -> 532 ;
533 [label="gini = 0.0\nsamples = 68\nvalue = [0, 119]\nclass = Torque_max", fillcolor="#399de5"] ;
532 -> 533 ;
534 [label="Trabajador <= 0.12\ngini = 0.14\nsamples = 44\nvalue = [5, 63]\nclass = Torque_max", fillcolor="#49a5e7"] ;
532 -> 534 ;
535 [label="gini = 0.0\nsamples = 10\nvalue = [0, 15]\nclass = Torque_max", fillcolor="#399de5"] ;
534 -> 535 ;
536 [label="Trabajador <= 0.19\ngini = 0.17\nsamples = 34\nvalue = [5, 48]\nclass = Torque_max", fillcolor="#4ea7e8"] ;
534 -> 536 ;
537 [label="gini = 0.38\nsamples = 4\nvalue = [1, 3]\nclass = Torque_max", fillcolor="#7bbeee"] ;
536 -> 537 ;
538 [label="Angle_max <= 0.05\ngini = 0.15\nsamples = 30\nvalue = [4, 45]\nclass = Torque_max", fillcolor="#4ba6e7"] ;
536 -> 538 ;
539 [label="Trabajador <= 0.23\ngini = 0.12\nsamples = 19\nvalue = [2, 29]\nclass = Torque_max", fillcolor="#47a4e7"] ;
538 -> 539 ;
540 [label="gini = 0.0\nsamples = 6\nvalue = [0, 9]\nclass = Torque_max", fillcolor="#399de5"] ;
539 -> 540 ;
541 [label="gini = 0.17\nsamples = 13\nvalue = [2, 20]\nclass = Torque_max", fillcolor="#4da7e8"] ;
539 -> 541 ;
542 [label="Modelo <= 0.36\ngini = 0.2\nsamples = 11\nvalue = [2, 16]\nclass = Torque_max", fillcolor="#52a9e8"] ;
538 -> 542 ;
543 [label="gini = 0.22\nsamples = 9\nvalue = [2, 14]\nclass = Torque_max", fillcolor="#55abe9"] ;
542 -> 543 ;
544 [label="gini = 0.0\nsamples = 2\nvalue = [0, 2]\nclass = Torque_max", fillcolor="#399de5"] ;
542 -> 544 ;
545 [label="Trabajador <= 0.43\ngini = 0.17\nsamples = 332\nvalue = [49, 473]\nclass = Torque_max", fillcolor="#4ea7e8"] ;
527 -> 545 ;
546 [label="Trabajador <= 0.35\ngini = 0.29\nsamples = 61\nvalue = [17, 80]\nclass = Torque_max", fillcolor="#63b2eb"] ;
545 -> 546 ;
547 [label="Modelo <= 0.22\ngini = 0.26\nsamples = 57\nvalue = [14, 77]\nclass = Torque_max", fillcolor="#5dafea"] ;
546 -> 547 ;
548 [label="Modelo <= 0.18\ngini = 0.47\nsamples = 6\nvalue = [5, 8]\nclass = Torque_max", fillcolor="#b5daf5"] ;
547 -> 548 ;
549 [label="gini = 0.0\nsamples = 1\nvalue = [0, 1]\nclass = Torque_max", fillcolor="#399de5"] ;
548 -> 549 ;
550 [label="gini = 0.49\nsamples = 5\nvalue = [5, 7]\nclass = Torque_max", fillcolor="#c6e3f8"] ;
548 -> 550 ;
551 [label="Angle_max <= 0.09\ngini = 0.2\nsamples = 51\nvalue = [9, 69]\nclass = Torque_max", fillcolor="#53aae8"] ;
547 -> 551 ;
552 [label="Angle_max <= 0.05\ngini = 0.21\nsamples = 50\nvalue = [9, 67]\nclass = Torque_max", fillcolor="#54aae8"] ;
551 -> 552 ;
553 [label="Modelo <= 0.32\ngini = 0.22\nsamples = 34\nvalue = [6, 42]\nclass = Torque_max", fillcolor="#55abe9"] ;
552 -> 553 ;
554 [label="gini = 0.0\nsamples = 9\nvalue = [0, 12]\nclass = Torque_max", fillcolor="#399de5"] ;
553 -> 554 ;
555 [label="Modelo <= 0.34\ngini = 0.28\nsamples = 25\nvalue = [6, 30]\nclass = Torque_max", fillcolor="#61b1ea"] ;
553 -> 555 ;
556 [label="gini = 0.3\nsamples = 24\nvalue = [6, 27]\nclass = Torque_max", fillcolor="#65b3eb"] ;
555 -> 556 ;
557 [label="gini = 0.0\nsamples = 1\nvalue = [0, 3]\nclass = Torque_max", fillcolor="#399de5"] ;
555 -> 557 ;
558 [label="Modelo <= 0.31\ngini = 0.19\nsamples = 16\nvalue = [3, 25]\nclass = Torque_max", fillcolor="#51a9e8"] ;
552 -> 558 ;
559 [label="gini = 0.0\nsamples = 9\nvalue = [0, 15]\nclass = Torque_max", fillcolor="#399de5"] ;
558 -> 559 ;
560 [label="gini = 0.36\nsamples = 7\nvalue = [3, 10]\nclass = Torque_max", fillcolor="#74baed"] ;
558 -> 560 ;
561 [label="gini = 0.0\nsamples = 1\nvalue = [0, 2]\nclass = Torque_max", fillcolor="#399de5"] ;
551 -> 561 ;
562 [label="gini = 0.5\nsamples = 4\nvalue = [3, 3]\nclass = Torque_min", fillcolor="#ffffff"] ;
546 -> 562 ;
563 [label="Modelo <= 0.36\ngini = 0.14\nsamples = 271\nvalue = [32, 393]\nclass = Torque_max", fillcolor="#49a5e7"] ;
545 -> 563 ;
564 [label="Trabajador <= 0.77\ngini = 0.12\nsamples = 238\nvalue = [23, 349]\nclass = Torque_max", fillcolor="#46a3e7"] ;
563 -> 564 ;
565 [label="Modelo <= 0.28\ngini = 0.09\nsamples = 216\nvalue = [16, 323]\nclass = Torque_max", fillcolor="#43a2e6"] ;
564 -> 565 ;
566 [label="Modelo <= 0.17\ngini = 0.13\nsamples = 146\nvalue = [15, 203]\nclass = Torque_max", fillcolor="#48a4e7"] ;
565 -> 566 ;
567 [label="Pset_name_cat <= 0.19\ngini = 0.19\nsamples = 35\nvalue = [6, 52]\nclass = Torque_max", fillcolor="#50a8e8"] ;
566 -> 567 ;
568 [label="gini = 0.0\nsamples = 8\nvalue = [0, 14]\nclass = Torque_max", fillcolor="#399de5"] ;
567 -> 568 ;
569 [label="Trabajador <= 0.74\ngini = 0.24\nsamples = 27\nvalue = [6, 38]\nclass = Torque_max", fillcolor="#58ace9"] ;
567 -> 569 ;
570 [label="gini = 0.38\nsamples = 6\nvalue = [2, 6]\nclass = Torque_max", fillcolor="#7bbeee"] ;
569 -> 570 ;
571 [label="Modelo <= 0.16\ngini = 0.2\nsamples = 21\nvalue = [4, 32]\nclass = Torque_max", fillcolor="#52a9e8"] ;
569 -> 571 ;
572 [label="gini = 0.0\nsamples = 7\nvalue = [0, 11]\nclass = Torque_max", fillcolor="#399de5"] ;
571 -> 572 ;
573 [label="gini = 0.27\nsamples = 14\nvalue = [4, 21]\nclass = Torque_max", fillcolor="#5fb0ea"] ;
571 -> 573 ;
574 [label="Angle_max <= 0.05\ngini = 0.11\nsamples = 111\nvalue = [9, 151]\nclass = Torque_max", fillcolor="#45a3e7"] ;
566 -> 574 ;
575 [label="Modelo <= 0.26\ngini = 0.15\nsamples = 26\nvalue = [3, 35]\nclass = Torque_max", fillcolor="#4aa5e7"] ;
574 -> 575 ;
576 [label="gini = 0.0\nsamples = 12\nvalue = [0, 15]\nclass = Torque_max", fillcolor="#399de5"] ;
575 -> 576 ;
577 [label="Modelo <= 0.27\ngini = 0.23\nsamples = 14\nvalue = [3, 20]\nclass = Torque_max", fillcolor="#57ace9"] ;
575 -> 577 ;
578 [label="gini = 0.3\nsamples = 9\nvalue = [3, 13]\nclass = Torque_max", fillcolor="#67b4eb"] ;
577 -> 578 ;
579 [label="gini = 0.0\nsamples = 5\nvalue = [0, 7]\nclass = Torque_max", fillcolor="#399de5"] ;
577 -> 579 ;
580 [label="Trabajador <= 0.74\ngini = 0.09\nsamples = 85\nvalue = [6, 116]\nclass = Torque_max", fillcolor="#43a2e6"] ;
574 -> 580 ;
581 [label="Modelo <= 0.23\ngini = 0.16\nsamples = 35\nvalue = [4, 43]\nclass = Torque_max", fillcolor="#4ba6e7"] ;
580 -> 581 ;
582 [label="Modelo <= 0.21\ngini = 0.38\nsamples = 8\nvalue = [2, 6]\nclass = Torque_max", fillcolor="#7bbeee"] ;
581 -> 582 ;
583 [label="gini = 0.0\nsamples = 6\nvalue = [0, 6]\nclass = Torque_max", fillcolor="#399de5"] ;
582 -> 583 ;
584 [label="gini = 0.0\nsamples = 2\nvalue = [2, 0]\nclass = Torque_min", fillcolor="#e58139"] ;
582 -> 584 ;
585 [label="Modelo <= 0.27\ngini = 0.1\nsamples = 27\nvalue = [2, 37]\nclass = Torque_max", fillcolor="#44a2e6"] ;
581 -> 585 ;
586 [label="gini = 0.0\nsamples = 16\nvalue = [0, 23]\nclass = Torque_max", fillcolor="#399de5"] ;
585 -> 586 ;
587 [label="gini = 0.22\nsamples = 11\nvalue = [2, 14]\nclass = Torque_max", fillcolor="#55abe9"] ;
585 -> 587 ;
588 [label="Modelo <= 0.26\ngini = 0.05\nsamples = 50\nvalue = [2, 73]\nclass = Torque_max", fillcolor="#3ea0e6"] ;
580 -> 588 ;
589 [label="Modelo <= 0.26\ngini = 0.06\nsamples = 42\nvalue = [2, 62]\nclass = Torque_max", fillcolor="#3fa0e6"] ;
588 -> 589 ;
590 [label="Modelo <= 0.2\ngini = 0.04\nsamples = 30\nvalue = [1, 44]\nclass = Torque_max", fillcolor="#3d9fe6"] ;
589 -> 590 ;
591 [label="gini = 0.08\nsamples = 16\nvalue = [1, 23]\nclass = Torque_max", fillcolor="#42a1e6"] ;
590 -> 591 ;
592 [label="gini = 0.0\nsamples = 14\nvalue = [0, 21]\nclass = Torque_max", fillcolor="#399de5"] ;
590 -> 592 ;
593 [label="gini = 0.1\nsamples = 12\nvalue = [1, 18]\nclass = Torque_max", fillcolor="#44a2e6"] ;
589 -> 593 ;
594 [label="gini = 0.0\nsamples = 8\nvalue = [0, 11]\nclass = Torque_max", fillcolor="#399de5"] ;
588 -> 594 ;
595 [label="Trabajador <= 0.74\ngini = 0.02\nsamples = 70\nvalue = [1, 120]\nclass = Torque_max", fillcolor="#3b9ee5"] ;
565 -> 595 ;
596 [label="gini = 0.0\nsamples = 31\nvalue = [0, 51]\nclass = Torque_max", fillcolor="#399de5"] ;
595 -> 596 ;
597 [label="Modelo <= 0.3\ngini = 0.03\nsamples = 39\nvalue = [1, 69]\nclass = Torque_max", fillcolor="#3c9ee5"] ;
595 -> 597 ;
598 [label="gini = 0.06\nsamples = 19\nvalue = [1, 31]\nclass = Torque_max", fillcolor="#3fa0e6"] ;
597 -> 598 ;
599 [label="gini = 0.0\nsamples = 20\nvalue = [0, 38]\nclass = Torque_max", fillcolor="#399de5"] ;
597 -> 599 ;
600 [label="Angle_max <= 0.05\ngini = 0.33\nsamples = 22\nvalue = [7, 26]\nclass = Torque_max", fillcolor="#6eb7ec"] ;
564 -> 600 ;
601 [label="Modelo <= 0.18\ngini = 0.08\nsamples = 15\nvalue = [1, 22]\nclass = Torque_max", fillcolor="#42a1e6"] ;
600 -> 601 ;
602 [label="gini = 0.22\nsamples = 5\nvalue = [1, 7]\nclass = Torque_max", fillcolor="#55abe9"] ;
601 -> 602 ;
603 [label="gini = 0.0\nsamples = 10\nvalue = [0, 15]\nclass = Torque_max", fillcolor="#399de5"] ;
601 -> 603 ;
604 [label="Modelo <= 0.32\ngini = 0.48\nsamples = 7\nvalue = [6, 4]\nclass = Torque_min", fillcolor="#f6d5bd"] ;
600 -> 604 ;
605 [label="gini = 0.0\nsamples = 1\nvalue = [0, 1]\nclass = Torque_max", fillcolor="#399de5"] ;
604 -> 605 ;
606 [label="gini = 0.44\nsamples = 6\nvalue = [6, 3]\nclass = Torque_min", fillcolor="#f2c09c"] ;
604 -> 606 ;
607 [label="Modelo <= 0.37\ngini = 0.28\nsamples = 33\nvalue = [9, 44]\nclass = Torque_max", fillcolor="#61b1ea"] ;
563 -> 607 ;
608 [label="Trabajador <= 0.74\ngini = 0.38\nsamples = 24\nvalue = [9, 27]\nclass = Torque_max", fillcolor="#7bbeee"] ;
607 -> 608 ;
609 [label="gini = 0.4\nsamples = 16\nvalue = [7, 18]\nclass = Torque_max", fillcolor="#86c3ef"] ;
608 -> 609 ;
610 [label="gini = 0.3\nsamples = 8\nvalue = [2, 9]\nclass = Torque_max", fillcolor="#65b3eb"] ;
608 -> 610 ;
611 [label="gini = 0.0\nsamples = 9\nvalue = [0, 17]\nclass = Torque_max", fillcolor="#399de5"] ;
607 -> 611 ;
612 [label="gini = 0.46\nsamples = 8\nvalue = [4, 7]\nclass = Torque_max", fillcolor="#aad5f4"] ;
512 -> 612 ;
613 [label="Trabajador <= 0.65\ngini = 0.07\nsamples = 10325\nvalue = [570, 15798]\nclass = Torque_max", fillcolor="#40a1e6"] ;
505 -> 613 ;
614 [label="Trabajador <= 0.52\ngini = 0.06\nsamples = 8412\nvalue = [421, 12857]\nclass = Torque_max", fillcolor="#3fa0e6"] ;
613 -> 614 ;
615 [label="Angle_min <= 0.0\ngini = 0.08\nsamples = 4197\nvalue = [270, 6370]\nclass = Torque_max", fillcolor="#41a1e6"] ;
614 -> 615 ;
616 [label="Trabajador <= 0.07\ngini = 0.06\nsamples = 3192\nvalue = [154, 4889]\nclass = Torque_max", fillcolor="#3fa0e6"] ;
615 -> 616 ;
617 [label="Modelo <= 0.12\ngini = 0.12\nsamples = 323\nvalue = [32, 479]\nclass = Torque_max", fillcolor="#46a4e7"] ;
616 -> 617 ;
618 [label="gini = 0.5\nsamples = 2\nvalue = [1, 1]\nclass = Torque_min", fillcolor="#ffffff"] ;
617 -> 618 ;
619 [label="Modelo <= 0.53\ngini = 0.11\nsamples = 321\nvalue = [31, 478]\nclass = Torque_max", fillcolor="#46a3e7"] ;
617 -> 619 ;
620 [label="Modelo <= 0.53\ngini = 0.14\nsamples = 261\nvalue = [30, 374]\nclass = Torque_max", fillcolor="#49a5e7"] ;
619 -> 620 ;
621 [label="Pset_name_cat <= 0.26\ngini = 0.11\nsamples = 252\nvalue = [23, 365]\nclass = Torque_max", fillcolor="#45a3e7"] ;
620 -> 621 ;
622 [label="Modelo <= 0.23\ngini = 0.13\nsamples = 184\nvalue = [21, 269]\nclass = Torque_max", fillcolor="#48a5e7"] ;
621 -> 622 ;
623 [label="Pset_name_cat <= 0.25\ngini = 0.36\nsamples = 11\nvalue = [4, 13]\nclass = Torque_max", fillcolor="#76bbed"] ;
622 -> 623 ;
624 [label="gini = 0.0\nsamples = 4\nvalue = [0, 8]\nclass = Torque_max", fillcolor="#399de5"] ;
623 -> 624 ;
625 [label="gini = 0.49\nsamples = 7\nvalue = [4, 5]\nclass = Torque_max", fillcolor="#d7ebfa"] ;
623 -> 625 ;
626 [label="Modelo <= 0.4\ngini = 0.12\nsamples = 173\nvalue = [17, 256]\nclass = Torque_max", fillcolor="#46a4e7"] ;
622 -> 626 ;
627 [label="Trabajador <= 0.06\ngini = 0.04\nsamples = 58\nvalue = [2, 88]\nclass = Torque_max", fillcolor="#3d9fe6"] ;
626 -> 627 ;
628 [label="gini = 0.0\nsamples = 21\nvalue = [0, 35]\nclass = Torque_max", fillcolor="#399de5"] ;
627 -> 628 ;
629 [label="Torque_max <= 0.75\ngini = 0.07\nsamples = 37\nvalue = [2, 53]\nclass = Torque_max", fillcolor="#40a1e6"] ;
627 -> 629 ;
630 [label="gini = 0.0\nsamples = 11\nvalue = [0, 18]\nclass = Torque_max", fillcolor="#399de5"] ;
629 -> 630 ;
631 [label="gini = 0.1\nsamples = 26\nvalue = [2, 35]\nclass = Torque_max", fillcolor="#44a3e6"] ;
629 -> 631 ;
632 [label="Torque_max <= 0.75\ngini = 0.15\nsamples = 115\nvalue = [15, 168]\nclass = Torque_max", fillcolor="#4ba6e7"] ;
626 -> 632 ;
633 [label="gini = 0.32\nsamples = 7\nvalue = [2, 8]\nclass = Torque_max", fillcolor="#6ab6ec"] ;
632 -> 633 ;
634 [label="Modelo <= 0.49\ngini = 0.14\nsamples = 108\nvalue = [13, 160]\nclass = Torque_max", fillcolor="#49a5e7"] ;
632 -> 634 ;
635 [label="Modelo <= 0.48\ngini = 0.24\nsamples = 47\nvalue = [10, 61]\nclass = Torque_max", fillcolor="#59ade9"] ;
634 -> 635 ;
636 [label="Modelo <= 0.47\ngini = 0.15\nsamples = 33\nvalue = [4, 45]\nclass = Torque_max", fillcolor="#4ba6e7"] ;
635 -> 636 ;
637 [label="gini = 0.15\nsamples = 25\nvalue = [3, 34]\nclass = Torque_max", fillcolor="#4aa6e7"] ;
636 -> 637 ;
638 [label="gini = 0.15\nsamples = 8\nvalue = [1, 11]\nclass = Torque_max", fillcolor="#4ba6e7"] ;
636 -> 638 ;
639 [label="gini = 0.4\nsamples = 14\nvalue = [6, 16]\nclass = Torque_max", fillcolor="#83c2ef"] ;
635 -> 639 ;
640 [label="Trabajador <= 0.07\ngini = 0.06\nsamples = 61\nvalue = [3, 99]\nclass = Torque_max", fillcolor="#3fa0e6"] ;
634 -> 640 ;
641 [label="gini = 0.28\nsamples = 3\nvalue = [1, 5]\nclass = Torque_max", fillcolor="#61b1ea"] ;
640 -> 641 ;
642 [label="Modelo <= 0.51\ngini = 0.04\nsamples = 58\nvalue = [2, 94]\nclass = Torque_max", fillcolor="#3d9fe6"] ;
640 -> 642 ;
643 [label="gini = 0.0\nsamples = 31\nvalue = [0, 54]\nclass = Torque_max", fillcolor="#399de5"] ;
642 -> 643 ;
644 [label="Modelo <= 0.51\ngini = 0.09\nsamples = 27\nvalue = [2, 40]\nclass = Torque_max", fillcolor="#43a2e6"] ;
642 -> 644 ;
645 [label="gini = 0.18\nsamples = 13\nvalue = [2, 18]\nclass = Torque_max", fillcolor="#4fa8e8"] ;
644 -> 645 ;
646 [label="gini = 0.0\nsamples = 14\nvalue = [0, 22]\nclass = Torque_max", fillcolor="#399de5"] ;
644 -> 646 ;
647 [label="Modelo <= 0.26\ngini = 0.04\nsamples = 68\nvalue = [2, 96]\nclass = Torque_max", fillcolor="#3d9fe6"] ;
621 -> 647 ;
648 [label="gini = 0.0\nsamples = 29\nvalue = [0, 42]\nclass = Torque_max", fillcolor="#399de5"] ;
647 -> 648 ;
649 [label="Modelo <= 0.26\ngini = 0.07\nsamples = 39\nvalue = [2, 54]\nclass = Torque_max", fillcolor="#40a1e6"] ;
647 -> 649 ;
650 [label="gini = 0.22\nsamples = 10\nvalue = [2, 14]\nclass = Torque_max", fillcolor="#55abe9"] ;
649 -> 650 ;
651 [label="gini = 0.0\nsamples = 29\nvalue = [0, 40]\nclass = Torque_max", fillcolor="#399de5"] ;
649 -> 651 ;
652 [label="gini = 0.49\nsamples = 9\nvalue = [7, 9]\nclass = Torque_max", fillcolor="#d3e9f9"] ;
620 -> 652 ;
653 [label="Modelo <= 0.54\ngini = 0.02\nsamples = 60\nvalue = [1, 104]\nclass = Torque_max", fillcolor="#3b9ee5"] ;
619 -> 653 ;
654 [label="gini = 0.03\nsamples = 41\nvalue = [1, 73]\nclass = Torque_max", fillcolor="#3c9ee5"] ;
653 -> 654 ;
655 [label="gini = 0.0\nsamples = 19\nvalue = [0, 31]\nclass = Torque_max", fillcolor="#399de5"] ;
653 -> 655 ;
656 [label="Trabajador <= 0.15\ngini = 0.05\nsamples = 2869\nvalue = [122, 4410]\nclass = Torque_max", fillcolor="#3ea0e6"] ;
616 -> 656 ;
657 [label="Modelo <= 0.63\ngini = 0.01\nsamples = 876\nvalue = [6, 1393]\nclass = Torque_max", fillcolor="#3a9de5"] ;
656 -> 657 ;
658 [label="gini = 0.0\nsamples = 674\nvalue = [0, 1078]\nclass = Torque_max", fillcolor="#399de5"] ;
657 -> 658 ;
659 [label="Trabajador <= 0.09\ngini = 0.04\nsamples = 202\nvalue = [6, 315]\nclass = Torque_max", fillcolor="#3d9fe5"] ;
657 -> 659 ;
660 [label="gini = 0.0\nsamples = 21\nvalue = [0, 25]\nclass = Torque_max", fillcolor="#399de5"] ;
659 -> 660 ;
661 [label="Modelo <= 0.64\ngini = 0.04\nsamples = 181\nvalue = [6, 290]\nclass = Torque_max", fillcolor="#3d9fe6"] ;
659 -> 661 ;
662 [label="gini = 0.16\nsamples = 14\nvalue = [2, 21]\nclass = Torque_max", fillcolor="#4ca6e7"] ;
661 -> 662 ;
663 [label="Modelo <= 0.65\ngini = 0.03\nsamples = 167\nvalue = [4, 269]\nclass = Torque_max", fillcolor="#3c9ee5"] ;
661 -> 663 ;
664 [label="gini = 0.0\nsamples = 93\nvalue = [0, 147]\nclass = Torque_max", fillcolor="#399de5"] ;
663 -> 664 ;
665 [label="Modelo <= 0.68\ngini = 0.06\nsamples = 74\nvalue = [4, 122]\nclass = Torque_max", fillcolor="#3fa0e6"] ;
663 -> 665 ;
666 [label="Modelo <= 0.66\ngini = 0.1\nsamples = 45\nvalue = [4, 73]\nclass = Torque_max", fillcolor="#44a2e6"] ;
665 -> 666 ;
667 [label="gini = 0.15\nsamples = 14\nvalue = [2, 23]\nclass = Torque_max", fillcolor="#4aa6e7"] ;
666 -> 667 ;
668 [label="Modelo <= 0.67\ngini = 0.07\nsamples = 31\nvalue = [2, 50]\nclass = Torque_max", fillcolor="#41a1e6"] ;
666 -> 668 ;
669 [label="gini = 0.0\nsamples = 16\nvalue = [0, 24]\nclass = Torque_max", fillcolor="#399de5"] ;
668 -> 669 ;
670 [label="gini = 0.13\nsamples = 15\nvalue = [2, 26]\nclass = Torque_max", fillcolor="#48a5e7"] ;
668 -> 670 ;
671 [label="gini = 0.0\nsamples = 29\nvalue = [0, 49]\nclass = Torque_max", fillcolor="#399de5"] ;
665 -> 671 ;
672 [label="Modelo <= 0.28\ngini = 0.07\nsamples = 1993\nvalue = [116, 3017]\nclass = Torque_max", fillcolor="#41a1e6"] ;
656 -> 672 ;
673 [label="Trabajador <= 0.25\ngini = 0.09\nsamples = 734\nvalue = [57, 1083]\nclass = Torque_max", fillcolor="#43a2e6"] ;
672 -> 673 ;
674 [label="Torque_max <= 0.45\ngini = 0.13\nsamples = 437\nvalue = [49, 638]\nclass = Torque_max", fillcolor="#48a5e7"] ;
673 -> 674 ;
675 [label="Modelo <= 0.27\ngini = 0.05\nsamples = 78\nvalue = [3, 120]\nclass = Torque_max", fillcolor="#3e9fe6"] ;
674 -> 675 ;
676 [label="Modelo <= 0.15\ngini = 0.04\nsamples = 70\nvalue = [2, 110]\nclass = Torque_max", fillcolor="#3d9fe5"] ;
675 -> 676 ;
677 [label="gini = 0.08\nsamples = 34\nvalue = [2, 49]\nclass = Torque_max", fillcolor="#41a1e6"] ;
676 -> 677 ;
678 [label="gini = 0.0\nsamples = 36\nvalue = [0, 61]\nclass = Torque_max", fillcolor="#399de5"] ;
676 -> 678 ;
679 [label="gini = 0.17\nsamples = 8\nvalue = [1, 10]\nclass = Torque_max", fillcolor="#4da7e8"] ;
675 -> 679 ;
680 [label="Trabajador <= 0.19\ngini = 0.15\nsamples = 359\nvalue = [46, 518]\nclass = Torque_max", fillcolor="#4ba6e7"] ;
674 -> 680 ;
681 [label="Trabajador <= 0.18\ngini = 0.11\nsamples = 186\nvalue = [18, 276]\nclass = Torque_max", fillcolor="#46a3e7"] ;
680 -> 681 ;
682 [label="Modelo <= 0.21\ngini = 0.12\nsamples = 180\nvalue = [18, 267]\nclass = Torque_max", fillcolor="#46a4e7"] ;
681 -> 682 ;
683 [label="Modelo <= 0.18\ngini = 0.17\nsamples = 15\nvalue = [2, 20]\nclass = Torque_max", fillcolor="#4da7e8"] ;
682 -> 683 ;
684 [label="gini = 0.0\nsamples = 2\nvalue = [0, 4]\nclass = Torque_max", fillcolor="#399de5"] ;
683 -> 684 ;
685 [label="gini = 0.2\nsamples = 13\nvalue = [2, 16]\nclass = Torque_max", fillcolor="#52a9e8"] ;
683 -> 685 ;
686 [label="Trabajador <= 0.16\ngini = 0.11\nsamples = 165\nvalue = [16, 247]\nclass = Torque_max", fillcolor="#46a3e7"] ;
682 -> 686 ;
687 [label="gini = 0.15\nsamples = 13\nvalue = [2, 23]\nclass = Torque_max", fillcolor="#4aa6e7"] ;
686 -> 687 ;
688 [label="gini = 0.11\nsamples = 152\nvalue = [14, 224]\nclass = Torque_max", fillcolor="#45a3e7"] ;
686 -> 688 ;
689 [label="gini = 0.0\nsamples = 6\nvalue = [0, 9]\nclass = Torque_max", fillcolor="#399de5"] ;
681 -> 689 ;
690 [label="Angle_max <= 0.07\ngini = 0.19\nsamples = 173\nvalue = [28, 242]\nclass = Torque_max", fillcolor="#50a8e8"] ;
680 -> 690 ;
691 [label="Angle_max <= 0.04\ngini = 0.17\nsamples = 155\nvalue = [23, 220]\nclass = Torque_max", fillcolor="#4ea7e8"] ;
690 -> 691 ;
692 [label="Modelo <= 0.26\ngini = 0.18\nsamples = 143\nvalue = [23, 203]\nclass = Torque_max", fillcolor="#4fa8e8"] ;
691 -> 692 ;
693 [label="Modelo <= 0.16\ngini = 0.23\nsamples = 67\nvalue = [14, 89]\nclass = Torque_max", fillcolor="#58ace9"] ;
692 -> 693 ;
694 [label="Modelo <= 0.15\ngini = 0.13\nsamples = 48\nvalue = [5, 68]\nclass = Torque_max", fillcolor="#48a4e7"] ;
693 -> 694 ;
695 [label="gini = 0.15\nsamples = 42\nvalue = [5, 58]\nclass = Torque_max", fillcolor="#4aa5e7"] ;
694 -> 695 ;
696 [label="gini = 0.0\nsamples = 6\nvalue = [0, 10]\nclass = Torque_max", fillcolor="#399de5"] ;
694 -> 696 ;
697 [label="Modelo <= 0.23\ngini = 0.42\nsamples = 19\nvalue = [9, 21]\nclass = Torque_max", fillcolor="#8ec7f0"] ;
693 -> 697 ;
698 [label="Modelo <= 0.2\ngini = 0.45\nsamples = 14\nvalue = [8, 15]\nclass = Torque_max", fillcolor="#a3d1f3"] ;
697 -> 698 ;
699 [label="gini = 0.45\nsamples = 11\nvalue = [7, 13]\nclass = Torque_max", fillcolor="#a4d2f3"] ;
698 -> 699 ;
700 [label="gini = 0.44\nsamples = 3\nvalue = [1, 2]\nclass = Torque_max", fillcolor="#9ccef2"] ;
698 -> 700 ;
701 [label="Torque_max <= 0.67\ngini = 0.24\nsamples = 5\nvalue = [1, 6]\nclass = Torque_max", fillcolor="#5aade9"] ;
697 -> 701 ;
702 [label="gini = 0.32\nsamples = 4\nvalue = [1, 4]\nclass = Torque_max", fillcolor="#6ab6ec"] ;
701 -> 702 ;
703 [label="gini = 0.0\nsamples = 1\nvalue = [0, 2]\nclass = Torque_max", fillcolor="#399de5"] ;
701 -> 703 ;
704 [label="Trabajador <= 0.22\ngini = 0.14\nsamples = 76\nvalue = [9, 114]\nclass = Torque_max", fillcolor="#49a5e7"] ;
692 -> 704 ;
705 [label="gini = 0.0\nsamples = 7\nvalue = [0, 10]\nclass = Torque_max", fillcolor="#399de5"] ;
704 -> 705 ;
706 [label="Modelo <= 0.27\ngini = 0.15\nsamples = 69\nvalue = [9, 104]\nclass = Torque_max", fillcolor="#4aa5e7"] ;
704 -> 706 ;
707 [label="gini = 0.0\nsamples = 16\nvalue = [0, 22]\nclass = Torque_max", fillcolor="#399de5"] ;
706 -> 707 ;
708 [label="gini = 0.18\nsamples = 53\nvalue = [9, 82]\nclass = Torque_max", fillcolor="#4fa8e8"] ;
706 -> 708 ;
709 [label="gini = 0.0\nsamples = 12\nvalue = [0, 17]\nclass = Torque_max", fillcolor="#399de5"] ;
691 -> 709 ;
710 [label="Modelo <= 0.26\ngini = 0.3\nsamples = 18\nvalue = [5, 22]\nclass = Torque_max", fillcolor="#66b3eb"] ;
690 -> 710 ;
711 [label="Modelo <= 0.17\ngini = 0.11\nsamples = 13\nvalue = [1, 16]\nclass = Torque_max", fillcolor="#45a3e7"] ;
710 -> 711 ;
712 [label="gini = 0.15\nsamples = 9\nvalue = [1, 11]\nclass = Torque_max", fillcolor="#4ba6e7"] ;
711 -> 712 ;
713 [label="gini = 0.0\nsamples = 4\nvalue = [0, 5]\nclass = Torque_max", fillcolor="#399de5"] ;
711 -> 713 ;
714 [label="Modelo <= 0.27\ngini = 0.48\nsamples = 5\nvalue = [4, 6]\nclass = Torque_max", fillcolor="#bddef6"] ;
710 -> 714 ;
715 [label="gini = 0.49\nsamples = 4\nvalue = [4, 5]\nclass = Torque_max", fillcolor="#d7ebfa"] ;
714 -> 715 ;
716 [label="gini = 0.0\nsamples = 1\nvalue = [0, 1]\nclass = Torque_max", fillcolor="#399de5"] ;
714 -> 716 ;
717 [label="Trabajador <= 0.43\ngini = 0.03\nsamples = 297\nvalue = [8, 445]\nclass = Torque_max", fillcolor="#3d9fe5"] ;
673 -> 717 ;
718 [label="Pset_name_cat <= 0.25\ngini = 0.04\nsamples = 238\nvalue = [8, 355]\nclass = Torque_max", fillcolor="#3d9fe6"] ;
717 -> 718 ;
719 [label="Trabajador <= 0.37\ngini = 0.09\nsamples = 53\nvalue = [4, 81]\nclass = Torque_max", fillcolor="#43a2e6"] ;
718 -> 719 ;
720 [label="Modelo <= 0.18\ngini = 0.12\nsamples = 31\nvalue = [3, 45]\nclass = Torque_max", fillcolor="#46a4e7"] ;
719 -> 720 ;
721 [label="gini = 0.0\nsamples = 5\nvalue = [0, 9]\nclass = Torque_max", fillcolor="#399de5"] ;
720 -> 721 ;
722 [label="gini = 0.14\nsamples = 26\nvalue = [3, 36]\nclass = Torque_max", fillcolor="#49a5e7"] ;
720 -> 722 ;
723 [label="gini = 0.05\nsamples = 22\nvalue = [1, 36]\nclass = Torque_max", fillcolor="#3ea0e6"] ;
719 -> 723 ;
724 [label="Modelo <= 0.27\ngini = 0.03\nsamples = 185\nvalue = [4, 274]\nclass = Torque_max", fillcolor="#3c9ee5"] ;
718 -> 724 ;
725 [label="Modelo <= 0.15\ngini = 0.02\nsamples = 145\nvalue = [2, 214]\nclass = Torque_max", fillcolor="#3b9ee5"] ;
724 -> 725 ;
726 [label="gini = 0.08\nsamples = 17\nvalue = [1, 24]\nclass = Torque_max", fillcolor="#41a1e6"] ;
725 -> 726 ;
727 [label="Modelo <= 0.23\ngini = 0.01\nsamples = 128\nvalue = [1, 190]\nclass = Torque_max", fillcolor="#3a9ee5"] ;
725 -> 727 ;
728 [label="Modelo <= 0.2\ngini = 0.02\nsamples = 59\nvalue = [1, 88]\nclass = Torque_max", fillcolor="#3b9ee5"] ;
727 -> 728 ;
729 [label="gini = 0.0\nsamples = 54\nvalue = [0, 81]\nclass = Torque_max", fillcolor="#399de5"] ;
728 -> 729 ;
730 [label="gini = 0.22\nsamples = 5\nvalue = [1, 7]\nclass = Torque_max", fillcolor="#55abe9"] ;
728 -> 730 ;
731 [label="gini = 0.0\nsamples = 69\nvalue = [0, 102]\nclass = Torque_max", fillcolor="#399de5"] ;
727 -> 731 ;
732 [label="Angle_max <= 0.11\ngini = 0.06\nsamples = 40\nvalue = [2, 60]\nclass = Torque_max", fillcolor="#40a0e6"] ;
724 -> 732 ;
733 [label="gini = 0.0\nsamples = 29\nvalue = [0, 46]\nclass = Torque_max", fillcolor="#399de5"] ;
732 -> 733 ;
734 [label="gini = 0.22\nsamples = 11\nvalue = [2, 14]\nclass = Torque_max", fillcolor="#55abe9"] ;
732 -> 734 ;
735 [label="gini = 0.0\nsamples = 59\nvalue = [0, 90]\nclass = Torque_max", fillcolor="#399de5"] ;
717 -> 735 ;
736 [label="Trabajador <= 0.19\ngini = 0.06\nsamples = 1259\nvalue = [59, 1934]\nclass = Torque_max", fillcolor="#3fa0e6"] ;
672 -> 736 ;
737 [label="Angle_max <= 0.11\ngini = 0.13\nsamples = 278\nvalue = [30, 406]\nclass = Torque_max", fillcolor="#48a4e7"] ;
736 -> 737 ;
738 [label="Modelo <= 0.47\ngini = 0.11\nsamples = 265\nvalue = [25, 393]\nclass = Torque_max", fillcolor="#46a3e7"] ;
737 -> 738 ;
739 [label="Modelo <= 0.46\ngini = 0.16\nsamples = 93\nvalue = [13, 136]\nclass = Torque_max", fillcolor="#4ca6e7"] ;
738 -> 739 ;
740 [label="Pset_name_cat <= 0.25\ngini = 0.06\nsamples = 63\nvalue = [3, 97]\nclass = Torque_max", fillcolor="#3fa0e6"] ;
739 -> 740 ;
741 [label="Modelo <= 0.4\ngini = 0.08\nsamples = 45\nvalue = [3, 67]\nclass = Torque_max", fillcolor="#42a1e6"] ;
740 -> 741 ;
742 [label="gini = 0.08\nsamples = 44\nvalue = [3, 66]\nclass = Torque_max", fillcolor="#42a1e6"] ;
741 -> 742 ;
743 [label="gini = 0.0\nsamples = 1\nvalue = [0, 1]\nclass = Torque_max", fillcolor="#399de5"] ;
741 -> 743 ;
744 [label="gini = 0.0\nsamples = 18\nvalue = [0, 30]\nclass = Torque_max", fillcolor="#399de5"] ;
740 -> 744 ;
745 [label="gini = 0.32\nsamples = 30\nvalue = [10, 39]\nclass = Torque_max", fillcolor="#6cb6ec"] ;
739 -> 745 ;
746 [label="Modelo <= 0.66\ngini = 0.09\nsamples = 172\nvalue = [12, 257]\nclass = Torque_max", fillcolor="#42a2e6"] ;
738 -> 746 ;
747 [label="Modelo <= 0.66\ngini = 0.1\nsamples = 146\nvalue = [12, 215]\nclass = Torque_max", fillcolor="#44a2e6"] ;
746 -> 747 ;
748 [label="Modelo <= 0.59\ngini = 0.07\nsamples = 132\nvalue = [8, 201]\nclass = Torque_max", fillcolor="#41a1e6"] ;
747 -> 748 ;
749 [label="Trabajador <= 0.18\ngini = 0.1\nsamples = 83\nvalue = [7, 126]\nclass = Torque_max", fillcolor="#44a2e6"] ;
748 -> 749 ;
750 [label="Modelo <= 0.53\ngini = 0.11\nsamples = 76\nvalue = [7, 116]\nclass = Torque_max", fillcolor="#45a3e7"] ;
749 -> 750 ;
751 [label="Modelo <= 0.47\ngini = 0.08\nsamples = 71\nvalue = [5, 111]\nclass = Torque_max", fillcolor="#42a1e6"] ;
750 -> 751 ;
752 [label="gini = 0.1\nsamples = 25\nvalue = [2, 35]\nclass = Torque_max", fillcolor="#44a3e6"] ;
751 -> 752 ;
753 [label="Modelo <= 0.48\ngini = 0.07\nsamples = 46\nvalue = [3, 76]\nclass = Torque_max", fillcolor="#41a1e6"] ;
751 -> 753 ;
754 [label="gini = 0.08\nsamples = 27\nvalue = [2, 47]\nclass = Torque_max", fillcolor="#41a1e6"] ;
753 -> 754 ;
755 [label="Modelo <= 0.5\ngini = 0.06\nsamples = 19\nvalue = [1, 29]\nclass = Torque_max", fillcolor="#40a0e6"] ;
753 -> 755 ;
756 [label="gini = 0.0\nsamples = 5\nvalue = [0, 7]\nclass = Torque_max", fillcolor="#399de5"] ;
755 -> 756 ;
757 [label="gini = 0.08\nsamples = 14\nvalue = [1, 22]\nclass = Torque_max", fillcolor="#42a1e6"] ;
755 -> 757 ;
758 [label="gini = 0.41\nsamples = 5\nvalue = [2, 5]\nclass = Torque_max", fillcolor="#88c4ef"] ;
750 -> 758 ;
759 [label="gini = 0.0\nsamples = 7\nvalue = [0, 10]\nclass = Torque_max", fillcolor="#399de5"] ;
749 -> 759 ;
760 [label="Modelo <= 0.65\ngini = 0.03\nsamples = 49\nvalue = [1, 75]\nclass = Torque_max", fillcolor="#3c9ee5"] ;
748 -> 760 ;
761 [label="gini = 0.0\nsamples = 39\nvalue = [0, 65]\nclass = Torque_max", fillcolor="#399de5"] ;
760 -> 761 ;
762 [label="Modelo <= 0.66\ngini = 0.17\nsamples = 10\nvalue = [1, 10]\nclass = Torque_max", fillcolor="#4da7e8"] ;
760 -> 762 ;
763 [label="gini = 0.38\nsamples = 4\nvalue = [1, 3]\nclass = Torque_max", fillcolor="#7bbeee"] ;
762 -> 763 ;
764 [label="gini = 0.0\nsamples = 6\nvalue = [0, 7]\nclass = Torque_max", fillcolor="#399de5"] ;
762 -> 764 ;
765 [label="gini = 0.35\nsamples = 14\nvalue = [4, 14]\nclass = Torque_max", fillcolor="#72b9ec"] ;
747 -> 765 ;
766 [label="gini = 0.0\nsamples = 26\nvalue = [0, 42]\nclass = Torque_max", fillcolor="#399de5"] ;
746 -> 766 ;
767 [label="Modelo <= 0.34\ngini = 0.4\nsamples = 13\nvalue = [5, 13]\nclass = Torque_max", fillcolor="#85c3ef"] ;
737 -> 767 ;
768 [label="gini = 0.0\nsamples = 1\nvalue = [0, 2]\nclass = Torque_max", fillcolor="#399de5"] ;
767 -> 768 ;
769 [label="gini = 0.43\nsamples = 12\nvalue = [5, 11]\nclass = Torque_max", fillcolor="#93caf1"] ;
767 -> 769 ;
770 [label="Modelo <= 0.5\ngini = 0.04\nsamples = 981\nvalue = [29, 1528]\nclass = Torque_max", fillcolor="#3d9fe5"] ;
736 -> 770 ;
771 [label="Trabajador <= 0.47\ngini = 0.03\nsamples = 755\nvalue = [17, 1177]\nclass = Torque_max", fillcolor="#3c9ee5"] ;
770 -> 771 ;
772 [label="Torque_max <= 0.45\ngini = 0.02\nsamples = 711\nvalue = [11, 1117]\nclass = Torque_max", fillcolor="#3b9ee5"] ;
771 -> 772 ;
773 [label="Modelo <= 0.34\ngini = 0.07\nsamples = 51\nvalue = [3, 83]\nclass = Torque_max", fillcolor="#40a1e6"] ;
772 -> 773 ;
774 [label="gini = 0.0\nsamples = 20\nvalue = [0, 31]\nclass = Torque_max", fillcolor="#399de5"] ;
773 -> 774 ;
775 [label="Trabajador <= 0.32\ngini = 0.1\nsamples = 31\nvalue = [3, 52]\nclass = Torque_max", fillcolor="#44a3e6"] ;
773 -> 775 ;
776 [label="Modelo <= 0.36\ngini = 0.16\nsamples = 19\nvalue = [3, 31]\nclass = Torque_max", fillcolor="#4ca6e8"] ;
775 -> 776 ;
777 [label="gini = 0.21\nsamples = 15\nvalue = [3, 22]\nclass = Torque_max", fillcolor="#54aae9"] ;
776 -> 777 ;
778 [label="gini = 0.0\nsamples = 4\nvalue = [0, 9]\nclass = Torque_max", fillcolor="#399de5"] ;
776 -> 778 ;
779 [label="gini = 0.0\nsamples = 12\nvalue = [0, 21]\nclass = Torque_max", fillcolor="#399de5"] ;
775 -> 779 ;
780 [label="Trabajador <= 0.35\ngini = 0.02\nsamples = 660\nvalue = [8, 1034]\nclass = Torque_max", fillcolor="#3b9ee5"] ;
772 -> 780 ;
781 [label="gini = 0.0\nsamples = 330\nvalue = [0, 520]\nclass = Torque_max", fillcolor="#399de5"] ;
780 -> 781 ;
782 [label="Trabajador <= 0.41\ngini = 0.03\nsamples = 330\nvalue = [8, 514]\nclass = Torque_max", fillcolor="#3c9fe5"] ;
780 -> 782 ;
783 [label="Torque_max <= 0.55\ngini = 0.12\nsamples = 43\nvalue = [4, 60]\nclass = Torque_max", fillcolor="#46a4e7"] ;
782 -> 783 ;
784 [label="gini = 0.1\nsamples = 15\nvalue = [1, 18]\nclass = Torque_max", fillcolor="#44a2e6"] ;
783 -> 784 ;
785 [label="gini = 0.12\nsamples = 28\nvalue = [3, 42]\nclass = Torque_max", fillcolor="#47a4e7"] ;
783 -> 785 ;
786 [label="Modelo <= 0.48\ngini = 0.02\nsamples = 287\nvalue = [4, 454]\nclass = Torque_max", fillcolor="#3b9ee5"] ;
782 -> 786 ;
787 [label="Modelo <= 0.46\ngini = 0.01\nsamples = 276\nvalue = [3, 440]\nclass = Torque_max", fillcolor="#3a9ee5"] ;
786 -> 787 ;
788 [label="Modelo <= 0.4\ngini = 0.01\nsamples = 242\nvalue = [2, 391]\nclass = Torque_max", fillcolor="#3a9ee5"] ;
787 -> 788 ;
789 [label="Modelo <= 0.37\ngini = 0.01\nsamples = 195\nvalue = [2, 316]\nclass = Torque_max", fillcolor="#3a9ee5"] ;
788 -> 789 ;
790 [label="gini = 0.0\nsamples = 36\nvalue = [0, 63]\nclass = Torque_max", fillcolor="#399de5"] ;
789 -> 790 ;
791 [label="gini = 0.02\nsamples = 159\nvalue = [2, 253]\nclass = Torque_max", fillcolor="#3b9ee5"] ;
789 -> 791 ;
792 [label="gini = 0.0\nsamples = 47\nvalue = [0, 75]\nclass = Torque_max", fillcolor="#399de5"] ;
788 -> 792 ;
793 [label="Modelo <= 0.46\ngini = 0.04\nsamples = 34\nvalue = [1, 49]\nclass = Torque_max", fillcolor="#3d9fe6"] ;
787 -> 793 ;
794 [label="gini = 0.12\nsamples = 11\nvalue = [1, 14]\nclass = Torque_max", fillcolor="#47a4e7"] ;
793 -> 794 ;
795 [label="gini = 0.0\nsamples = 23\nvalue = [0, 35]\nclass = Torque_max", fillcolor="#399de5"] ;
793 -> 795 ;
796 [label="Modelo <= 0.49\ngini = 0.12\nsamples = 11\nvalue = [1, 14]\nclass = Torque_max", fillcolor="#47a4e7"] ;
786 -> 796 ;
797 [label="gini = 0.44\nsamples = 3\nvalue = [1, 2]\nclass = Torque_max", fillcolor="#9ccef2"] ;
796 -> 797 ;
798 [label="gini = 0.0\nsamples = 8\nvalue = [0, 12]\nclass = Torque_max", fillcolor="#399de5"] ;
796 -> 798 ;
799 [label="Modelo <= 0.38\ngini = 0.17\nsamples = 44\nvalue = [6, 60]\nclass = Torque_max", fillcolor="#4da7e8"] ;
771 -> 799 ;
800 [label="Modelo <= 0.37\ngini = 0.21\nsamples = 34\nvalue = [6, 45]\nclass = Torque_max", fillcolor="#53aae8"] ;
799 -> 800 ;
801 [label="gini = 0.14\nsamples = 25\nvalue = [3, 36]\nclass = Torque_max", fillcolor="#49a5e7"] ;
800 -> 801 ;
802 [label="gini = 0.38\nsamples = 9\nvalue = [3, 9]\nclass = Torque_max", fillcolor="#7bbeee"] ;
800 -> 802 ;
803 [label="gini = 0.0\nsamples = 10\nvalue = [0, 15]\nclass = Torque_max", fillcolor="#399de5"] ;
799 -> 803 ;
804 [label="Trabajador <= 0.31\ngini = 0.06\nsamples = 226\nvalue = [12, 351]\nclass = Torque_max", fillcolor="#40a0e6"] ;
770 -> 804 ;
805 [label="gini = 0.34\nsamples = 7\nvalue = [3, 11]\nclass = Torque_max", fillcolor="#6fb8ec"] ;
804 -> 805 ;
806 [label="Modelo <= 0.5\ngini = 0.05\nsamples = 219\nvalue = [9, 340]\nclass = Torque_max", fillcolor="#3ea0e6"] ;
804 -> 806 ;
807 [label="gini = 0.3\nsamples = 7\nvalue = [2, 9]\nclass = Torque_max", fillcolor="#65b3eb"] ;
806 -> 807 ;
808 [label="Torque_min <= 0.62\ngini = 0.04\nsamples = 212\nvalue = [7, 331]\nclass = Torque_max", fillcolor="#3d9fe6"] ;
806 -> 808 ;
809 [label="Modelo <= 0.57\ngini = 0.08\nsamples = 90\nvalue = [6, 134]\nclass = Torque_max", fillcolor="#42a1e6"] ;
808 -> 809 ;
810 [label="Trabajador <= 0.4\ngini = 0.16\nsamples = 42\nvalue = [6, 61]\nclass = Torque_max", fillcolor="#4ca7e8"] ;
809 -> 810 ;
811 [label="gini = 0.0\nsamples = 6\nvalue = [0, 7]\nclass = Torque_max", fillcolor="#399de5"] ;
810 -> 811 ;
812 [label="Modelo <= 0.56\ngini = 0.18\nsamples = 36\nvalue = [6, 54]\nclass = Torque_max", fillcolor="#4fa8e8"] ;
810 -> 812 ;
813 [label="gini = 0.0\nsamples = 1\nvalue = [0, 2]\nclass = Torque_max", fillcolor="#399de5"] ;
812 -> 813 ;
814 [label="gini = 0.19\nsamples = 35\nvalue = [6, 52]\nclass = Torque_max", fillcolor="#50a8e8"] ;
812 -> 814 ;
815 [label="gini = 0.0\nsamples = 48\nvalue = [0, 73]\nclass = Torque_max", fillcolor="#399de5"] ;
809 -> 815 ;
816 [label="Trabajador <= 0.45\ngini = 0.01\nsamples = 122\nvalue = [1, 197]\nclass = Torque_max", fillcolor="#3a9de5"] ;
808 -> 816 ;
817 [label="gini = 0.0\nsamples = 80\nvalue = [0, 134]\nclass = Torque_max", fillcolor="#399de5"] ;
816 -> 817 ;
818 [label="Trabajador <= 0.47\ngini = 0.03\nsamples = 42\nvalue = [1, 63]\nclass = Torque_max", fillcolor="#3c9fe5"] ;
816 -> 818 ;
819 [label="Modelo <= 0.53\ngini = 0.05\nsamples = 30\nvalue = [1, 41]\nclass = Torque_max", fillcolor="#3e9fe6"] ;
